tree
version=v4
num_class=1
num_tree_per_iteration=1
label_index=0
max_feature_idx=24
objective=binary sigmoid:1
feature_names=motor_speed_rpm flow_rate_m3h discharge_pressure_bar suction_pressure_bar motor_power_kw temperature_c pressure_ratio specific_power efficiency_proxy load_factor vibration_rms_mms vibration_peak_mms vibration_severity bearing_health_indicator vibration_trend_slope rolling_mean_motor_speed_rpm rolling_std_motor_speed_rpm rolling_mean_temperature_c rolling_std_temperature_c rolling_mean_vibration_rms_mms rolling_std_vibration_rms_mms rolling_mean_efficiency_normalized rolling_std_efficiency_normalized bearing_condition_score seal_condition_score
feature_infos=[1122.2434288054235:2378.8942714440059] [50.002524699804304:299.99097167658874] [6.000006260602845:19.999996023788192] [1.0001332254582511:3.9999492254927342] [84.438242830504095:265.84237111056734] [64.915098715156461:95.054763542998927] [1.4768094199576232:18.072629829537355] [0.28424622484554779:4.9693227377854994] [0.33963673085188151:51.596562105786383] [0.52222153726881737:1] [0.25276243830964218:104.33348771768038] [0.55262065591816278:20.393986777184324] [0.0311839591127606:2.9941779943486631] [0:1] [-2.4699627867734704e-05:8.8543101276722393e-06] [1556.1212303466373:2008.9764510252887] [11.171756737877953:312.99490742731382] [68.389241413421658:91.812448080512198] [0.079680710540743993:3.042219338903946] [1.0857662349244994:23.510315855485675] [0.0105510523098794:31.70881947301158] [0.0137754704983901:0.81444538147726409] [0.019380456635967099:0.59511329510089506] [0.80000000000000004:1] [0.59999999999999998:1]
tree_sizes=3305 3368 3389 3355 3367 3365 3377 3354 3409 3415 3367 3438 3415 3385 3409 3393 3374 3371 3421 3447 3386 3381 3392 3423 3426 3422 3398 3379 3435 3414 3420 3374 3391 3386 3381 3395 3426 3375 3485 3434 3432 3404 3386 3401 3389 3405 3434 3391 3418 3398 3394 3416 3442 3412 3401 3428 3401 3442 3401 3402 3384 3386 3401 3383 3404 3445 3416 3428 3383 3391 3398 3428 3395 3389 3384 3474 3421 3394 3427 3402 3399 3404 3405 3431 3409 3421 3404 3426 3407 3407 3402 3451 3396 3418 3421 3417 3436 3433 3429 3412 3419 3421 3420 3434 3436 3408 3406 3410 3416 3401 3438 3419 3425 3440 3407 3406 3416 3417 3408 3422 3421 3403 3442 3431 3421 3442 3429 3410 3444 3412 3423 3426 3424 3444 3441 3410 3435 3449 3420 3453 3413 3452 3417 3420 3486 3430 3431 3429 3446 3425 3418 3444 3449 3423 3440 3479 3416 3483 3476 3438 3413 3475 3475 3417 3431 3445 3439 3453 3430 3436 3477 3437 3451 3457 3461 3442 3479 3415 3446 3465 3468 3419 3485 3480 3486 3480 3425 3459 3484 3438 3437 3421 3489 3443 3423 3488 3442 3473 3482 3427 3484 3475 3484 3505 3475

Tree=0
num_leaves=31
num_cat=0
split_feature=5 12 11 12 11 19 17 20 19 13 24 13 12 12 11 13 8 13 11 8 13 8 8 8 19 5 8 12 11 8
split_gain=125332 160675 36297.2 8340.29 15423.9 1944.6 1081.12 991.269 5341.19 1192.81 916.955 1596.07 887.835 683.352 661.353 583.752 593.204 440.371 425.794 329.25 280.951 265.278 259.186 229.153 195.502 196.151 191.687 182.903 942.18 209.528
threshold=90.465612823633421 1.4906786285934757 9.7731580545851049 0.68511870933096797 4.4530701919699149 5.3984696792809759 76.128022885813422 1.4136972268993002 5.6789253256425321 0.15337155666817417 0.80000000000000016 0.13773187219808605 0.72056401341607479 0.91479579439769287 4.1359783099596257 0.096567414997503806 3.357735493068581 0.2565220661575443 3.1835473597287387 2.3681602641223947 0.26355440678694403 4.5427930242605834 3.8134057161203661 2.8619033847054296 3.4517137711297141 90.107848362021016 4.2626679666242273 0.552188346447407 3.3468468412354109 1.7307150882620441
decision_type=2 2 2 2 2 2 2 2 2 2 2 2 2 2 2 2 2 2 2 2 2 2 2 2 2 2 2 2 2 2
left_child=1 3 10 7 12 13 17 8 9 21 11 23 14 -6 19 16 24 -4 -11 -5 22 -1 -15 -3 25 -14 -25 -9 29 -29
right_child=-2 2 6 4 5 -7 -8 27 -10 18 -12 -13 15 20 -16 -17 -18 -19 -20 -21 -22 -23 -24 26 -26 -27 -28 28 -30 -31
leaf_value=-1.7628971873214239 -1.7004472380684683 -1.7152908129818976 -1.829899315976828 -1.8911818106524048 -1.7909987236848095 -1.7105077419658341 -1.7098758399854204 -1.7029560375071027 -1.7081020703788719 -2.2365615349849954 -2.2558040550853811 -2.2485270909580684 -2.2562919707028524 -1.7955269436453374 -1.7087364419026025 -2.2415262504456259 -2.2562919707028524 -2.2250441793267157 -1.9527509008208421 -2.2562919707028524 -2.238193722233023 -2.0887401479748386 -2.2562919707028524 -1.8001677035374557 -1.77447653310931 -1.7189938481887483 -2.2562919707028524 -1.8465903404457238 -1.7133376624406398 -2.2562919707028524
leaf_weight=27.458251118659973 3039.3476924300194 21.703077673912052 13.768283784389498 9.8949189186096209 22.322727501392365 471.62850415706635 331.41108626127243 1516.3623999357224 481.09183740615845 68.664260923862457 5553.3200322389603 58.158264338970184 5.2052679061889675 8.8208243250846845 15.670094072818754 244.67045068740845 17.859453678131104 14.451963126659392 16.365202963352203 16.42351770401001 24.952244937419891 8.0857120156288129 4.6667919158935538 4.9503168463706952 15.933617293834685 2.5214601159095764 4.3078079223632812 4.4089834690093985 102.30291277170181 10.679773807525633
leaf_count=65 3819 33 49 46 64 677 472 1973 670 741 61830 640 58 26 22 2662 199 153 94 183 270 66 52 15 41 4 48 17 152 119
internal_value=-1.97843 -2.0713 -2.22221 -1.77873 -1.911 -1.74481 -1.73517 -1.72782 -1.78268 -2.08026 -2.25325 -2.09414 -2.18061 -2.01103 -1.9659 -2.21211 -2.03876 -2.03226 -2.18194 -2.11902 -2.13881 -1.83702 -1.95495 -1.80413 -1.87456 -2.08096 -2.0124 -1.70761 -1.76774 -2.13658
internal_weight=12137.4 9098.06 6002.07 3095.99 860.57 532.391 359.631 2235.42 601.665 120.573 5642.44 89.1195 328.179 60.7626 41.9885 286.19 41.5198 28.2202 85.0295 26.3184 38.4399 35.544 13.4876 30.9612 23.6603 7.72673 9.25812 1633.75 117.392 15.0888
internal_count=75260 71441 63240 8201 4304 1089 674 3897 1636 966 62566 736 3215 412 251 2964 302 202 835 229 348 131 78 96 103 62 63 2261 288 136
is_linear=0
shrinkage=1


Tree=1
num_leaves=31
num_cat=0
split_feature=5 19 19 20 13 19 8 20 24 13 19 19 19 20 19 24 19 20 23 13 22 0 15 13 0 14 22 18 13 23
split_gain=56996.3 74375.9 12343.4 4618.71 1616.19 916.73 852.587 470.934 435.788 731.638 382.774 361.51 353.344 271.227 409.394 160.401 114.937 106.774 103.023 236.406 86.2519 126.727 109.975 84.1794 73.1955 72.9736 74.1884 70.0786 69.7932 159.391
threshold=90.465612823633421 1.9369654622938939 5.6789253256425321 1.4136972268993002 0.21508240170102597 5.3984696792809759 3.8758858648736214 1.4136972268993002 0.80000000000000016 0.083372109633529659 5.2298841888694598 3.3073273325240513 3.5739461323094273 1.6479272579847017 7.0275081155433767 0.80000000000000016 9.603027279430405 9.2878770048455177 0.90000000000000013 0.30244297724288888 0.40159089774988416 1913.8213772460342 1751.0387729183019 0.22643747045389637 1857.9068429703516 1.0000000180025095e-35 0.2884452332026079 1.6996095111843277 0.020496066623637201 0.90000000000000013
decision_type=2 2 2 2 2 2 2 2 2 2 2 2 2 2 2 2 2 2 2 2 2 2 2 2 2 2 2 2 2 2
left_child=1 7 3 4 6 18 11 8 9 -1 -8 15 20 -4 23 -3 17 -16 19 -6 -5 22 -22 -15 -7 26 -9 -24 -13 -30
right_child=-2 2 13 12 5 24 10 25 -10 -11 -12 28 -14 14 16 -17 -18 -19 -20 -21 21 -23 27 -25 -26 -27 -28 -29 29 -31
leaf_value=0.29082642779609408 0.32293780536942357 0.32842944482743186 0.32287215819372961 0.1828181805827846 0.27256856802624746 0.24854333495536027 -0.046355649634902241 -0.055462785637896507 -0.054809869872733723 -0.045830809060469851 0.26147554215987456 0.34083900017447349 0.22677983338432656 0.26043756678589824 0.30226644595868657 -0.0025455282160107904 0.31421665880704436 0.2276948931896734 -0.051319475026212452 -0.027820585884529805 -0.05524115067436991 -0.055240241863357457 0.1304834704075325 0.157186386345192 0.070294438598375364 0.19153468440407209 0.12724506666941024 0.24569636204280823 0.35226696110422329 0.15509994865962476
leaf_weight=24.555738113820553 4421.7414110004902 4.6626963615417507 1616.3972780555487 2411.2123821899295 8.2172196805477125 30.981161832809448 48.871495001018047 8.934048533439638 4158.5291901454329 47.0802156701684 12.728681080043314 44.144335590302944 513.54794389754534 28.33127860724926 105.03684367239475 17.03338972479105 453.74116589874029 88.402071744203568 333.5812755599618 32.278714075684547 5.8395409658551207 8.4146377965807897 36.101515673100948 65.100442230701447 7.0744277685880652 18.121263980865479 14.694107033312319 20.804387137293816 19.814140558242798 21.236161805689335
leaf_count=47 3819 4 1488 11764 29 112 539 102 48382 530 39 58 1850 77 153 176 507 292 3795 337 68 98 229 333 50 85 94 66 25 112
internal_value=0.172993 0.108026 0.222557 0.164013 0.034946 -0.0183922 0.165412 -0.0510543 -0.0527035 0.0695703 0.0172527 0.250796 0.189027 0.311391 0.286334 0.0685842 0.300459 0.268187 -0.042177 0.0331328 0.181217 0.126964 0.1514 0.188495 0.215407 0.116052 0.0581613 0.172604 0.297198 0.250268
internal_weight=14627.2 10205.5 5933.55 3576.54 580.624 412.133 168.491 4271.91 4230.17 71.636 61.6002 106.891 2995.92 2357.01 740.612 21.6961 647.18 193.439 374.077 40.4959 2482.37 71.1601 62.7454 93.4317 38.0556 41.7494 23.6282 56.9059 85.1946 41.0503
internal_count=75260 71441 22201 19351 5276 4323 953 49240 48959 577 578 375 14075 2850 1362 180 952 445 4161 366 12225 461 363 410 162 281 196 295 195 137
is_linear=0
shrinkage=0.05


Tree=2
num_leaves=31
num_cat=0
split_feature=10 17 24 24 17 10 8 17 17 19 17 8 10 8 20 1 4 11 12 20 15 0 17 17 16 11 7 20 2 17
split_gain=41939.1 65511.7 2796.56 2213.98 2168.69 1274.35 897.423 393.986 317.622 314.555 227.637 118.917 113.567 348.306 99.2035 95.3861 108.102 92.0014 67.9529 65.9441 59.7189 58.3416 105.524 51.6903 54.8896 58.3334 54.7005 51.2014 87.6877 50.954
threshold=5.8117138867384979 88.108104714378186 0.80000000000000016 0.80000000000000016 89.180860303876557 4.3091650096850138 3.8758858648736214 89.736384023511548 87.01159025680245 5.6789253256425321 88.682472696513443 1.8581249068879691 3.2662887833196992 1.9507761855866363 1.1211766625169342 84.484132396609809 226.17062128017011 5.3305270798858952 2.764025317516916 0.23741195756062627 1850.2302295342695 1888.2985857366446 69.800236170450134 87.668054392830086 169.26781615805984 4.7529064607798084 3.7326213792786409 0.3649204977820556 11.672693491637718 90.364297232854923
decision_type=2 2 2 2 2 2 2 2 2 2 2 2 2 2 2 2 2 2 2 2 2 2 2 2 2 2 2 2 2 2
left_child=1 3 -3 -1 10 8 11 -6 12 -2 17 -7 -5 21 18 -13 19 -4 -12 -17 -16 22 -14 24 -10 -26 -25 -21 -29 -9
right_child=9 2 4 5 7 6 -8 29 23 -11 14 15 13 -15 20 16 -18 -19 -20 27 -22 -23 -24 26 25 -27 -28 28 -30 -31
leaf_value=0.23201941051869535 0.27562515815127403 0.24085480766108169 0.074132171536899036 -0.054867042602330378 0.16798382677867285 0.20049568408913029 -0.041227621655274771 0.20332401412904583 -0.039541164776642872 0.25098909377159218 0.13972188624818035 -0.057309000107645162 0.28407333930073442 -0.052018901299891701 0.087341931809230278 -0.056825225129168766 -0.057255431361045356 -0.0559177096740614 0.06157541435206787 0.18308725138298659 -0.056300792381871162 0.19497714724146323 -0.016647161852014109 0.0097103118355269698 -0.0036447937220362493 0.13166933603239211 0.16254429679416199 -0.058164997083940941 0.17812131840432444 0.22271128146297847
leaf_weight=73.715452551841736 2372.622106090188 2646.0119362324476 316.84635092318058 4325.5142337307334 916.29944299161434 60.696917168796062 112.44193881750107 1229.3110441863537 140.00972286611795 2854.4800591915846 352.93425969034433 7.856788143515586 3.9390408620238295 111.14751467108727 76.939918987452984 3.809749297797679 7.2906067222356787 14.209104150533674 30.198428474366665 48.223871096968651 7.9868873208761206 17.685280822217464 11.245454117655752 162.80844039469957 51.15510543435812 9.433508671820162 6.0728981196880332 6.6998679637908962 9.485368147492407 467.90940443426371
leaf_count=101 1804 2515 2210 50477 3277 185 1073 2835 1554 2015 1685 77 7 1201 430 39 72 157 230 154 81 52 107 1513 497 46 23 61 32 750
internal_value=0.145182 0.0907172 0.202276 -0.040037 0.172365 -0.0439727 0.0646326 0.194405 -0.0497297 0.262172 0.100282 0.147257 -0.0534127 -0.00973338 0.122725 0.108495 0.125747 0.0685504 0.133562 0.145305 0.0738331 0.133253 0.0613634 -0.00517608 -0.0223356 0.0174233 0.0152062 0.157261 0.0803108 0.208669
internal_weight=16455 11227.9 6058.65 5169.23 3412.63 5095.52 256.505 2613.52 4839.01 5227.1 799.115 144.063 4469.53 144.017 468.059 83.3663 75.5095 331.055 383.133 68.2189 84.9268 32.8698 15.1845 369.48 200.598 60.5886 168.881 64.4091 16.1852 1697.22
internal_count=75260 71441 14170 57271 11655 57170 1693 6862 55477 3819 4793 620 51844 1367 2426 435 358 2367 1915 286 511 166 114 3633 2097 543 1536 247 93 3585
is_linear=0
shrinkage=0.05


Tree=3
num_leaves=31
num_cat=0
split_feature=10 5 10 13 24 13 8 10 13 19 7 24 7 8 24 13 8 13 3 17 10 5 10 13 8 8 5 17 10 17
split_gain=27868.7 76834.6 1535.29 1404.58 683.674 735.23 516.613 151.294 569.037 134.396 106.935 102.841 77.4713 66.2013 58.3072 45.9915 125.999 45.4306 41.3691 37.8042 36.5374 26.7673 16.5374 158.217 172.274 16.0086 9.89838 9.28409 7.60019 7.15411
threshold=5.8117138867384979 90.465612823633421 4.4617763223788565 0.28034536963040729 0.80000000000000016 0.13773187219808605 4.7927657582526315 3.6911295390520018 0.046333883649497302 5.6789253256425321 1.2955986852737691 0.80000000000000016 1.0634310957034385 3.480561351513519 0.80000000000000016 0.1026518419495548 2.4554621339801921 0.16818473423938393 3.546485810070767 89.180860303876557 3.5460617367704921 90.465612823633421 2.8468395929642987 0.010891425308406753 1.9848277798655747 1.6325722008624235 90.556092795009661 89.736384023511548 10.842248931063532 88.682472696513443
decision_type=2 2 2 2 2 2 2 2 2 2 2 2 2 2 2 2 2 2 2 2 2 2 2 2 2 2 2 2 2 2
left_child=1 2 4 6 5 12 15 22 10 21 18 -5 13 -1 26 -4 25 -18 -9 29 -7 -2 -6 24 -24 -17 -3 -21 -11 -16
right_child=9 14 3 11 7 20 -8 8 -10 28 -12 -13 -14 -15 19 16 17 -19 -20 27 -22 -23 23 -25 -26 -27 -28 -29 -30 -31
leaf_value=0.18800140282272598 0.22240553106464411 0.19307680903833113 0.23457086654959577 0.14661989348325508 -0.055185193706881824 -0.056761887642659582 -0.057802989664508621 -0.05670171972619973 -0.055984163550521451 0.20558194141431976 0.23039786327192738 -0.057651357216205207 0.20890948538914908 -0.058141304426218322 0.23484603697157191 0.24000662586497767 0.12650541398359857 -0.058136550261689415 0.15184071021014567 0.21718819604757356 0.1526716416183308 0.20049160224737295 0.27154162394422504 -0.055713864137295427 -0.056468891843169861 0.17787251297894133 0.20584967338044163 0.2104431339312082 0.21400334264316251 0.2226686117145758
leaf_weight=5.3653083741664869 2647.7031584978104 160.33882394433022 74.343035295605659 6.4630208015441886 5229.4411059692502 68.39997561275959 21.113163009285927 5.4558613300323469 119.31351301819086 2991.196142360568 24.63334684073925 132.09813567996025 52.861333392560482 5.5651406720280647 204.40357941389084 26.837727107107639 7.1709138005971891 6.2219602391123772 4.2155458405613899 737.96562811732292 2.147898703813552 147.09073877334595 8.1381431221961993 139.72108358889818 7.8779944702982894 16.891014471650124 2808.6348992586136 1652.6536067277193 294.27146053314209 294.21470206975937
leaf_count=7 1717 133 68 18 62245 657 198 56 1315 1833 26 1272 49 47 143 25 24 57 12 467 11 87 9 1570 84 37 1691 1024 182 196
internal_value=0.126204 0.0814661 -0.0448614 0.0671205 -0.0506081 0.060844 0.171777 -0.0533113 -0.004384 0.213192 0.175084 -0.0481234 0.183854 0.06268 0.210081 0.208648 0.17491 0.0407258 0.0341972 0.215137 -0.0503855 0.221252 -0.054707 -0.0386511 0.1102 0.216006 0.20516 0.212525 0.206336 0.227661
internal_weight=17902.7 11822.5 5964.28 291.139 5673.14 134.34 152.578 5538.8 153.618 6080.26 34.3048 138.561 63.7918 10.9304 5858.21 131.465 57.1216 13.3929 9.67141 2889.24 70.5479 2794.79 5385.18 155.737 16.0161 43.7287 2968.97 2390.62 3285.47 498.618
internal_count=75260 71441 67787 1699 66088 771 409 65317 1409 3819 94 1290 103 54 3654 211 143 81 68 1830 668 1804 63908 1663 93 62 1824 1491 2015 339
is_linear=0
shrinkage=0.05


Tree=4
num_leaves=31
num_cat=0
split_feature=10 5 10 13 24 13 8 24 13 23 8 20 7 7 12 13 10 24 20 8 5 8 23 11 8 5 10 13 6 10
split_gain=20040.5 61158.2 1436.84 1455.01 627.438 583.387 555.273 85.9137 51.1681 228.292 77.3874 45.5857 37.56 56.7618 31.4149 128.386 30.9331 29.9549 17.8409 17.1141 12.7066 9.47453 15.3842 28.8053 8.42697 6.67944 4.83401 67.1643 62.1946 4.64697
threshold=5.8117138867384979 90.465612823633421 3.8526141067799893 0.28034536963040729 0.80000000000000016 0.13773187219808605 4.5807463641388111 0.80000000000000016 0.083372109633529659 0.90000000000000013 1.3709585753759559 0.5254473582988729 1.1254214973215808 0.87869460914336328 0.83318886317910101 0.010891425308406753 3.2662887833196992 0.80000000000000016 6.9135661104744122 4.7927657582526315 90.465612823633421 2.5668254465020697 0.90000000000000013 5.6432494630230137 2.0787689692109841 90.556092795009661 2.8468395929642987 1.0000000180025095e-35 3.6738491878336883 1.5807389311498243
decision_type=2 2 2 2 2 2 2 2 2 2 2 2 2 2 2 2 2 2 2 2 2 2 2 2 2 2 2 2 2 2
left_child=1 2 4 6 5 12 8 -5 21 24 -11 -2 13 -1 15 -6 -7 25 20 -8 -13 -4 -23 -24 -10 -3 -16 28 -28 -14
right_child=11 17 3 7 14 16 19 -9 9 10 -12 18 29 -15 26 -17 -18 -19 -20 -21 -22 22 23 -25 -26 -27 27 -29 -30 -31
leaf_value=-0.057744140372257925 0.17670579932156436 0.16683652309280667 0.20357560249524886 0.11543151503371088 0.13178613449894136 -0.056390681151088876 0.052193495332868982 -0.056618106931749006 0.20899986821171207 0.14968398307548575 -0.058330705973692831 0.1876942464559283 0.1580636701992596 0.15291009132184186 -0.054907180435198023 -0.055480461437844124 0.12323863571450351 0.18311153874563707 0.1792019639420499 -0.056765506456394214 0.1732076198157915 0.20469142414227576 0.090295981519313007 0.20606611773791436 0.16854023580716868 0.17685469194029446 0.19914399427171547 -0.055404488244136477 -0.055208969845677629 0.18854927188276133
leaf_weight=4.6391981467604628 2650.55928453058 175.82642401754856 65.208471074700356 7.526127651333808 11.516254536807535 64.890833474695683 4.0565292909741393 202.1358674839139 32.814413666725159 6.2762604728341129 15.546290844678877 2970.8387312591076 19.952627032995224 10.292615301907061 4992.1204287782311 44.590233311057091 2.4885835051536551 3215.1485826969147 972.17590738832951 32.294993735849857 159.49530959129333 19.95063179731369 11.624721668660642 9.9908740073442441 21.174063056707382 3097.1560369729996 5.2022447437047941 118.66649085283279 4.4670914709568024 33.467967763543129
leaf_count=41 1485 133 40 22 35 651 27 2152 20 12 141 1704 22 17 62164 520 13 1830 544 336 86 12 37 9 32 1691 14 1395 54 21
internal_value=0.112682 0.0745042 -0.0443656 0.0436987 -0.0514706 0.0546486 0.133851 -0.0504421 0.169381 0.137968 0.00149522 0.181817 0.157567 0.0874615 -0.0542531 -0.0170427 -0.0497563 0.179684 0.185119 -0.0446066 0.186956 0.191684 0.173029 0.143806 0.193132 0.176317 -0.0546609 -0.0450793 0.0816367 0.177163
internal_weight=18982.1 12229 5740.89 428.599 5312.29 135.732 218.937 209.662 182.586 75.811 21.8226 6753.07 68.3524 14.9318 5176.56 56.1065 67.3794 6488.13 4102.51 36.3515 3130.33 106.775 41.5662 21.6156 53.9885 3272.98 5120.46 128.336 9.66934 53.4206
internal_count=75260 71441 67787 2840 64947 765 666 2174 303 205 153 3819 101 58 64182 555 664 3654 2334 363 1790 98 58 46 52 1824 63627 1463 68 43
is_linear=0
shrinkage=0.05


Tree=5
num_leaves=31
num_cat=0
split_feature=10 5 10 13 8 5 13 8 5 12 13 8 13 23 19 10 18 10 5 17 23 13 13 10 5 0 10 13 8 10
split_gain=15217.2 50656.3 1327.88 1237.11 449.002 333.11 557.875 181.121 72.7283 61.5489 173.733 60.0868 163.88 47.5404 41.8992 33.2896 52.2239 24.7924 9.42934 9.10198 8.94191 29.7476 62.0276 44.9602 8.08273 5.65818 4.37916 15.3639 4.33313 2.84341
threshold=5.8117138867384979 90.465612823633421 3.8526141067799893 0.28034536963040729 4.7927657582526315 89.959367063367509 0.13773187219808605 3.6011225755099319 90.107848362021016 0.83318886317910101 0.010891425308406753 2.4831817763913162 0.12130244373414241 0.90000000000000013 5.6789253256425321 5.2901191552671039 1.9422944151776995 3.5460617367704921 90.556092795009661 89.180860303876557 0.90000000000000013 0.038540355093713105 0.1026518419495548 5.543391890285494 90.465612823633421 1783.5515498722505 3.6911295390520018 0.14294378906256858 0.87336828430687408 10.842248931063532
decision_type=2 2 2 2 2 2 2 2 2 2 2 2 2 2 2 2 2 2 2 2 2 2 2 2 2 2 2 2 2 2
left_child=1 2 5 4 11 9 7 25 -5 10 -1 20 13 -13 24 16 -15 -8 28 -20 -4 -22 -23 -24 -2 -7 -11 -28 -3 -16
right_child=14 18 3 8 -6 6 17 -9 -10 26 -12 12 -14 15 29 -17 -18 -19 19 -21 21 22 23 -25 -26 -27 27 -29 -30 -31
leaf_value=0.14340088539125007 0.16465904408022713 -0.072995116282554701 0.18399904584157367 -0.056312959570345482 -0.056409323279120897 0.11442315250727722 -0.055767921483442819 -0.057302445595469875 0.091855650027778332 -0.054551222572355479 -0.05517060660527412 0.18296678007881115 -0.057525979103162352 -0.061730037381349384 0.15611487416828948 0.15062907154120886 0.17069439621934288 0.087666185768401267 0.16280184440541401 0.15796899860873151 0.17802252609557645 0.18549985806228667 -0.059364226609157182 0.15290946759503482 0.15355756847858268 0.15560237659126144 0.063217513095639263 -0.055341709023922117 0.15112284600341008 0.16104518656015421
leaf_weight=15.06904663145542 3294.8102287203074 0.21578337252139945 53.487910643219948 191.95477242767811 30.969449318945408 9.8052901253104192 128.55629190802574 12.628087572753428 8.6553593650460225 4804.9765944704413 40.945018127560616 34.00221661478281 11.986791275441645 6.5730504021048564 3520.7797727137804 10.277714803814886 3.8222071751952171 3.0849760025739661 1187.2854388952255 5429.6623640060425 52.732534170150757 12.481865756213667 6.5864584743976575 4.0150664448738098 172.54596626758575 55.889989413321018 3.5607087016105643 11.748996831476687 407.80280455946922 318.92545235157013
leaf_count=33 1757 1 31 2127 336 22 1402 125 33 62643 501 22 117 46 1824 12 6 18 618 2779 29 9 54 3 87 58 20 142 282 165
internal_value=0.102769 0.0693458 -0.0440914 0.04054 0.120507 -0.0512054 0.0104593 0.11612 -0.0499202 -0.0538606 -0.0017504 0.148465 0.109906 0.146613 0.160122 0.0868185 0.0237295 -0.0524066 0.158381 0.158836 0.168345 0.157301 0.109963 0.0210292 0.164107 0.149456 -0.0544662 -0.0277674 0.151004 0.156524
internal_weight=19845.8 12538.8 5513.81 427.545 226.935 5086.26 209.965 78.3234 200.61 4876.3 56.0141 195.966 66.662 54.6752 7307.06 20.673 10.3953 131.641 7024.97 6616.95 129.304 75.8159 23.0834 10.6015 3467.36 65.6953 4820.29 15.3097 408.019 3839.71
internal_count=75302 71469 67789 2825 665 64964 1625 205 2160 63339 534 329 203 86 3833 64 52 1420 3680 3397 126 95 66 57 1844 80 62805 162 283 1989
is_linear=0
shrinkage=0.05


Tree=6
num_leaves=31
num_cat=0
split_feature=5 12 11 12 11 24 13 13 8 19 12 6 17 13 20 13 20 19 13 6 12 12 11 18 13 17 17 15 11 12
split_gain=11333.2 29854.3 10546.9 537.821 1735.58 414.599 394.906 348.559 303.462 276.328 312.777 135.54 119.431 83.3135 75.2002 119.636 71.4103 264.987 228.564 46.1567 46.1028 42.0435 34.6124 30.7108 34.3294 28.4219 62.0099 36.2146 28.0003 25.9594
threshold=90.465612823633421 1.4906786285934757 8.4164515426861879 0.61636057802024091 3.7312864505495584 0.80000000000000016 0.13773187219808605 0.28034536963040729 2.281237430321982 5.3984696792809759 0.91479579439769287 3.7224511327123597 76.128022885813422 0.25284318278746237 1.4136972268993002 0.34689299442098681 1.4136972268993002 5.2298841888694598 0.054362954238273004 3.1289768256916037 1.1826171418067524 0.68511870933096797 4.9299016321909548 1.6091566569272315 0.75149645125940057 85.365911376572939 89.339565987894346 1860.5005818051361 3.2121750289328252 0.79518316847592885
decision_type=2 2 2 2 2 2 2 2 2 2 2 2 2 2 2 2 2 2 2 2 2 2 2 2 2 2 2 2 2 2
left_child=1 3 5 16 7 6 -3 8 29 10 14 20 13 -4 15 -6 17 18 -1 21 -12 -10 -17 -15 -25 -14 27 -27 -20 -5
right_child=-2 2 12 4 9 -7 -8 -9 19 -11 11 -13 25 23 -16 22 -18 -19 28 -21 -22 -23 -24 24 -26 26 -28 -29 -30 -31
leaf_value=0.13920576208768362 0.14232237074248505 0.1254354353066065 0.11705667398595697 0.16371479186929253 0.12647830049525183 -0.054204702437272989 -0.055731235663644609 -0.054949517658653184 0.14627217119250521 0.13752984845135452 0.10401046637747023 -0.054902308790549727 0.14086823378795998 -0.054744881653755677 0.14816620377994499 -0.055789755427652993 0.14506772906528578 0.13703207064898165 -0.054840094499643201 -0.055284936230310222 -0.017237579295147021 -0.05568342536326109 0.17043551976274054 -0.054960889239309779 0.17118881152503171 -0.057700424262193975 0.13006413818702275 0.11741416215442652 0.12597560350837794 0.086138500128402087
leaf_weight=30.133887141942978 7747.3760893195868 63.564344868063927 26.536808006465435 40.456039011478424 36.852518446743488 4526.8095679730177 57.101472415030003 159.08526513725519 6.2389123439788801 1490.8270013332367 28.881547637283802 46.23915883153677 798.7424051463604 15.022651463747026 99.619175016880035 15.826148919761181 4016.1877467632294 1038.3544417843223 36.601590797305107 37.216636121273041 10.761225357651709 4.3907294422388077 1.8930345997214324 2.9631207585334769 3.8694422021508217 7.9541798159480077 55.053720772266388 4.695173591375351 2.2740927264094344 14.703197740018366
leaf_count=50 3843 85 61 36 90 61712 624 2031 8 976 114 600 401 196 68 189 2161 698 476 459 111 52 2 37 12 80 54 8 4 64
internal_value=0.0946777 0.0655646 -0.0212195 0.133395 0.111357 -0.0517665 0.0397038 -0.00855172 0.0631066 0.129513 0.0797291 0.00325853 0.133962 0.0575187 0.122322 0.0751442 0.141968 0.130727 0.0358509 -0.0290395 0.0710971 0.0628515 -0.0316209 -0.0147729 0.073113 0.138232 0.107127 0.00729842 -0.044263 0.143036
internal_weight=20426.2 12678.9 5562.31 7116.54 1992.99 4647.48 120.666 262.091 103.006 1730.9 240.073 85.8819 914.838 48.392 154.191 54.5717 5123.55 1107.36 69.0096 47.8463 39.6428 10.6296 17.7192 21.8552 6.83256 866.445 67.7031 12.6494 38.8757 55.1592
internal_count=75302 71459 63270 8189 4800 62421 709 2650 619 2150 1174 825 849 306 349 281 3389 1228 530 519 225 60 191 245 49 543 142 88 480 100
is_linear=0
shrinkage=0.05


Tree=7
num_leaves=31
num_cat=0
split_feature=10 5 10 13 24 13 8 24 8 8 10 13 8 8 13 8 23 14 19 24 17 23 13 13 10 5 6 5 5 13
split_gain=9768.96 36924.2 1145.51 966.411 497.765 359.025 337.836 71.281 45.8477 73.325 39.5131 173.44 41.5825 39.0347 123.001 34.0897 31.8619 24.9166 16.766 11.2939 8.0784 5.73705 21.4209 44.2101 36.2865 5.27484 4.70612 3.71219 3.55959 3.16819
threshold=5.8117138867384979 90.465612823633421 3.8526141067799893 0.28034536963040729 0.80000000000000016 0.21508240170102597 4.7927657582526315 0.80000000000000016 2.951656668980426 3.6303886023443583 3.2662887833196992 0.010891425308406753 1.6662161861610383 2.4831817763913162 0.12130244373414241 1.9848277798655747 0.90000000000000013 -1.3053397226347747e-05 5.6789253256425321 0.80000000000000016 89.180860303876557 0.90000000000000013 0.038540355093713105 0.1026518419495548 5.543391890285494 90.556092795009661 2.5119924028856455 90.556092795009661 90.465612823633421 0.56615734231972081
decision_type=2 2 2 2 2 2 2 2 2 2 2 2 2 2 2 2 2 2 2 2 2 2 2 2 2 2 2 2 2 2
left_child=1 2 4 6 5 8 13 -5 -1 -10 -6 12 -12 21 16 -14 -15 -18 28 25 27 -4 -23 -24 -25 26 -3 29 -2 -21
right_child=18 19 3 7 10 -7 -8 -9 9 -11 11 -13 15 14 -16 -17 17 -19 -20 20 -22 22 23 24 -26 -27 -28 -29 -30 -31
leaf_value=0.13404034543820165 0.13409745490464958 0.083224689249905129 0.14781356410339544 0.093495569405685833 -0.054080597437255899 -0.055509920970630955 -0.056585357415246909 -0.056319948343191428 0.13436179249683777 -0.058582223454485771 0.17388883304697916 -0.055029694305125457 0.13436966943652937 0.14729951480749537 -0.057509051303484306 -0.05727441445081969 0.10864849753420219 -0.004553661331293821 0.12917582256620141 0.11293049787595205 0.13096295548076009 0.14412226609628981 0.14736084300304161 -0.059706212409143172 0.12525805414617597 0.12865032918640887 0.1217954486819969 0.13798182015889807 0.12703406417212645 0.13499486081840414
leaf_weight=59.666166454553604 3644.2306373268366 8.2660504132509214 60.420044094324112 8.294578939676283 4427.4115741476417 53.365237392485142 30.522895216941833 185.53712626546621 10.790528528392317 9.0573449283838254 11.00114965438843 82.250009194016457 4.2799620032310468 38.359977424144745 11.679792858660219 5.0683289617300034 15.039107702672483 7.1824210137128821 4191.4080934822559 28.372882008552551 3146.0712244212627 59.052623748779297 14.246830381453039 6.6437239348888379 4.4128440320491791 3639.573912858963 182.75618314743042 653.00283920764923 187.54602599143982 38.138056963682175
leaf_count=40 1757 11 31 20 63110 606 336 2140 9 81 6 1056 3 22 117 53 29 35 1989 27 1496 29 9 54 3 1696 116 313 87 21
internal_value=0.0881043 0.0609914 -0.0432842 0.0337027 -0.0505718 0.0448122 0.0991679 -0.0499089 0.112143 0.046314 -0.0533697 -0.0226941 0.108002 0.121072 0.0910582 0.0304667 0.119701 0.0720594 0.131361 0.130149 0.132056 0.136053 0.127629 0.0891381 0.0141158 0.128225 0.120126 0.136836 0.133752 0.125582
internal_weight=20823.6 12800.5 5104.28 441.392 4662.89 132.879 247.56 193.832 79.514 19.8479 4530.01 102.599 20.3494 217.037 72.2613 9.34829 60.5815 22.2215 8023.18 7696.18 3865.59 144.776 84.356 25.3034 11.0566 3830.6 191.022 719.514 3831.78 66.5109
internal_count=75302 71469 67789 2825 64964 736 665 2160 130 90 64228 1118 62 329 203 56 86 64 3833 3680 1857 126 95 66 57 1823 127 361 1844 48
is_linear=0
shrinkage=0.05


Tree=8
num_leaves=31
num_cat=0
split_feature=12 17 11 24 24 17 17 12 11 17 8 18 18 19 12 12 17 17 11 17 6 18 8 17 20 20 19 6 12 19
split_gain=5293.7 15994.8 7425.75 847.864 427.397 412.386 280.847 262.689 434.726 522.144 217.892 184.733 177.604 123.312 115.288 110.695 85.8755 84.6872 81.7594 63.3341 70.5716 62.7951 50.7887 50.4418 40.3158 37.5003 107.76 57.9553 36.6709 34.9059
threshold=1.4906786285934757 88.108104714378186 8.4164515426861879 0.80000000000000016 0.80000000000000016 89.465549264431928 87.01159025680245 0.61636057802024091 3.8376000655721767 88.108104714378186 2.281237430321982 1.5495503249852438 1.1625681145283191 5.3984696792809759 0.83318886317910101 0.87138580653294795 76.128022885813422 89.088801198362063 3.7555774403130764 88.250912006143736 3.7445392198775989 1.6045227318166142 3.480561351513519 88.738050798884345 0.22758002776729858 1.4136972268993002 5.2298841888694598 6.300480163487971 1.1826171418067524 3.1521823147639911
decision_type=2 2 2 2 2 2 2 2 2 2 2 2 2 2 2 2 2 2 2 2 2 2 2 2 2 2 2 2 2 2
left_child=7 2 3 -2 -3 12 -5 25 9 10 14 -8 17 15 -9 -10 22 -6 -12 20 28 23 -4 24 -14 26 27 -1 -17 -26
right_child=1 4 16 6 5 -7 11 8 13 -11 18 -13 21 -15 -16 19 -18 -19 -20 -21 -22 -23 -24 -25 29 -27 -28 -29 -30 -31
leaf_value=0.078678188788949346 0.11028793828192084 0.11634427159547223 0.091319723255806617 -0.053156120550158018 -0.013160896576268885 0.10358388558982699 -0.0415877394116035 0.099852999528520475 0.11154548446049306 0.10053549834689213 -0.045345394695117253 0.035171563605337929 -0.054703082760738368 0.11698301642532688 -0.054557804733137108 0.085129030232437647 0.11871334383721176 0.058010347339996743 0.064811817955946829 0.089221137238406314 -0.025566138778938013 0.088241795124323841 -0.012651988783056151 0.074111130230709463 0.053330499227229433 0.12162413945092027 0.11632396114762521 -0.028612563121497816 -0.054691124286258212 -0.055095407424971626
leaf_weight=94.003222167491913 85.823796823620796 3824.4374251663685 30.250521741807461 3223.9256836511195 84.743930976837873 3032.7737611830235 158.33641371130943 64.55981633067131 150.89338177070022 353.68154409527779 132.15687409415841 155.22747965157032 10.440098546445368 1626.032065205276 14.873312897980211 36.398660223931074 857.00672612339258 82.476188462227583 19.304785273969173 59.701279640197754 40.398772042244673 602.01546247303486 19.200959011912346 400.58913185447454 130.88709586113691 4524.2470950931311 1207.7849218696356 14.532440789043902 5.3829707130789748 7.8691505752503863
leaf_count=374 84 2388 104 49427 894 4944 2186 170 229 689 1803 1230 147 965 207 111 437 412 87 170 489 1855 202 1572 774 2260 745 175 75 97
internal_value=0.0827133 0.0623941 -0.012975 -0.0449951 0.10415 0.0934332 -0.0487624 0.113655 0.100104 0.0623547 0.00386977 -0.00358862 0.0700943 0.111605 0.0709406 0.0817332 0.115017 0.0219421 -0.0313051 0.0500273 0.0215543 0.0770851 0.0509497 0.0648684 0.040052 0.119463 0.112035 0.0643124 0.0671152 0.0471814
internal_weight=21050 12706 4529.77 3623.31 8176.23 4351.79 3537.49 8343.95 2503.38 584.576 230.895 313.564 1319.02 1918.81 79.4331 292.775 906.458 167.22 151.462 141.882 82.1804 1151.8 49.4515 549.785 149.196 5840.57 1316.32 108.536 41.7816 138.756
internal_count=75302 66753 53670 52927 13083 10695 52843 8549 4995 2956 2267 3416 5751 2039 377 1074 743 1306 1890 845 675 4445 306 2590 1018 3554 1294 549 186 871
is_linear=0
shrinkage=0.05


Tree=9
num_leaves=31
num_cat=0
split_feature=10 17 10 17 24 8 24 18 24 17 17 0 18 17 17 18 6 18 4 12 8 10 23 1 1 1 10 18 6 1
split_gain=6977.71 19760.9 808.391 632.154 511.092 369.503 245.515 218.283 194.356 125.429 92.1303 67.5745 65.6291 61.0443 58.0941 141.584 55.1799 49.8213 47.5363 37.9803 75.349 36.8022 32.7371 64.8505 30.2167 55.1298 29.3616 29.1784 28.9357 25.6812
threshold=5.8117138867384979 87.51088524106494 3.8526141067799893 88.896287535019667 0.80000000000000016 4.2293400859088885 0.80000000000000016 1.4724156887135644 0.80000000000000016 89.692771091326392 88.316335254554986 1619.3956692506308 1.0435408356253604 88.108104714378186 86.828909023845142 1.9709805255897177 4.999481571417423 1.2930857616861908 133.25121417079808 0.83318886317910101 1.6995197786910594 1.670585530624692 0.90000000000000013 179.50215258068951 61.81774750458829 197.40406382135009 5.051743915436675 2.0914816057792036 2.7130413482701701 167.51407947923551
decision_type=2 2 2 2 2 2 2 2 2 2 2 2 2 2 2 2 2 2 2 2 2 2 2 2 2 2 2 2 2 2
left_child=1 2 8 4 -3 11 -5 10 -1 17 -6 -4 -12 24 19 -16 22 -8 28 20 -10 -17 -13 -24 -9 -26 -18 -7 -14 -29
right_child=-2 3 5 6 7 27 9 13 14 -11 12 16 18 -15 15 21 26 -19 -20 -21 -22 -23 23 -25 25 -27 -28 29 -30 -31
leaf_value=0.098406210298343996 0.1132821488555571 0.10606719171871977 -0.057000572119011918 0.10892047382312703 -0.023407627710948543 -0.052174904966413728 0.064812984717060318 0.09482873810563397 0.093601969878975955 0.097872694197754281 -0.040735383248189289 0.10014255936800953 0.07042847111232628 0.069597998569820338 -0.044674283017515297 -0.010272201568281923 -0.056468547848758391 0.085250022628831496 0.052467416147649451 -0.053225173224896741 -0.054645054307306762 0.10974868170840212 0.072107116327680382 -0.059005772877906676 -0.020944489612236498 0.050558160916550347 0.048632435419854264 0.12100734237005353 -0.054637161169218011 -0.055883823414744363
leaf_weight=21.868418574333191 8393.7639252096415 427.88845838606358 11.089217077940701 3690.99662681669 139.16471306979656 106.63588571548462 403.78099009394646 15.504209492355583 13.192837230861185 2618.8666678592563 28.296868268400431 92.801145203411579 6.1951555944979217 382.65998037531972 129.83430312201381 9.0379905030131358 11.942332692444326 1140.5453235432506 144.32647034153342 3136.7472940161824 24.467794425785542 21.775745626538992 102.83723681420088 10.383351556956766 46.749079402536154 63.676388762891293 14.98143946379423 4.762028116732834 18.245960138738155 3.6052370853722095
leaf_count=26 3833 330 121 2226 1662 1279 1613 40 33 3809 349 176 26 1512 1906 105 142 2911 778 50282 347 50 336 110 537 403 61 15 240 44
internal_value=0.0778305 0.0546602 -0.0425403 0.0942349 0.0615455 0.0287689 0.0995319 0.0389959 -0.0501672 0.0912082 0.00773771 0.0635897 0.0297322 0.0596607 -0.0511414 -0.0218069 0.0693303 0.0799065 0.0415473 -0.0526259 -0.00271287 0.0745453 0.0781275 0.0600829 0.0294646 0.0202872 0.00201375 -0.0451201 -0.0229364 0.0447895
internal_weight=21236.6 12842.9 3715.96 9126.9 1272.71 359.038 7854.19 844.819 3356.92 4163.19 336.229 244.035 197.064 508.59 3335.06 160.648 232.946 1544.33 168.768 3174.41 37.6606 30.8137 206.022 113.221 125.93 110.425 26.9238 115.003 24.4411 8.36727
internal_count=75302 71469 55033 16436 5877 2284 10559 5547 52749 8333 3055 946 1393 2492 52723 2061 825 4524 1044 50662 380 155 622 446 980 940 203 1338 266 59
is_linear=0
shrinkage=0.05


Tree=10
num_leaves=31
num_cat=0
split_feature=5 10 10 13 24 13 12 13 24 7 6 7 21 10 13 6 13 7 17 4 24 20 17 13 7 13 5 17 5 20
split_gain=6346.02 27077.9 682.606 576.869 306.932 307.575 129.788 250.653 59.7991 59.6339 71.4979 33.4479 31.1693 25.784 91.2278 20.5965 40.2788 20.4847 23.2494 33.0859 20.0645 13.5458 13.2802 8.3424 8.87511 8.1755 7.74911 7.53508 5.3333 4.49389
threshold=90.465612823633421 4.4617763223788565 5.8117138867384979 0.28034536963040729 0.80000000000000016 0.13197721918604902 0.83318886317910101 0.046333883649497302 0.80000000000000016 0.99645689089708633 3.5110426057758559 1.56880307353054 0.16974850391757709 3.6911295390520018 0.010891425308406753 5.0951972916286659 0.061899942056957855 1.2388978184816877 88.682472696513443 216.09512950357791 0.80000000000000016 15.443471911171224 88.177875556408537 0.17283009968443769 2.3128106820597538 0.020496066623637201 70.018798236934785 89.692771091326392 90.556092795009661 1.4136972268993002
decision_type=2 2 2 2 2 2 2 2 2 2 2 2 2 2 2 2 2 2 2 2 2 2 2 2 2 2 2 2 2 2
left_child=1 4 3 9 5 17 7 11 -5 10 25 12 -6 -8 -15 23 -17 18 -1 -20 28 -18 -22 -11 26 -3 -25 -24 -2 -4
right_child=20 2 29 8 6 -7 13 -9 -10 15 -12 -13 -14 14 -16 16 21 -19 19 -21 22 -23 27 24 -26 -27 -28 -29 -30 -31
leaf_value=0.1088524166279335 0.097195538951043992 0.1148872227822382 0.10506495135702679 0.078355388257136976 0.11488340648637774 -0.056691192970102625 -0.053640156803858544 -0.05509578152253905 -0.057476950505704373 0.11943496426398925 -0.057594096281293278 0.11912540466918267 -0.058456295743247511 0.078811864960940239 -0.055048162697577098 0.10317196451798112 -0.058957408742908474 0.10768372933090614 -0.065379616406160676 0.10679659001904865 0.12516629398239285 0.071970251673852445 0.11177372780437972 0.11042656610964713 0.11201298045957393 0.057205298488995374 0.029820080089604125 0.10739355486216096 0.10523027455147738 0.10747156902224778
leaf_weight=9.2285106182098406 217.69929768145084 11.366659045219423 3183.4201643466949 8.677052825689314 4.5931978747248632 64.665804304182529 4064.8394084535539 76.676986943930387 122.40637797489762 88.265442915260792 14.028959754854439 33.435217678546906 5.9566656649112701 16.731683079153299 53.193835631012917 22.054810509085659 6.6597447358071786 55.049650177359581 7.0608619824051839 4.6131858080625534 134.23778577148914 2.8086757957935333 1659.4256221652031 4.5864572972059277 18.157560847699642 13.366765610873697 8.521122954785822 2404.6158873140812 4027.1552488803864 4965.2377197891474
leaf_count=7 136 9 1460 16 5 638 63636 1031 1306 55 148 27 59 39 719 31 61 33 47 3 64 5 765 3 12 38 37 1082 1788 2227
internal_value=0.0735597 0.0514553 0.103715 0.0321853 -0.049229 0.0234504 -0.0516306 -0.000514802 -0.0484855 0.0878951 0.0325715 0.0946335 0.0170123 -0.0531223 -0.0230183 0.102092 0.0661397 0.0916831 0.0495433 0.00265855 0.107242 -0.0201195 0.109693 0.111573 0.0893791 0.083714 0.058025 0.109182 0.104818 0.106531
internal_weight=21308.7 12865.6 8469.56 320.9 4396.05 140.618 4255.43 120.662 131.083 189.816 38.7624 43.9851 10.5499 4134.76 69.9255 151.054 31.5232 75.9522 20.9026 11.674 8443.13 9.46842 4198.28 119.531 31.2651 24.7334 13.1076 4064.04 4244.85 8148.66
internal_count=75487 71652 5408 1721 66244 728 65516 1122 1322 399 195 91 64 64394 758 204 97 90 57 50 3835 66 1911 107 52 47 40 1847 1924 3687
is_linear=0
shrinkage=0.05


Tree=11
num_leaves=31
num_cat=0
split_feature=10 17 10 24 17 24 8 18 17 17 18 10 8 19 17 18 18 0 19 10 3 6 18 20 22 4 2 20 21 14
split_gain=5339.8 15669.3 639.767 520.439 626.578 269.162 245.346 208.071 110.405 78.3288 127.659 67.1531 161.406 61.3666 52.6435 51.8731 44.7152 44.5337 34.049 31.7294 36.7335 31.1613 30.4325 27.0877 29.2336 28.8174 26.528 26.2033 26.0722 25.6895
threshold=5.8117138867384979 87.51088524106494 4.3091650096850138 0.80000000000000016 88.846158886096461 0.80000000000000016 4.2293400859088885 1.2854274662208447 89.654850130441346 86.828909023845142 1.6664534337321111 2.9912810995467818 1.9507761855866363 1.4353385675458152 88.499836659800152 1.8774041685695717 1.2854274662208447 1619.3956692506308 4.3145834633621378 1.7164145182836108 3.7445733324747468 2.48286258434986 2.0914816057792036 0.29931358166341843 0.16256367596593832 226.77454482999019 7.2193391538067635 0.22209103230055438 0.18706462011141373 -1.3053397226347747e-05
decision_type=2 2 2 2 2 2 2 2 2 2 2 2 2 2 2 2 2 2 2 2 2 2 2 2 2 2 2 2 2 2
left_child=1 2 5 -3 7 -1 17 13 16 11 -11 -7 26 -5 15 18 -6 -4 23 20 -12 29 -8 24 -9 -26 -13 -19 -25 -15
right_child=-2 3 6 4 8 9 22 14 -10 10 19 12 -14 21 -16 -17 -18 27 -20 -21 -22 -23 -24 28 25 -27 -28 -29 -30 -31
leaf_value=0.093015828457152783 0.10068400201253849 0.096774106009768879 -0.057632238841327454 0.03714785810179104 0.055009812629404346 -0.053100036139302725 -0.050485948245705993 0.051301011080912708 0.086375017114929994 -0.05343242226501202 -0.0247417710521564 -0.056109000346100252 -0.054358653828068586 0.064975868072560644 0.062378087716496639 0.062091010982566357 0.074592025429801062 -0.017304366395719743 -0.056748812282010175 0.071451536120183512 0.099222655976604263 -0.047144288303522942 0.057107884232828768 -0.054376099270499773 -0.037667386292197215 0.041635979828814423 0.071584699095191925 0.069897112429075481 0.040896818152060206 -0.055163629442547879
leaf_weight=33.466230869293213 8578.6925785392523 4139.2213651835918 7.6058882325887671 36.949768751859665 390.29734049364924 2812.5601116530597 76.27661494910717 21.262562271207571 2727.0118612721562 93.681276507675648 26.707979504019022 4.5085129365324965 98.142295569181442 12.423603404313328 247.99572101607919 104.72365260496736 1151.9145756363869 9.0449823997914773 13.572932116687296 33.31875628978014 7.6985300965607157 104.02977235242724 7.1917213164269915 7.5321770831942549 43.974682483822107 15.490833837538956 41.561659887433052 181.15729339793324 153.97240085154772 6.9326085522770873
leaf_count=31 3863 2535 81 272 1622 49627 940 126 4008 1579 362 53 1508 52 970 447 2959 75 152 152 24 1441 41 104 589 101 163 511 999 100
internal_value=0.0702521 0.0495494 -0.0415801 0.0836379 0.0728453 -0.0480285 0.030672 0.0312949 0.0803283 -0.0495422 -0.0156244 -0.0513938 -0.0181168 -0.0193781 0.0446463 0.0324493 0.0696362 0.0610061 0.0203143 0.0366738 0.00299553 -0.0363056 -0.0412155 0.0246324 0.000982999 -0.0170088 0.0590884 0.0657503 0.0364535 0.0219468
internal_weight=21188.9 12610.2 3432.92 9177.31 5038.08 3151.65 281.277 768.861 4269.22 3118.18 161.407 2956.77 144.212 160.336 608.525 360.529 1542.21 197.808 255.806 67.7253 34.4065 123.386 83.4683 242.233 80.7281 59.4655 46.0702 190.202 161.505 19.3562
internal_count=75487 71624 55147 16477 13942 53499 1648 5353 8589 53468 2117 51351 1724 1865 3488 2518 4581 667 2071 538 386 1593 981 1919 816 690 216 586 1103 152
is_linear=0
shrinkage=0.05


Tree=12
num_leaves=31
num_cat=0
split_feature=5 12 11 24 13 12 11 8 13 19 12 13 20 19 11 13 20 2 20 19 13 11 17 24 11 18 12 20 14 13
split_gain=5098.39 14656.7 6261.48 207.266 229.555 206.259 882.97 243.296 160.502 129.388 141.321 100.428 47.1213 45.9356 38.3112 34.8029 29.6561 27.7832 24.9729 121.43 138.011 23.9912 18.7435 18.685 18.2881 17.2979 25.047 15.5891 34.8858 29.1763
threshold=90.465612823633421 1.4906786285934757 8.4164515426861879 0.80000000000000016 0.13197721918604902 0.61636057802024091 3.8376000655721767 2.1982729355195052 0.28034536963040729 5.3984696792809759 0.91479579439769287 0.19530721597938047 0.28615499817057594 5.9548634784495738 11.623938798128409 0.24177794238796199 15.443471911171224 10.211816187001698 1.4136972268993002 5.3984696792809759 0.20709308878386343 3.3372476541731557 89.654850130441346 0.80000000000000016 3.8257051122430856 2.0177552676959354 0.68511870933096797 1.4136972268993002 1.0000000180025095e-35 1.0000000180025095e-35
decision_type=2 2 2 2 2 2 2 2 2 2 2 2 2 2 2 2 2 2 2 2 2 2 2 2 2 2 2 2 2 2
left_child=1 5 3 4 -3 18 7 8 -7 10 12 17 -8 14 15 -4 25 -12 19 20 -1 -22 -17 -2 -10 -9 -27 28 29 -14
right_child=23 2 13 -5 -6 6 9 16 24 -11 11 -13 27 -15 -16 22 -18 -19 -20 -21 21 -23 -24 -25 -26 26 -28 -29 -30 -31
leaf_value=0.082793449675651554 0.094708805403626806 0.076509031529686106 0.069743436369779907 -0.053383215078992199 -0.056808272298312625 0.098992593471463664 -0.023553241859758042 -0.052486752749547561 -0.055455062559421169 0.092789059894983789 0.099932208871584133 -0.054390972821319161 0.095681547911884782 0.093775284741366788 0.078763854701599079 -0.055129089707748748 0.065100669860568713 -0.011090423355358842 0.095828937368528433 0.09217899629709797 -0.054612154375950996 0.10781181821664682 0.099378418552767481 0.09940376454885895 0.090246683007565331 0.094288907220118623 -0.054096010918237174 0.09686685261835315 0.096351583131156937 -0.059348754298578311
leaf_weight=53.440923158079386 4244.9916583299637 65.763303831219673 14.68689250200987 3668.0568953529 63.434195436537266 65.22941280528903 10.349024556577204 156.01633486896753 26.054708831012253 1654.0109110474586 19.614752959460024 42.802102770656347 4.6560219526290885 883.77583261579275 73.186284840106964 15.023181941360237 5.9909186139702788 7.9065084047615519 4442.6478368267417 1143.4581889584661 33.742375079542398 2.4377294257283202 2.2578713893890372 4231.7830899655819 2.3477339521050444 5.061836972832678 6.4904925487935543 103.75760333240032 22.801194380968809 8.7161332853138429
leaf_count=113 1924 82 45 61854 612 91 98 2300 336 944 36 642 4 458 129 207 19 76 2156 649 483 4 1 1911 2 13 100 57 49 92
internal_value=0.0670693 0.0469037 -0.0220057 -0.0511909 0.0110521 0.0890925 0.0758716 -0.00916337 0.0557955 0.0879917 0.0520231 -0.00647849 0.0793988 0.0900582 0.0588176 0.0131533 -0.0442074 0.0680368 0.0940816 0.0877863 0.0317407 -0.0436684 -0.0349418 0.0970526 -0.0434114 -0.0481154 0.0109212 0.087013 0.0587486 -0.00536909
internal_weight=21080.5 12603.7 4786.18 3797.25 129.197 7817.53 2141.81 267.191 93.6319 1874.61 220.603 70.3234 150.28 988.93 105.154 31.9679 173.56 27.5213 5675.73 1233.08 89.621 36.1801 17.2811 8476.77 28.4024 167.569 11.5523 139.931 36.1733 13.3722
internal_count=75487 71652 63388 62548 694 8264 4859 2861 429 1998 1054 754 300 840 382 253 2432 112 3405 1249 600 487 208 3835 338 2413 113 202 145 96
is_linear=0
shrinkage=0.05


Tree=13
num_leaves=31
num_cat=0
split_feature=5 10 10 13 13 8 8 10 24 24 13 24 13 23 8 24 7 17 8 5 5 17 20 21 10 10 8 8 5 15
split_gain=4494.23 20441.2 535.592 472.667 277.643 302.344 136.19 120.371 185.456 50.0066 126.675 48.8806 20.4615 47.7434 49.6348 14.057 11.4997 9.0817 8.88039 7.92592 5.59416 5.31432 3.63274 3.31895 17.7209 2.99075 2.81303 3.21876 2.42624 6.15142
threshold=90.465612823633421 4.4617763223788565 5.8117138867384979 0.28034536963040729 0.010891425308406753 3.0085267949702188 4.8278190646464401 2.8468395929642987 0.80000000000000016 0.80000000000000016 0.13197721918604902 0.80000000000000016 0.046333883649497302 0.90000000000000013 1.8581249068879691 0.80000000000000016 1.4140779461047626 89.613579139763118 1.5245794671849293 90.278691666494325 90.556092795009661 88.177875556408537 0.14759159032149569 0.098197780181974156 4.3091650096850138 6.0684558675780913 2.1068706461000635 2.3388189661806438 90.556092795009661 1734.607738378965
decision_type=2 2 2 2 2 2 2 2 2 2 2 2 2 2 2 2 2 2 2 2 2 2 2 2 2 2 2 2 2 2
left_child=1 4 3 6 5 7 12 8 -1 10 16 -5 -3 26 -15 20 -6 21 -9 -7 22 -17 -2 24 -11 -4 -14 -28 29 -23
right_child=15 2 25 11 9 19 -8 18 -10 23 -12 -13 13 14 -16 17 -18 -19 -20 -21 -22 28 -24 -25 -26 -27 27 -29 -30 -31
leaf_value=0.096982457190964266 -0.1082337767073886 0.10567424344900199 0.087886333558632498 0.062181182698009207 0.028413592436052015 -0.053881638133203881 -0.0576999035259032 0.12453621442010894 -0.053612440806317975 -0.053483961674897995 -0.056608064838555495 -0.057679258675165615 0.10203381979806528 0.078570037221776079 -0.063177463723765259 0.10694360937128039 0.091411292467755506 0.092844684488997853 0.085794779024521373 0.0093419251289374641 0.091043614792100949 0.041603303457361081 0.083027086400031452 -0.053505834128608001 0.094691550417737233 0.091967943525368065 0.10524828156972243 0.068361960231262425 0.097338102606701962 0.092601065188992693
leaf_weight=36.054437875747681 0.24855318665504356 85.665979236364365 476.79664106667042 9.1670621335506421 11.785916134715082 142.96320867538452 17.604749582707882 29.121155098080635 47.21669863909483 12.765406478196381 63.884394526481628 117.95071899145842 40.279177188873291 13.243813946843149 11.572143908590077 139.29253470897675 18.797471925616264 2572.4187428206205 30.060940355062485 5.1352088004350653 3998.0097932815552 6.2239455580711356 217.18707689642906 3539.434427767992 2.3965982571244231 7644.6938202381134 8.9966950416564959 17.2615757137537 1383.7286448478699 118.38594654202461
leaf_count=16 1 47 274 16 33 2449 189 15 822 221 638 1306 18 17 88 64 12 1159 37 26 1788 9 135 61972 3 3413 5 35 614 65
internal_value=0.0645142 0.0453399 0.0892218 0.025952 -0.0487062 -0.00166636 0.0749297 0.050339 0.0115916 -0.0524516 -0.0165473 -0.0490356 0.0881198 0.0716583 0.0124705 0.092661 0.0671339 0.094701 0.104858 -0.0516894 0.0906188 0.0975993 0.0828085 -0.0534058 -0.0300624 0.0917283 0.0937331 0.0810001 0.0967363 0.0900539
internal_weight=20818.3 12382.8 8443.23 321.742 3939.62 290.552 194.624 142.453 83.2711 3649.06 94.4678 127.118 177.019 91.3534 24.816 8435.5 30.5834 4220.05 59.1821 148.098 4215.45 1647.63 217.436 3554.6 15.162 8121.49 66.5374 26.2583 1508.34 124.61
internal_count=75487 71652 5408 1721 66244 3365 399 890 838 62879 683 1322 210 163 105 3835 45 1911 52 2475 1924 752 136 62196 224 3687 58 40 688 74
is_linear=0
shrinkage=0.05


Tree=14
num_leaves=31
num_cat=0
split_feature=5 12 11 12 11 8 5 8 19 19 12 8 19 20 11 2 20 12 12 2 20 20 19 8 11 21 5 15 15 18
split_gain=3981.93 12014.5 5404.74 161.851 715.425 209.195 116.838 153.067 105.039 114.519 54.9555 41.5595 38.7358 30.8123 29.9631 28.4894 25.983 23.848 23.5401 21.672 20.3312 19.9095 98.9869 61.3021 22.7415 19.177 17.3259 17.2789 16.6449 16.0967
threshold=90.465612823633421 1.4906786285934757 8.4164515426861879 0.61636057802024091 3.8376000655721767 2.1982729355195052 89.959367063367509 3.1511058705337986 5.3984696792809759 3.0407673768033119 0.83318886317910101 3.2098089109147518 5.9548634784495738 0.34125914198524993 11.623938798128409 8.3028167344228976 15.443471911171224 0.91479579439769287 1.0101188010870239 6.8922470721323883 0.33250402536283902 1.4136972268993002 5.3984696792809759 4.5807463641388111 3.3372476541731557 0.38744264903029074 90.189822197058348 1743.3482483367031 1754.8927025458233 2.0177552676959354
decision_type=2 2 2 2 2 2 2 2 2 2 2 2 2 2 2 2 2 2 2 2 2 2 2 2 2 2 2 2 2 2
left_child=1 3 6 21 5 10 -3 19 9 -6 -5 15 14 -13 20 -11 29 -17 -15 -8 26 22 23 28 -25 -12 -4 -21 -1 -7
right_child=-2 2 12 4 8 16 7 -9 -10 11 25 13 -14 18 -16 17 -18 -19 -20 27 -22 -23 -24 24 -26 -27 -28 -29 -30 -31
leaf_value=-0.057685643829053258 0.088841307706868947 -0.052955781977406018 -0.055372472495790206 0.071324550524470606 0.082575182533922278 -0.051973353652544518 -0.05731297707288472 -0.056274999827428396 0.085128284399240514 0.077425535048418426 -0.054452750804282704 -0.055082894842935708 0.086107935177247963 0.055518690729921695 0.071228450113795652 0.046133399985066117 0.058349554662666385 -0.056826876054485213 -0.054192927771295418 -0.061691860504813373 0.050077607178900786 0.087825104352022579 0.084570934474981652 -0.054484903196304724 0.11106987878831374 0.051135581720538781 0.095755696462205789 0.044572774890751669 0.060903946801258213 0.010545469076181875
leaf_weight=3.1112157478928557 8360.0681373924017 3274.6361271291971 11.969101600348951 72.276330508291721 113.59393281117082 143.10358656570315 6.1705057360231867 98.221587024629116 1626.9746961593628 26.806716274470091 13.981196064502003 29.581935580819845 868.5277882963419 16.014754433184866 73.082074336707592 12.968882326036693 6.0270579010248175 9.9306190051138383 7.0379000417888156 4.0106932036578646 16.560554150491953 4377.7166318744421 1124.5883305519819 21.722364682704214 2.2933091744780532 6.2102958522737017 2.2535235881805411 82.811920281499624 60.429612416774035 11.09383140131831
leaf_count=37 3835 61032 171 185 169 2300 68 1088 944 66 215 464 458 71 129 46 19 128 110 43 81 2156 649 343 2 29 1 317 218 113
internal_value=0.0622937 0.0439875 -0.0215115 0.0818122 0.0699617 -0.0089341 -0.0507374 -0.0127466 0.0807795 0.0480135 0.050951 0.0096516 0.0826569 -0.0213119 0.0537992 0.0424393 -0.0434947 0.00148355 0.0220241 0.0332291 0.0124205 0.0862549 0.0805841 0.0293765 -0.0386757 -0.021977 -0.0314268 0.039664 0.0550973 -0.0474754
internal_weight=20483.8 12123.7 4438.24 7685.46 2095.6 252.692 3465.85 191.215 1842.91 215.935 92.4678 102.341 972.393 52.6346 103.865 49.7062 160.224 22.8995 23.0527 92.9931 30.7832 5589.86 1212.14 87.5565 24.0157 20.1915 14.2226 86.8226 63.5408 154.197
internal_count=75487 71652 63388 8264 4859 2861 62548 1516 1998 1054 429 885 840 645 382 240 2432 174 181 428 253 3405 1249 600 345 244 172 360 255 2413
is_linear=0
shrinkage=0.05


Tree=15
num_leaves=31
num_cat=0
split_feature=5 10 10 13 13 8 8 10 24 24 24 8 8 8 13 23 8 11 5 5 24 21 17 15 0 2 10 15 21 17
split_gain=3540.89 17032.6 447.803 427.659 295.864 319.21 116.523 110.345 247.71 46.3602 31.4929 16.3861 11.6934 11.0242 10.1372 38.9822 29.9875 9.16434 34.4505 8.8097 7.8988 7.00408 6.34302 2.77331 3.86696 3.59411 2.76857 2.93969 5.17693 2.29999
threshold=90.465612823633421 4.4617763223788565 5.8117138867384979 0.28034536963040729 0.076590765808325412 3.0085267949702188 4.5427930242605834 2.8468395929642987 0.80000000000000016 0.80000000000000016 0.80000000000000016 1.5615211369258357 4.7927657582526315 1.8581249068879691 0.096567414997503806 0.90000000000000013 1.407414977248896 8.4164515426861879 90.189822197058348 90.556092795009661 0.80000000000000016 0.4359402438900466 88.793485671811439 1734.607738378965 1437.1682529152079 6.0505208465472498 6.0684558675780913 1835.6080596004865 0.11365763730756936 89.692771091326392
decision_type=2 2 2 2 2 2 2 2 2 2 2 2 2 2 2 2 2 2 2 2 2 2 2 2 2 2 2 2 2 2
left_child=1 4 3 6 5 7 14 8 -1 -5 -7 -9 -8 -13 -3 -16 -17 -6 -19 23 -21 -15 -22 -2 -25 -26 27 28 -4 -24
right_child=19 2 26 9 17 10 12 11 -10 -11 -12 13 -14 21 15 16 -18 18 -20 20 22 -23 29 24 25 -27 -28 -29 -30 -31
leaf_value=0.090186475790799386 0.067103909133702247 0.093500904099058924 -0.089309770029212032 0.060750653266709614 -0.053028096076034197 0.030464868957311833 0.034838097596933709 0.11531239044222451 -0.053189502682190505 -0.057829199110623376 -0.053312789265418228 0.093775555948832315 -0.057508384757271429 -0.0070972188372975175 0.088802343991406976 0.072991146882100039 -0.062365185318677831 -0.05501826542450703 0.10344934216555586 0.084281497803551431 0.093719847285942071 0.071052924514334315 0.088547556903397731 -0.1191538581038834 -0.11019916188435103 0.080256684296674999 0.08514825566084043 0.087887913179999139 0.078925236980768351 0.085853481069165904
leaf_weight=56.034300684928894 46.194598883390427 103.00285116583109 0.45790994167327781 8.8918138146400434 3192.7325975559652 11.875736512243746 4.2661589160561588 37.998409539461136 65.153108719736338 112.88887855783105 202.38110050931573 13.694894287735226 17.447731141000986 6.4655829183757287 56.715119577944279 7.7286107987165478 8.6958823315799219 14.885901823639871 4.4564507007598868 3922.8355612754822 367.50675201416016 5.1512310206890106 1228.9326465129852 0.24353994429111381 0.24785852432250877 411.18677517771721 7426.470095872879 117.84008963406086 330.79274789988995 2229.3678753376007
leaf_count=26 37 59 2 14 60741 36 21 22 1252 1275 3834 9 198 35 46 8 67 208 2 1800 164 8 554 1 1 243 3394 59 205 1015
internal_value=0.0602338 0.0426989 0.0825631 0.0245473 -0.0477774 -0.00715623 0.0699211 0.0410527 0.0131043 -0.0491711 -0.0486692 0.0945513 -0.0393649 0.0633844 0.0833933 0.0691586 0.00132728 -0.0528202 -0.0185076 0.0854598 0.085858 0.0275568 0.0874745 0.0787205 0.080024 0.0801419 0.0849177 0.0811055 0.0786927 0.0868108
internal_weight=20012.5 11806 8195.2 319.637 3610.83 398.754 197.856 184.498 121.187 121.781 214.257 63.3101 21.7139 25.3117 176.142 73.1396 16.4245 3212.07 19.3424 8206.52 7748.64 11.6168 3825.81 457.873 411.678 411.435 7875.56 449.091 331.251 3458.3
internal_count=75336 71521 5348 1688 66173 5222 399 1352 1278 1289 3870 74 219 52 180 121 75 60951 210 3815 3533 43 1733 282 245 244 3660 266 207 1569
is_linear=0
shrinkage=0.05


Tree=16
num_leaves=31
num_cat=0
split_feature=5 10 10 24 8 8 10 8 8 9 0 1 5 0 16 18 5 0 6 6 10 19 1 10 4 6 4 5 19 1
split_gain=3177.47 15670 409.298 263.181 237.387 143.979 109.099 232.253 28.0062 26.3611 23.3815 21.7475 20.6749 18.4518 15.6952 14.9403 24.1463 14.3833 13.1704 12.8132 17.0742 16.9526 11.5566 23.5435 11.2832 9.07148 15.2216 8.75196 8.36984 8.16619
threshold=90.465612823633421 4.4617763223788565 5.8117138867384979 0.80000000000000016 4.7927657582526315 3.8134057161203661 2.8468395929642987 1.9507761855866363 2.8323656238194528 0.8224932625930117 1783.5515498722505 201.30814165128641 68.330706353156913 2045.8384988888163 134.35708128042111 2.1936081269120655 90.031852588661565 1554.6026032905595 1.842367540683107 3.4150029681720659 3.8526141067799893 3.3960031776694675 234.39721195188795 4.6414056767852125 238.15504474987199 5.4197034727483411 164.97725899420658 90.556092795009661 1.4390901609236637 56.955594769682257
decision_type=2 2 2 2 2 2 2 2 2 2 2 2 2 2 2 2 2 2 2 2 2 2 2 2 2 2 2 2 2 2
left_child=1 3 4 5 8 10 -5 9 17 14 15 12 -10 25 -8 16 -1 -3 -9 21 -21 -11 -13 -24 29 -14 -27 -2 -12 -19
right_child=27 2 -4 6 -6 -7 7 18 11 19 28 22 13 -15 -16 -17 -18 24 -20 20 -22 -23 23 -25 -26 26 -28 -29 -30 -31
leaf_value=0.074644055652550875 0.075749764004471573 -0.058989221918135742 0.082039992194440636 -0.052938713001813333 -0.057048897259434211 -0.056907481844223111 0.038710542330340103 0.04451397369713736 0.093624484958276591 0.14348203525876463 0.0027266345605227314 0.068430622112756356 -0.060170033279457615 0.067039585402611401 -0.05563856347876496 0.085324179272737208 -0.059083313599581966 0.086163521721188033 -0.054346651466167517 -0.056769078450931099 0.060020062484417595 0.065875673171001306 0.087042316639643624 -0.062332873277467837 0.005906272696738317 0.049867112636458232 -0.057958971377693014 0.082909130124431629 0.070161436825290788 0.057671490163387809
leaf_weight=4.898107677698138 452.18143114447594 2.5684260949492446 7747.4322979152203 3067.8676080964506 70.45616265386343 42.691410668194294 10.321554169058802 3.4411596730351439 4.7159303911030284 8.6632605195045453 4.915620692074298 24.875713031738997 15.384020581841471 5.3535975515842429 7.6934178285300723 4.5517477393150321 10.859714828431605 31.426614433526993 160.51861185207963 4.2964731827378264 11.522127125412224 37.48443204164505 4.8702520355582219 5.7548961937427521 9.035188749432562 6.6073450930416566 6.4859988577663898 7626.0838794708252 71.981054678559303 125.88775135204196
leaf_count=6 282 23 3660 62339 903 453 53 18 6 39 28 56 150 13 105 3 110 37 2705 56 38 91 11 53 40 24 73 3533 129 299
internal_value=0.0584696 0.0416019 0.0797739 -0.0475421 0.0237577 0.0196329 -0.0503797 -0.0181969 0.0471903 0.0516557 0.0532482 0.0215509 -0.00445328 -0.018125 -0.00158189 0.00553241 -0.017516 0.0584296 -0.0522718 0.0671331 0.0282991 0.0804446 0.0497864 0.00613627 0.0602426 -0.0341355 -0.00354628 0.0825084 0.0658507 0.0633633
internal_weight=19590.8 11512.6 8060.85 3451.71 313.422 139.898 3311.81 243.941 242.966 79.9813 97.2062 74.0478 38.5469 33.831 18.015 20.3096 15.7578 168.918 163.96 61.9663 15.8186 46.1477 35.5009 10.6251 166.35 28.4774 13.0933 8078.27 76.8967 157.314
internal_count=75336 71521 5348 66173 1688 729 65444 3105 785 382 276 386 266 260 158 119 116 399 2723 224 94 130 120 64 376 247 97 3815 157 336
is_linear=0
shrinkage=0.05


Tree=17
num_leaves=31
num_cat=0
split_feature=5 10 10 13 13 5 10 6 5 3 13 23 4 1 1 6 5 4 6 1 1 9 5 13 1 21 21 20 10 15
split_gain=2869.73 14451.7 382.881 374.707 279.22 211.962 265.774 59.1274 39.1993 34.784 17.3315 60.1086 14.9876 13.3185 13.2891 33.5874 8.79134 7.65842 6.66467 8.4107 10.2903 9.06386 5.96858 25.0834 4.34888 5.42264 17.3588 3.53107 3.42563 2.63819
threshold=90.465612823633421 4.4617763223788565 5.8117138867384979 0.28034536963040729 0.076590765808325412 89.889838035890065 2.8468395929642987 4.2074992870214807 90.107848362021016 1.5298961517513261 0.1026518419495548 0.90000000000000013 229.92043985316425 51.005436360845941 121.28781663888078 4.1637136560269674 90.556092795009661 210.3440202174564 4.0273189702664576 57.945232257704127 73.741129962577006 0.7870283562958561 90.363929835044814 0.13773187219808605 76.683224850884869 0.18484368728493653 0.42409664544393672 0.14759159032149569 6.0684558675780913 1835.6080596004865
decision_type=2 2 2 2 2 2 2 2 2 2 2 2 2 2 2 2 2 2 2 2 2 2 2 2 2 2 2 2 2 2
left_child=1 4 3 9 5 6 -1 17 -5 -3 -11 18 -13 -9 -7 -16 27 24 -12 -20 -21 -22 -6 -24 -8 -26 -27 -2 29 -4
right_child=16 2 28 8 22 14 7 13 -10 10 11 12 -14 -15 15 -17 -18 -19 19 20 21 -23 23 -25 25 26 -28 -29 -30 -31
leaf_value=-0.05276739361219468 -0.11675835387810918 -0.05764647035764401 0.072857404875512677 -0.057459348205360986 -0.052693197452982114 0.08085799606199523 0.084684527944173402 0.080281848248679635 0.048133386585922262 0.081404624204112569 0.08751872451275601 -0.059962713906668512 0.032833609490170737 -0.056206925603226127 0.067927531823794893 -0.058406474845514859 0.080296510495461673 0.10315650758909196 0.088827040866385779 0.084047966203070368 0.060109658531291424 -0.057758446977538042 0.064788372907153724 -0.054951695396139005 0.079338697804323011 -0.060645790497886654 0.08203976617108133 0.073171145704034851 0.079741166788619769 0.08168994882586228
leaf_weight=223.92925212159753 0.24484977126121421 5.6081223040819159 321.73348698019981 105.64943140372634 2902.2803632840514 50.804225146770477 15.457231886684896 2.1217482089996329 9.5867591276764852 111.04063827544451 39.081062898039818 12.185274571180345 6.7680007256567469 11.339560858905314 22.746222320944074 6.8440972492098799 7484.0757555961609 24.289245646446943 8.7794511318206805 4.3445222377777082 2.5956265330314636 4.3888886533677578 5.6267319619655636 19.63977737724781 7.2767077907919875 3.7319606281816942 4.9705999419093132 445.26925908029079 7164.4794700145721 114.67620223760605
leaf_count=4802 1 66 207 1267 60693 49 8 1 22 114 26 118 20 162 38 74 3533 32 4 2 3 46 12 246 9 39 8 281 3394 59
internal_value=0.0568697 0.0405885 0.0772576 0.0227923 -0.0472884 -0.00657689 -0.0263029 0.0593513 -0.0486748 0.0650713 0.0687091 0.0506689 -0.0268262 -0.0346938 0.0653438 0.0387071 0.0798903 0.0820692 0.0754838 0.0520938 0.0236273 -0.0139556 -0.0524825 -0.0282861 0.0657762 0.0474855 0.0208512 0.0730668 0.0794792 0.0751783
internal_weight=19141.6 11212 7910.92 310.028 3301.06 373.511 293.116 69.1871 115.236 194.792 189.183 78.1428 18.9533 13.4613 80.3945 29.5903 7929.59 55.7257 59.1896 20.1085 11.329 6.98452 2927.55 25.2665 31.4365 15.9793 8.70256 445.514 7600.89 436.41
internal_count=75336 71521 5348 1688 66173 5222 5061 259 1289 399 333 219 138 163 161 112 3815 96 81 55 51 49 60951 258 64 56 47 282 3660 266
is_linear=0
shrinkage=0.05


Tree=18
num_leaves=31
num_cat=0
split_feature=10 17 10 24 17 8 24 18 17 17 18 11 0 6 17 17 0 0 7 10 8 8 19 22 22 19 18 0 18 10
split_gain=2512.04 8500.23 477.162 275.193 280.707 201.586 150.802 101.055 51.864 48.6646 68.1772 31.525 29.9211 29.7814 37.5369 27.8465 26.2622 29.2657 24.148 23.0948 63.2256 21.3652 29.8886 26.4952 20.5774 18.3974 18.1688 18.0719 17.021 27.6869
threshold=5.8117138867384979 87.51088524106494 3.8526141067799893 0.80000000000000016 88.945251518855443 4.2293400859088885 0.80000000000000016 1.2854274662208447 89.654850130441346 86.828909023845142 1.6664534337321111 5.3305270798858952 1619.3956692506308 2.1862298910971911 88.625805254640852 88.250912006143736 1667.9666979254173 1929.8684398098264 3.5818650461237733 2.9912810995467818 1.6995197786910594 2.4554621339801921 4.3145834633621378 0.16653330223271132 0.3146468612595813 4.3145834633621378 1.2854274662208447 1766.8923339345663 2.2198413889078972 1.6238558961707563
decision_type=2 2 2 2 2 2 2 2 2 2 2 2 2 2 2 2 2 2 2 2 2 2 2 2 2 2 2 2 2 2
left_child=1 2 6 -3 7 12 -1 13 26 19 -11 15 -4 -5 -15 16 18 25 -9 -8 27 -14 -23 -24 -16 -18 -6 -21 29 -12
right_child=-2 3 5 4 8 -7 9 11 -10 10 28 -13 21 14 24 -17 17 -19 -20 20 -22 22 23 -25 -26 -27 -28 -29 -30 -31
leaf_value=0.07093510439092722 0.07713632601087074 0.074287883901274374 -0.057032835943290311 0.053034177046887912 0.043124567912615666 -0.047165992094529 -0.052243759224872344 -0.054385185023944398 0.065975260275655645 -0.052361005532094065 -0.052579282074512568 -0.034383247347236745 0.055200570352723882 -0.037650408173017069 0.028419950940603414 0.046642514321297096 0.041506010852349437 -0.024482088155714451 0.075209761648848503 -0.054625057148015077 -0.053164287905482291 -0.05690552074824199 -0.061073140930432507 0.04538443319128542 -0.053502860661654598 -0.055438108273982746 0.05698431273313305 0.076675870932635504 0.067224192924876469 0.037017354634410096
leaf_weight=26.298097304999828 7778.5368640124798 3816.0099346861243 7.5264903157949439 18.044319853186607 316.00397435948253 89.330816432833672 2018.1891459822655 17.469969075173143 2471.6108586713672 66.37187173217535 13.348167609423397 14.786818038672207 151.14414541050792 79.128331709653139 48.374371849000454 424.23443337902427 143.50857785344124 21.289621613919735 4.5257663466036311 3.1412328109145191 47.294531643390656 10.197569690644739 6.4748312532901755 60.044327802956104 9.108410641551016 5.0666731335222712 939.36000788211823 15.81311973929405 15.723218873143194 24.354910798370838
leaf_count=27 3827 2555 99 98 1408 1395 49676 321 3961 1562 290 215 379 1406 360 1872 944 313 6 50 997 151 61 227 159 72 2611 54 57 183
internal_value=0.0554372 0.0399291 -0.0398452 0.0644044 0.0560465 0.0167836 -0.0480891 0.0288832 0.0617717 -0.0495092 -0.0185195 0.0377624 0.0410529 -0.00733745 -0.0153117 0.0394939 0.0236872 0.0303439 -0.0277202 -0.0512902 -0.0222417 0.0442927 0.0228026 0.0350221 0.0154389 0.0382 0.0534955 0.0549159 0.0235221 0.00529711
internal_weight=18662.3 10883.8 2555.25 8328.52 4512.51 324.718 2230.53 785.537 3726.97 2204.24 119.798 630.882 235.387 154.655 136.611 616.095 191.861 169.865 21.9957 2084.44 66.2489 227.861 76.7167 66.5192 57.4828 148.575 1255.36 18.9544 53.4263 37.7031
internal_count=75336 71509 55208 16301 13746 2312 52896 5766 7980 52869 2092 3743 917 2023 1925 3528 1656 1329 327 50777 1101 818 439 288 519 1016 4019 104 530 473
is_linear=0
shrinkage=0.05


Tree=19
num_leaves=31
num_cat=0
split_feature=10 24 18 8 13 10 20 8 20 3 20 11 4 4 22 16 6 20 10 14 8 3 6 13 16 1 15 10 21 8
split_gain=2344.62 2594.97 87.2894 42.7775 56.7749 60.4315 34.726 28.856 23.5588 40.7853 20.377 21.7136 20.4818 19.7051 26.5937 17.9969 17.6736 17.5353 19.4473 27.0502 26.1066 18.1613 16.7125 21.9846 16.2088 16.3848 21.1794 19.3474 15.824 15.66
threshold=5.8117138867384979 0.80000000000000016 1.2582686097691085 2.5668254465020697 0.17751188012883493 2.4469001660668082 6.1898433738049894 4.3328817044133867 1.4136972268993002 2.0783000170619377 0.22882590630135727 5.3965620394462706 144.16741384701552 165.59618155819524 0.30668910315714543 153.46421384722916 16.147897958374404 0.33250402536283902 3.5460617367704921 1.0000000180025095e-35 7.5322217511142737 3.9293680831431792 11.20770041556259 0.16326180240757282 155.72612242909796 128.30498313905449 1837.5199743862156 5.543391890285494 0.53064735556115228 4.7217842480944494
decision_type=2 2 2 2 2 2 2 2 2 2 2 2 2 2 2 2 2 2 2 2 2 2 2 2 2 2 2 2 2 2
left_child=1 -1 8 4 5 -4 16 -8 10 -10 13 12 -12 14 15 -3 17 18 -5 20 -20 24 28 -24 25 26 -19 -28 -14 -26
right_child=-2 2 3 6 -6 -7 7 -9 9 -11 11 -13 22 -15 -16 -17 -18 21 19 -21 -22 -23 23 -25 29 -27 27 -29 -30 -31
leaf_value=0.07215892513699472 0.075083580794340674 -0.042906063853058292 0.032155896698639781 0.026084119602858825 0.026344330677129268 0.08040765114840287 0.021528695429880128 -0.04171639680062398 -0.027236199315346446 0.0099781052785371475 0.0074067184708987615 -0.021980252430977922 0.023988009964562754 -0.015810441851087566 0.034843347193958395 0.013260933407177692 -0.052613324569082624 0.014892107924729595 0.032244012550515094 -0.043446911561426667 -0.038358052447117819 -0.036708608226823203 0.045662524765202432 -0.041078657183252688 -0.0021877517127568678 0.024990754543498139 -0.052997912330024634 0.10140455665070153 -0.052510177255632354 0.016964124384620884
leaf_weight=3758.8434312418103 7596.2500849366188 25.296331834048033 153.67247825860977 2102.0776764340699 933.13855051621795 112.31690169870853 33.147434309124947 39.559056129306555 100.70208134502172 273.81365418061614 340.82608207315207 35.406639866530895 805.83703104779124 103.418421857059 68.036128252744675 32.695019982755184 7.919809751212596 149.3275079652667 63.535657454282045 23.373803213238716 16.492203749716282 14.942209456115959 10.834955498576162 22.420133128762245 149.72650602087379 882.62259085476398 20.030979692935947 2.2575266361236563 6.8173168227076522 371.72897323593497
leaf_count=2582 3827 560 1282 20356 8089 121 208 526 1526 2670 4461 611 8000 1765 549 391 183 1573 386 365 272 281 69 480 1928 7852 426 1 161 3835
internal_value=0.0538567 0.0387317 0.0205271 0.0238998 0.032153 0.0525307 0.0213469 -0.0128825 0.0111524 -2.83045e-05 0.0140371 0.0166039 0.0177551 0.000364861 0.0136384 -0.0112396 0.0220012 0.0221568 0.0250428 0.0038734 0.0176943 0.0181553 0.0219246 -0.0128172 0.0186756 0.0222421 0.00810603 -0.037359 0.0233463 0.011465
internal_weight=18257.1 10660.8 6901.97 5075.87 1199.13 265.989 3876.74 72.7065 1826.1 374.516 1451.59 1222.14 1186.74 229.446 126.027 57.9914 3804.04 3796.12 2205.48 103.402 80.0279 1590.64 845.909 33.2551 1575.69 1054.24 171.616 22.2885 812.654 521.455
internal_count=75336 71509 68927 47684 9492 1403 38192 734 21243 4196 17047 13782 13171 3265 1500 951 37458 37275 21379 1023 658 15896 8710 549 15615 9852 2000 427 8161 5763
is_linear=0
shrinkage=0.05


Tree=20
num_leaves=31
num_cat=0
split_feature=5 10 10 13 13 8 10 24 8 24 24 8 24 24 13 8 11 13 8 5 5 8 17 10 5 23 8 5 10 2
split_gain=2616.14 12269.2 359.08 307.311 263.765 258.451 88.8091 175.146 77.797 45.1194 32.4039 12.353 11.5401 9.52701 40.1265 26.3307 11.456 9.3284 29.3032 22.5789 5.38352 4.83167 4.0384 3.56479 2.9391 2.43596 2.91322 2.41396 2.37035 2.08398
threshold=90.465612823633421 4.4617763223788565 5.8117138867384979 0.28034536963040729 0.076590765808325412 2.8619033847054296 2.8468395929642987 0.80000000000000016 4.5807463641388111 0.80000000000000016 0.80000000000000016 4.7927657582526315 0.80000000000000016 0.80000000000000016 0.21508240170102597 2.4265259295419184 5.4678064021040571 0.15836034372952174 1.6995197786910594 69.942986055037437 90.556092795009661 1.596096738606116 88.738050798884345 6.0684558675780913 90.556092795009661 0.90000000000000013 1.8581249068879691 84.6631018034753 4.0105457427753217 14.887298556942925
decision_type=2 2 2 2 2 2 2 2 2 2 2 2 2 2 2 2 2 2 2 2 2 2 2 2 2 2 2 2 2 2
left_child=1 4 3 8 5 6 7 -1 17 -7 -5 -10 20 14 15 -6 -17 25 -19 -20 29 -8 -14 -4 -24 -3 -27 -28 -23 -2
right_child=12 2 23 10 13 9 21 -9 11 -11 -12 -13 22 -15 -16 16 -18 18 19 -21 -22 28 24 -25 -26 26 27 -29 -30 -31
leaf_value=0.076959018812264038 0.060189579379723163 0.084024988772239198 0.068873848307055008 0.040684650950607186 0.086633916711067405 0.040627817959569754 0.095430488482473513 -0.052949466629368142 0.044703799327887331 -0.052928771602279337 -0.057173763916597377 -0.056643059735099692 0.081628150101542826 -0.052757004016850732 -0.056118016324002831 -0.066394436556835912 0.05042725790823404 0.076809973885472907 0.073825582671690579 -0.06219715288068664 0.073111811315805922 0.053252262976709631 0.070420353734421917 0.073571739210879991 0.076414491549592095 0.08074167411123942 0.044482358030418404 0.071837909168081873 0.082486637784468825 0.070180746022387747
leaf_weight=49.918823853135109 111.62376584112644 53.216464318335056 429.69415535032749 9.2286390215158445 9.5199257209897059 13.874905958771704 37.7304293140769 54.026483256369829 3.7186589054763344 181.00997391715646 101.49326637014747 15.704417832195757 356.31093925237656 2688.0351195335388 56.211121954023838 6.7577712163329107 3.0438341125845909 29.026141740381718 4.7791064381599417 8.436424043029545 3471.4808528423309 13.799600876867773 218.12180034816265 6701.1612222194672 3275.4665647745132 29.777010977268219 15.115469366312025 17.288310743868351 13.935818016529081 98.02486689388752
leaf_count=25 85 28 269 15 10 39 22 1181 16 3975 1278 197 174 60045 600 54 6 20 4 67 1778 34 134 3410 1606 15 28 16 11 57
internal_value=0.0521344 0.0360612 0.0710788 0.0163216 -0.0469932 -0.00700223 0.0381677 0.00943795 0.0571798 -0.046268 -0.0490173 -0.0372396 0.0746435 -0.0522649 -0.0347518 0.0274079 -0.0301161 0.0688135 0.0487101 -0.0130075 0.0726419 0.0837843 0.0765574 0.0732887 0.0760402 0.0761724 0.0694519 0.0590773 0.0679412 0.0648611
internal_weight=18077.5 10546.5 7418.64 287.784 3127.86 364.296 169.411 103.945 177.062 194.885 110.722 19.4231 7531.03 2763.57 75.5327 19.3215 9.80161 157.639 42.2417 13.2155 3681.13 65.4658 3849.9 7130.86 3493.59 115.397 62.1808 32.4038 27.7354 209.649
internal_count=75199 71365 5363 1684 66002 5287 1273 1206 391 4014 1293 213 3834 60715 670 70 60 178 91 71 1920 67 1914 3679 1740 87 59 44 45 142
is_linear=0
shrinkage=0.05


Tree=21
num_leaves=31
num_cat=0
split_feature=5 10 10 24 10 6 1 1 6 1 4 6 9 4 12 4 18 23 2 2 2 1 3 10 9 5 18 12 24 20
split_gain=2389.5 11420.6 334.473 209.61 109.385 94.8563 80.3996 57.5211 54.9138 48.153 43.7532 36.2893 28.8369 25.0132 21.1461 20.0095 20.7515 19.7813 33.7652 16.5276 20.4523 15.1137 26.2193 20.264 14.3843 12.7724 10.4744 9.42768 9.25876 9.1778
threshold=90.465612823633421 4.4617763223788565 5.8117138867384979 0.80000000000000016 2.8468395929642987 3.4150029681720659 113.42108800589081 176.41571862245155 5.0951972916286659 165.52855606052154 155.42316917606593 6.6620498754625244 0.80816711017181253 113.56758658436475 0.9632519579939024 189.03577706854097 1.3781154618842513 0.90000000000000013 7.6149655882979728 8.1883150355872694 7.8982985807166122 106.60557881870399 2.8055172613192907 3.8526141067799893 0.7470231155980992 69.3214970378625 2.1469542900886904 1.411158254926669 0.80000000000000016 0.36669835899033881
decision_type=2 2 2 2 2 2 2 2 2 2 2 2 2 2 2 2 2 2 2 2 2 2 2 2 2 2 2 2 2 2
left_child=1 3 6 7 -5 9 13 11 10 15 -8 12 26 -3 -14 16 -6 29 -19 20 -9 22 -7 -24 -15 -20 -1 -17 -2 -12
right_child=28 2 -4 4 5 21 8 19 -10 -11 17 -13 14 24 -16 27 -18 18 25 -21 -22 -23 23 -25 -26 -27 -28 -29 -30 -31
leaf_value=-0.057596647285535429 0.071000922305494929 -0.060860295610763539 0.071605491636146726 -0.052554890419459183 0.042796098717653497 -0.054389217274209915 -0.057678133008188637 -0.060209783803335915 -0.057256190305035308 -0.039945195584528956 0.058344043923176138 -0.05997824449451037 0.14546275734941616 -0.058133804900884295 0.04738559780635937 0.055025540184568636 -0.056580629216941639 0.056797720095522967 0.060175763208413481 -0.056840566231234894 0.072678768045934053 -0.053492642695623295 -0.055071565541609663 0.052475510601046271 0.049960130068088998 -0.061175579130078317 0.063957342156144945 0.11267857412487359 0.074553970025128577 0.0011677792289085192
leaf_weight=8.5380925238132459 3580.4540438652039 5.5596511736512175 6938.4295953214169 2627.310219116509 16.088372185826305 23.774814572185278 19.149504464119673 5.2163329347968084 43.566902261227369 21.363265838474035 37.58493522182107 9.2270668223500234 5.9558476135134688 3.1525645181536666 71.158443547785282 31.479262452572584 7.8000234104692927 13.802159890532492 2.4883482418954399 28.880904838442802 6.5073953866958618 92.123829416930676 6.1264856867492226 15.363743498921393 129.58342120796442 16.859544564038515 2.2365066260099402 9.1525545455515367 3758.010971903801 8.6301229484379274
leaf_count=90 1920 62 3679 62180 82 423 256 50 619 335 102 92 5 38 179 92 111 38 8 310 6 1859 103 53 344 175 3 29 1914 42
internal_value=0.051059 0.0354134 0.069442 -0.0467889 -0.0496996 -0.0161011 0.0159022 0.0134574 -0.0105135 0.0251188 0.0101579 0.0343516 0.0442549 0.0430409 0.0549605 0.0466621 0.0103477 0.0265257 -0.0029479 -0.0365163 0.0135516 -0.0418681 -0.0182098 0.0218157 0.0473928 -0.0455685 -0.0323654 0.0680122 0.0728204 0.047667
internal_weight=17545.6 10207.1 7218.81 2988.3 2850.58 223.272 280.377 137.721 142.082 85.8835 98.5146 97.116 87.8889 138.296 77.1143 64.5202 23.8884 79.3651 33.1501 40.6046 11.7237 137.389 45.265 21.4902 132.736 19.3479 10.7746 40.6318 7338.47 46.2151
internal_count=75199 71365 5363 66002 65267 3087 1684 735 1240 649 621 369 277 444 184 314 193 365 221 366 56 2438 579 156 382 183 93 121 3834 144
is_linear=0
shrinkage=0.05


Tree=22
num_leaves=31
num_cat=0
split_feature=5 10 10 13 13 8 10 24 8 24 24 8 24 13 8 11 5 13 23 8 24 15 10 15 8 15 24 8 4 10
split_gain=2192.72 10641.3 318.638 274.383 249.197 232.75 73.2097 154.804 66.4523 40.6845 29.765 11.2781 9.32368 36.4955 22.0922 10.1381 9.11931 8.47577 32.4057 20.5646 6.72824 5.48708 4.17271 10.6932 3.90209 2.42395 2.3714 2.19626 2.00456 1.99516
threshold=90.465612823633421 4.4617763223788565 5.8117138867384979 0.28034536963040729 0.076590765808325412 2.8619033847054296 2.8468395929642987 0.80000000000000016 4.5807463641388111 0.80000000000000016 0.80000000000000016 4.7927657582526315 0.80000000000000016 0.21508240170102597 2.4265259295419184 5.4678064021040571 90.556092795009661 0.096567414997503806 0.90000000000000013 1.407414977248896 0.80000000000000016 1734.607738378965 6.0684558675780913 1698.4619553906214 1.596096738606116 1855.533671619871 0.80000000000000016 1.5615211369258357 168.76497479005997 4.0105457427753217
decision_type=2 2 2 2 2 2 2 2 2 2 2 2 2 2 2 2 2 2 2 2 2 2 2 2 2 2 2 2 2 2
left_child=1 4 3 8 5 6 7 -1 17 -7 -5 -10 13 14 -6 -16 21 -3 27 -20 -18 -2 23 -4 -8 -25 28 -19 -23 -26
right_child=16 2 22 10 12 9 24 -9 11 -11 -12 -13 -14 -15 15 -17 20 18 19 -21 -22 26 -24 25 29 -27 -28 -29 -30 -31
leaf_value=0.073593046735224918 0.045196327426316137 0.075225189327040268 -0.13870163322425247 0.037645467042287911 0.078857468867856703 0.036382315948498625 0.088996400157134947 -0.052661911553283272 0.041210306496228893 -0.05264718836889435 -0.056747889384602117 -0.056095720445427821 -0.052490883194332517 -0.055648359873431877 -0.065067780185323998 0.045959285879632938 0.070010115264044409 0.078212867508061265 0.070209372075698592 -0.062648269656836009 0.073181767604068595 0.065695411530737921 0.070389011944121269 0.063718904287408812 0.050542115298257875 0.073841987983483265 0.069122877795337587 0.057932101430161136 0.054715663085731309 0.077556355555447057
leaf_weight=47.972119823098183 34.826383650302887 86.699719876050949 0.64212357997894187 9.1513820439577085 9.5529497787356394 13.916458606719969 37.094255968928337 49.156860798597336 3.7491413354873684 164.70249328017235 95.546071764081717 14.47413260489702 2446.0550033822656 52.436604611575603 6.3524836227297765 3.0400189459323883 3277.795240521431 28.693277716636658 4.3494077622890464 8.817178223282097 3413.4792724847794 107.62928336858749 6331.8298301696777 336.47309070825577 13.617912944406273 71.742637783288956 237.21222473680973 24.962751090526581 67.727656126022339 13.722050726413725
leaf_count=25 35 56 3 15 10 39 22 1181 16 3975 1278 197 60045 600 54 6 1778 14 3 70 1753 68 3410 228 34 38 144 35 56 11
internal_value=0.0500544 0.0347924 0.0679152 0.0153028 -0.0465434 -0.00637695 0.0371092 0.00969556 0.0541958 -0.0457108 -0.0484972 -0.0360766 -0.0519711 -0.0341586 0.0253199 -0.0291323 0.071166 0.0649112 0.0515292 -0.0187605 0.0716281 0.0642548 0.0700729 0.0651773 0.0784329 0.065498 0.0658636 0.0687775 0.0614547 0.0641007
internal_weight=17013.4 9874.75 7017.13 276.443 2857.62 340.182 161.563 97.129 171.746 178.619 104.697 18.2233 2517.44 71.3821 18.9455 9.3925 7138.67 153.522 66.8226 13.1666 6691.27 447.396 6740.69 408.858 64.4342 408.216 412.569 53.656 175.357 27.34
internal_count=75199 71365 5363 1684 66002 5287 1273 1206 391 4014 1293 213 60715 670 70 60 3834 178 122 73 3531 303 3679 269 67 266 268 49 124 45
is_linear=0
shrinkage=0.05


Tree=23
num_leaves=31
num_cat=0
split_feature=5 19 12 11 24 13 12 11 13 12 13 6 12 19 20 11 19 3 7 20 24 24 12 11 13 7 11 12 13 19
split_gain=2014.58 6363.05 1173.5 1797.21 106.54 100.324 75.4746 346.12 127.24 70.4875 35.3067 37.9976 34.3617 31.4423 39.4253 25.8855 24.3487 22.9917 21.2434 20.6811 19.0371 16.2578 15.2007 114.87 55.1552 17.7511 14.6741 27.4855 33.0928 13.699
threshold=90.465612823633421 1.8719855368531173 1.4906786285934757 8.4164515426861879 0.80000000000000016 0.13197721918604902 0.68511870933096797 4.2763029211349233 0.090456675746092313 0.75662241762035976 0.038540355093713105 3.078958375895771 0.79518316847592885 5.2298841888694598 0.28977020467403108 3.7918961678917946 5.9548634784495738 2.2442776833922307 2.3439834102511417 0.34125914198524993 0.80000000000000016 0.80000000000000016 0.43109672236934854 2.6045529178447988 0.1026518419495548 2.3128106820597538 2.856113231970514 0.47290753149062331 0.10914700508628246 3.0407673768033119
decision_type=2 2 2 2 2 2 2 2 2 2 2 2 2 2 2 2 2 2 2 2 2 2 2 2 2 2 2 2 2 2
left_child=1 4 6 10 5 -1 22 8 17 -6 11 19 15 14 -9 18 -5 -8 -10 -4 -21 -13 -3 24 -24 -26 27 -25 -29 -16
right_child=-2 2 3 16 9 -7 7 13 12 -11 -12 21 -14 -15 29 -17 -18 -19 -20 20 -22 -23 23 26 25 -27 -28 28 -30 -31
leaf_value=0.054617861162865058 0.069659268306708391 0.068598466523547383 0.1226020518912922 0.039654429337004207 0.04609781280571093 -0.054837522824441792 -0.027574073730467864 -0.055026036909912868 -0.054399410442793332 -0.052182754536124212 -0.052401211344382526 0.045158564921623533 -0.049838396949742493 0.066505674221550945 0.067914178685159102 0.039496902675746584 0.066949976507327133 0.062791936560653391 0.045202256182094551 0.072210166864772232 -0.052755631139022846 -0.052713867392802941 0.054277113195958931 0.064112043716971878 -0.056578720810257027 0.0236572409004005 0.066590379602275554 0.060954845427401552 -0.058424960760465189 0.023629342616734262
leaf_weight=47.304328784346581 6933.6276588588953 3301.1641879342496 6.1856279633939293 92.438546881079674 18.43463278375566 37.555541411042213 7.9984960947185746 10.737036455422638 22.474942848086361 1762.9986023195088 584.1683638188988 4.8879465013742438 92.58937219902873 1063.6114541068673 38.498155541718006 23.699943993240595 703.42917690053582 58.666241666302085 7.0272834263741961 6.1570549756288537 6.0345685780048344 32.161478126421571 26.453532762825489 52.206814400851727 31.10602018609643 8.8558109886944276 1435.4158918950707 11.143615145236256 12.117662603035567 31.960280761122704
leaf_count=59 3834 1949 8 385 88 473 119 208 459 47951 13068 8 1970 747 42 92 465 154 45 4 135 722 53 41 492 47 1117 21 182 261
internal_value=0.0491506 0.034241 0.054385 0.0136256 -0.0485584 0.00617734 0.0637678 0.0533389 -0.00527257 -0.0511657 -0.0487826 -0.0106448 -0.0314381 0.0642162 0.0342255 0.000584559 0.0637796 0.0519497 -0.0306748 0.0481364 0.010355 -0.0398015 0.0666692 0.0626315 -0.00172571 -0.0387979 0.0654605 0.0439705 -0.00123452 0.0478264
internal_weight=16471.1 9537.48 7671.19 1435.46 1866.29 84.8599 6235.73 1357.26 212.456 1781.43 639.595 55.4267 145.792 1144.81 81.1955 53.2022 795.868 66.6647 29.5022 18.3773 12.1916 37.0494 4878.46 1577.3 66.4154 39.9618 1510.88 75.4681 23.2613 70.4584
internal_count=75199 71365 22794 14795 48571 532 7999 4097 2839 48039 13945 877 2566 1258 511 596 850 273 504 147 139 730 3902 1953 592 539 1361 244 203 303
is_linear=0
shrinkage=0.05


Tree=24
num_leaves=31
num_cat=0
split_feature=5 19 12 11 24 13 12 11 13 19 12 12 8 11 13 13 8 20 24 5 13 20 24 23 21 13 13 5 5 11
split_gain=1863.46 5947.64 1084.81 1680.03 102.481 93.2555 72.3106 274.502 123.264 68.3531 67.0283 66.2344 48.3592 42.7088 48.1948 34.0417 45.7445 31.9083 28.1685 25.4558 23.798 17.0417 28.9035 15.6659 12.8167 12.7362 13.596 11.0321 10.0987 8.7364
threshold=90.465612823633421 1.8719855368531173 1.4906786285934757 8.4164515426861879 0.80000000000000016 0.13197721918604902 0.58516004358158258 3.5381667434307178 0.28034536963040729 5.6789253256425321 0.75662241762035976 0.87138580653294795 2.5668254465020697 5.2729439498722863 1.0000000180025095e-35 0.038540355093713105 2.8323656238194528 0.3375402097651124 0.80000000000000016 75.750707826990521 0.21864723127161792 0.33250402536283902 0.80000000000000016 0.90000000000000013 0.098197780181974156 0.25284318278746237 0.75149645125940057 86.223447684085258 90.556092795009661 5.1635386874985185
decision_type=2 2 2 2 2 2 2 2 2 2 2 2 2 2 2 2 2 2 2 2 2 2 2 2 2 2 2 2 2 2
left_child=1 4 6 15 5 -1 -3 8 12 11 -6 17 -8 14 -13 16 21 20 -14 25 -9 -4 -23 -20 -16 -5 -27 -21 -2 -22
right_child=28 2 3 19 10 -7 7 9 -10 -11 -12 13 18 -15 24 -17 -18 -19 23 27 29 22 -24 -25 -26 26 -28 -29 -30 -31
leaf_value=0.052626066236809259 0.060820353091863844 0.066064226132282369 0.10876702758267209 0.046716543781214676 0.043845310335820779 -0.054580159874486549 0.060778459625547503 0.05443557227507001 -0.048537435133198172 0.06503339751136708 -0.052072995550772085 0.063370435622336824 0.16238208714608671 0.055575222231065674 0.074706051668038301 -0.052229157396235938 -0.053317345179123878 0.064535251328996387 0.040192300411532933 0.066158601651366652 -0.042778338316626245 0.073384263731387678 -0.052774409756639135 -0.053929567567056025 -0.04572730661006353 -0.054349694951671461 0.040241237722550921 0.043635870308968018 0.068786619038003982 0.071201942805181814
leaf_weight=46.656622119247913 424.64011980593204 4218.1142917759717 6.5141932051628855 21.422639831900597 18.413151755928993 35.888123139739037 60.562001444399357 16.020747411996126 85.27950150705874 1376.6195857338607 1680.4616888444871 14.266231898218392 1.9857163354754472 28.041086183860898 2.3119175694882861 557.46259317919612 28.827390138059855 156.81490286998451 5.6780623421073022 678.31687911227345 15.307626076042652 9.7362464666366613 8.5066360067576134 19.968109110370275 49.68817887082696 8.6621240936219674 6.7662752605974665 59.10703682154417 6300.3024015426636 1.8885921239852912
leaf_count=59 303 3075 13 57 88 473 115 42 1824 1038 47951 38 5 93 4 13068 666 186 22 459 209 5 193 424 923 158 46 130 3531 1
internal_value=0.0482697 0.0336707 0.0533247 0.0134115 -0.0483899 0.00601583 0.0624602 0.0541729 -0.00567577 0.0604236 -0.0510334 0.0381055 0.0357695 0.00384969 -0.0180383 -0.0485703 -0.0105052 0.0551056 -0.0190437 0.0623267 0.010589 0.0393457 0.0145566 -0.033091 -0.0403729 0.0217712 -0.0128659 0.0643533 0.0682836 -0.0302603
internal_weight=15944.2 9219.29 7437.87 1385.32 1781.42 82.5447 6052.55 1834.43 173.473 1660.96 1698.87 284.339 88.1939 94.3074 66.2663 611.047 53.5845 190.032 27.6319 774.275 33.217 24.7571 18.2429 25.6462 52.0001 36.851 15.4284 737.424 6724.94 17.1962
internal_count=75199 71365 22794 14795 48571 532 7999 4924 2390 2534 48039 1496 566 1058 965 13945 877 438 451 850 252 211 198 446 927 261 204 589 3834 210
is_linear=0
shrinkage=0.05


Tree=25
num_leaves=31
num_cat=0
split_feature=5 19 12 11 24 13 12 11 13 12 19 12 13 13 11 24 20 8 19 12 2 12 11 8 8 11 19 13 20 2
split_gain=1690.29 5651.02 962.267 1545.29 88.7175 89.1041 66.9052 242.007 126.615 59.4978 55.3078 87.2219 51.8863 50.868 50.6624 45.3744 41.5052 40.2532 34.7044 29.91 24.4399 23.1021 29.1266 20.68 18.9828 19.8179 17.546 16.9185 22.8396 13.23
threshold=90.465612823633421 1.8719855368531173 1.4906786285934757 7.2367564423195354 0.80000000000000016 0.13197721918604902 0.51249090240908213 3.2630584309934787 0.21508240170102597 0.75662241762035976 5.6789253256425321 0.87138580653294795 0.038540355093713105 0.27373086078791403 5.755685321467868 0.80000000000000016 0.30339006065878743 1.2470870851139675 5.3984696792809759 0.87138580653294795 10.801286993915211 0.552188346447407 3.0746709775003223 2.626688234565846 3.972078554408859 3.0552366828399045 4.9909590226719622 0.13773187219808605 0.39488106868987832 19.726275349769598
decision_type=2 2 2 2 2 2 2 2 2 2 2 2 2 2 2 2 2 2 2 2 2 2 2 2 2 2 2 2 2 2
left_child=1 4 6 12 5 -1 -3 8 19 -6 11 16 15 23 -15 -4 20 -17 27 24 -9 22 -10 -13 -8 -26 -25 -5 29 -29
right_child=-2 2 3 18 9 -7 7 10 21 -11 -12 13 -14 14 -16 17 -18 -19 -20 -21 -22 -23 -24 26 25 -27 -28 28 -30 -31
leaf_value=0.052032846323748584 0.066996533266254668 0.065423141407657925 0.06705938891524639 0.056331200939051834 0.038007986846910195 -0.054358721761028884 0.066505530371454846 0.032525827811029098 -0.060843568222271743 -0.051972760600069723 0.06369064171324057 0.064789190246954939 -0.052495468238876478 -0.050151517171741988 0.072367634131623601 0.095422539203512971 0.062301546027683154 -0.052454199498940035 0.063612486585248845 -0.053045439609844404 -0.060759403949220095 -0.050527786070223513 0.054761818308371346 -0.024746468838423893 -0.05617660575100264 0.051927270505950765 0.059238114623709405 -0.042561875114652571 0.047339852353780104 0.081821534919184563
leaf_weight=42.902216866612434 6508.1848888844252 3688.3309463784099 16.807705566287041 27.18024268001318 18.583833694458008 36.357826687395573 61.714541982859373 22.035802694037557 9.2911628782749194 1606.8729592617601 1644.1161469258368 33.463953152298927 520.03483674302697 45.785723457112908 10.343776199966667 5.357292514294385 312.84571289084852 32.638904422521591 714.36493923142552 7.1891412921249858 10.304565479978917 78.83041886985302 13.173665627837179 17.056567855179313 7.1941019315272596 10.32270094566047 9.7876537218689901 19.552988730371002 17.72658427990973 2.4002820327877989
leaf_count=53 3833 2521 14 71 84 501 90 102 114 48054 1307 63 12851 989 21 31 400 805 561 164 178 1711 15 242 114 28 23 360 67 6
internal_value=0.0475657 0.0335808 0.0526323 0.0146039 -0.0484252 0.00322936 0.0612533 0.0545475 0.000148504 -0.050944 0.0593969 0.0441042 -0.0476189 0.00668294 -0.0275732 -0.00134528 0.0567271 -0.0316042 0.0603885 0.0446063 0.00280249 -0.0377808 0.00694892 0.0385655 0.0534668 0.00752931 0.00587509 0.0259415 0.00512494 -0.0289623
internal_weight=15550.8 9042.57 7337.85 1356.06 1704.72 79.26 5981.79 2293.46 187.716 1625.46 2105.74 461.624 574.839 116.438 56.1295 54.8039 345.186 37.9962 781.225 86.4205 32.3404 101.295 22.4648 60.3082 79.2313 17.5168 26.8442 66.8601 39.6799 21.9533
internal_count=75373 71540 22848 14766 48692 554 8082 5561 2236 48138 3325 2018 13701 1338 1010 850 680 836 1065 396 280 1840 129 328 232 142 265 504 433 366
is_linear=0
shrinkage=0.05


Tree=26
num_leaves=31
num_cat=0
split_feature=5 10 13 10 24 10 13 8 8 7 22 5 8 7 20 24 13 10 18 10 8 10 5 15 24 15 14 6 15 16
split_gain=1571.96 8141.63 495.537 316.636 184.507 72.2169 113.495 68.7699 49.5858 23.821 12.3667 12.2011 11.1151 8.669 8.41268 8.03211 35.4095 19.2801 9.53638 6.68632 3.75366 9.89665 28.8624 15.8213 3.20153 3.07588 3.06043 2.45237 1.94259 1.81239
threshold=90.465612823633421 5.8117138867384979 0.096567414997503806 2.8468395929642987 0.80000000000000016 4.6414056767852125 0.28034536963040729 4.5427930242605834 2.7160230761654485 3.4579288654068812 0.3905374715750371 90.556092795009661 4.7927657582526315 1.2955986852737691 0.15932251387077498 0.80000000000000016 0.21508240170102597 3.1289412477640646 1.0779432196568293 6.0684558675780913 1.9507761855866363 4.4617763223788565 90.107848362021016 1757.7007553982073 0.80000000000000016 1734.607738378965 1.0000000180025095e-35 2.0310642485470862 1838.8887742607903 151.62454879007115
decision_type=2 2 2 2 2 2 2 2 2 2 2 2 2 2 2 2 2 2 2 2 2 2 2 2 2 2 2 2 2 2
left_child=1 2 3 4 13 15 8 20 26 -8 -10 14 -9 -1 -2 16 17 18 -4 28 -5 22 23 -22 -13 -16 -7 -27 -3 -29
right_child=11 19 5 7 -6 6 9 12 10 -11 -12 24 -14 -15 25 -17 -18 -19 -20 -21 21 -23 -24 -25 -26 27 -28 29 -30 -31
leaf_value=0.020475411120382602 -0.16660161884430463 0.056733310435768458 0.054458005876190624 0.074597002775742369 -0.052053356544348617 0.044674015374994012 -0.058413542638494458 0.046163663623047593 -0.059049695280319829 0.047105202716971439 0.066399690195466043 0.065200005854046381 -0.055524961859166326 0.065513309666496877 0.042403323894075445 -0.051962632188259632 -0.05482990698701589 0.09763769736411837 -0.061877781371422573 0.065600333409371256 0.045718607047672201 0.071099466005952058 0.08957243156231981 -0.060284196609003783 0.06752844675525313 0.021178247148623167 0.070257658798191458 0.055657299693471544 0.065112933563216416 0.062842934134220582
leaf_weight=14.730769731104372 0.41932347416877647 288.30886943638325 2.7881891801953298 85.742428328841925 187.13637704215944 19.694945596158504 86.385483564808965 3.3072809390723732 13.871135797351601 5.7016319669783107 2.2886607684195033 2867.4514575004578 14.334115866571663 38.897304967045784 31.122427344322205 2028.9418630823493 45.699727885425091 6.6493911743164062 4.7841412834823132 5674.3302639722824 6.2496908195316818 60.605531439185143 12.699936114251612 8.0593051053583604 3042.8577737808228 4.2803050130605689 28.758798941969872 175.27692802250385 90.990435838699341 175.73497232794762
leaf_count=37 2 226 7 55 5525 34 1096 12 155 15 4 1776 233 25 32 59741 621 3 49 3470 18 41 8 86 1761 6 21 139 58 117
internal_value=0.0467944 0.0330609 -0.0395416 0.00951495 -0.028622 -0.0489739 -0.0162364 0.0575888 0.0345633 -0.0518803 -0.0412827 0.0658357 -0.0364611 0.0531421 0.0572329 -0.0514298 -0.0333883 0.0355118 -0.0190421 0.0651707 0.0671597 0.0598812 0.0347086 -0.0139857 0.0663988 0.0574758 0.0598587 0.0587961 0.0587435 0.0592548
internal_weight=15028.1 8730.96 2677.33 431.763 240.764 2245.56 156.701 190.998 64.6135 92.0871 16.1598 6297.14 17.6414 53.6281 386.834 2088.86 59.9214 14.2217 7.57233 6053.63 173.357 87.6145 27.0089 14.309 5910.31 386.415 48.4537 355.292 379.299 351.012
internal_count=75373 71540 67786 6040 5587 61746 1325 453 214 1111 159 3833 245 62 296 60421 680 59 56 3754 208 153 112 104 3537 294 55 262 284 256
is_linear=0
shrinkage=0.05


Tree=27
num_leaves=31
num_cat=0
split_feature=5 10 10 13 13 10 24 7 1 13 7 23 7 5 5 24 10 12 20 10 13 23 4 1 5 21 0 16 16 24
split_gain=1457.45 7632.48 292.156 248.048 239.186 151.336 174.603 30.599 21.52 27.435 20.652 15.947 23.0559 12.5452 11.988 11.0022 36.5797 8.52503 7.47488 7.02767 4.82513 13.8133 23.5938 3.95195 3.783 3.59789 3.34364 2.9052 2.87557 2.63016
threshold=90.465612823633421 4.4617763223788565 5.8117138867384979 0.28034536963040729 0.076590765808325412 2.8468395929642987 0.80000000000000016 1.1330582464359413 122.31817514923243 0.19530721597938047 3.4579288654068812 0.90000000000000013 1.0769005351772691 90.556092795009661 88.281167361125497 0.80000000000000016 2.9912810995467818 1.5105118532368722 0.15932251387077498 6.0684558675780913 0.029893161375510804 0.90000000000000013 204.27215768376382 94.531987429910387 89.889838035890065 0.30757341429270518 1948.3503042748678 151.62454879007115 120.72547090786374 0.80000000000000016
decision_type=2 2 2 2 2 2 2 2 2 2 2 2 2 2 2 2 2 2 2 2 2 2 2 2 2 2 2 2 2 2
left_child=1 4 3 8 5 6 23 14 20 11 -5 25 -13 18 -7 16 17 -6 -2 -4 -3 -22 -23 -1 28 -10 -27 -20 -9 -15
right_child=13 2 19 10 15 7 -8 24 9 -11 -12 12 -14 29 -16 -17 -18 -19 27 -21 21 22 -24 -25 -26 26 -28 -29 -30 -31
leaf_value=0.067793112507249967 -0.1488521905437179 0.073154358007618756 0.057477746147821786 -0.057742737120084389 0.022608728956052131 -0.056527994989510277 -0.051950602891567256 0.077039493960043504 0.077438894629078034 -0.058745823547755531 0.036184308731064908 -0.063677893821663042 0.045804707361541602 0.064240640055782977 0.038391595361742706 -0.051962224569687215 0.050520740603658569 -0.055065970420149823 0.051838009207492965 0.064610691350860144 0.066464550780185566 -0.06589529051961876 0.059062424085450461 0.040042241484250209 0.088816552144748373 0.016558960819506439 0.064447092208894649 0.060630001535181534 0.052781932475218021 0.0663878288241153
leaf_weight=26.158770561218262 0.44511951506137748 47.604206766933203 368.5446924418211 93.306616155430675 3.8311697989702216 7.7477572392672283 158.08019543625414 17.687463719397783 15.608304169028999 8.6156233903020603 6.243822067975997 7.8448157459497478 12.425217811018227 2767.2985990047455 5.8289921004325151 1939.634472809732 11.366969317197798 45.305461034178734 190.90659217536449 5478.1544314622879 43.483985798433423 6.0376318916678455 10.091534666717051 25.176645033061504 14.578621260821818 6.6034137960523358 8.1362109705805761 185.02433001995087 39.502427395433187 2942.9145570993423
leaf_count=15 2 31 284 1284 22 137 4902 24 19 103 23 85 24 1776 22 60156 32 634 164 3470 39 46 11 39 9 31 12 130 86 1761
internal_value=0.0461299 0.0326396 0.0618295 0.0105818 -0.0451106 -0.003062 -0.0259333 0.0530585 0.0479218 0.023734 -0.0518516 0.0377728 0.00343325 0.0647645 -0.0157756 -0.0513073 -0.0303107 -0.0490097 0.0559228 0.0641611 0.0612846 0.0518061 0.012287 0.0541831 0.0660801 0.0607089 0.042993 0.0561652 0.0602842 0.0653473
internal_weight=14494.2 8407.6 6112.7 266.001 2294.9 294.761 209.416 85.3453 166.451 59.2336 99.5504 50.618 20.27 6086.59 13.5767 2000.14 60.5036 49.1366 376.376 5846.7 107.217 59.6132 16.1292 51.3354 71.7685 30.3479 14.7396 375.931 57.1899 5710.21
internal_count=75373 71540 5462 1708 66078 5234 4956 278 401 274 1307 171 109 3833 159 60844 688 656 296 3754 127 96 57 54 119 62 43 294 110 3537
is_linear=0
shrinkage=0.05


Tree=28
num_leaves=31
num_cat=0
split_feature=10 17 10 24 17 8 24 17 17 17 11 16 0 8 10 4 8 12 2 11 23 10 16 21 7 17 0 1 9 10
split_gain=1273.22 4458.92 275.986 143.798 160.765 128.675 93.468 45.0146 33.3689 27.1154 22.2591 20.4749 20.0658 15.1018 19.5936 17.938 13.5072 12.1215 11.4876 20.0709 11.0012 10.2327 9.56184 10.4585 9.54898 9.28939 9.89689 9.23578 11.1452 8.52105
threshold=5.8117138867384979 87.51088524106494 2.9912810995467818 0.80000000000000016 88.896287535019667 3.9090579168812196 0.80000000000000016 87.01159025680245 89.465549264431928 88.250912006143736 5.2729439498722863 169.26781615805984 1622.1840154578069 1.6325722008624235 4.1587907690813362 232.43217448654386 1.9507761855866363 0.552188346447407 7.5074610257010175 3.174002896456638 0.90000000000000013 1.7483308668041453 136.84625742717856 0.36693461443806052 1.0634310957034385 87.01159025680245 2162.2452984544216 61.81774750458829 0.77169266984073392 1.3167338537714068
decision_type=2 2 2 2 2 2 2 2 2 2 2 2 2 2 2 2 2 2 2 2 2 2 2 2 2 2 2 2 2 2
left_child=1 2 6 -3 9 12 -1 -8 -6 18 17 21 -4 -14 16 -16 -15 -11 -5 27 -10 -9 -21 24 -24 26 -7 -20 -29 -13
right_child=-2 3 5 4 8 25 7 11 20 10 -12 29 13 14 15 -17 -18 -19 19 22 -22 -23 23 -25 -26 -27 -28 28 -30 -31
leaf_value=0.056373214944227028 0.063211097000134039 0.060636228559970334 -0.055481003032961822 0.033393795200448544 0.040483616521463865 -0.04812431925475491 -0.051054090858965319 -0.051562304056774269 0.010489603869047695 -0.069372950500717845 -0.053142306477592716 -0.051630502582102444 0.044096155280947097 0.023060156896723034 0.032038541419447723 -0.058789592186027362 -0.054281587212057003 0.031460282656792786 0.053617732162401857 -0.046108721910015402 0.053311406197003412 0.0043232159575316452 0.022450820073987715 -0.052184200109857241 -0.033500800265077367 0.018074604699106638 0.053834583447703914 -0.055866552929416918 0.014737545052241783 0.030502176551297885
