{"learner":{"attributes":{"scikit_learn":"{\"_estimator_type\": \"regressor\"}"},"feature_names":["time_cycles","op_setting_1","op_setting_2","op_setting_3","sensor_2","sensor_4","sensor_7","sensor_11","sensor_12","sensor_13","sensor_17","temp_gradient","pressure_ratio_norm","speed_ratio","efficiency_proxy","sensor_4_roll_mean","sensor_4_roll_std","sensor_13_roll_mean","efficiency_roll_mean","temp_trend_slope","health_index"],"feature_types":["int","float","float","float","float","float","float","float","float","float","int","float","float","float","float","float","float","float","float","float","float"],"gradient_booster":{"model":{"cats":{"enc":[],"feature_segments":[],"sorted_idx":[]},"gbtree_model_param":{"num_parallel_tree":"1","num_trees":"350"},"iteration_indptr":[0,1,2,3,4,5,6,7,8,9,10,11,12,13,14,15,16,17,18,19,20,21,22,23,24,25,26,27,28,29,30,31,32,33,34,35,36,37,38,39,40,41,42,43,44,45,46,47,48,49,50,51,52,53,54,55,56,57,58,59,60,61,62,63,64,65,66,67,68,69,70,71,72,73,74,75,76,77,78,79,80,81,82,83,84,85,86,87,88,89,90,91,92,93,94,95,96,97,98,99,100,101,102,103,104,105,106,107,108,109,110,111,112,113,114,115,116,117,118,119,120,121,122,123,124,125,126,127,128,129,130,131,132,133,134,135,136,137,138,139,140,141,142,143,144,145,146,147,148,149,150,151,152,153,154,155,156,157,158,159,160,161,162,163,164,165,166,167,168,169,170,171,172,173,174,175,176,177,178,179,180,181,182,183,184,185,186,187,188,189,190,191,192,193,194,195,196,197,198,199,200,201,202,203,204,205,206,207,208,209,210,211,212,213,214,215,216,217,218,219,220,221,222,223,224,225,226,227,228,229,230,231,232,233,234,235,236,237,238,239,240,241,242,243,244,245,246,247,248,249,250,251,252,253,254,255,256,257,258,259,260,261,262,263,264,265,266,267,268,269,270,271,272,273,274,275,276,277,278,279,280,281,282,283,284,285,286,287,288,289,290,291,292,293,294,295,296,297,298,299,300,301,302,303,304,305,306,307,308,309,310,311,312,313,314,315,316,317,318,319,320,321,322,323,324,325,326,327,328,329,330,331,332,333,334,335,336,337,338,339,340,341,342,343,344,345,346,347,348,349,350],"tree_info":[0,0,0,0,0,0,0,0,0,0,0,0,0,0,0,0,0,0,0,0,0,0,0,0,0,0,0,0,0,0,0,0,0,0,0,0,0,0,0,0,0,0,0,0,0,0,0,0,0,0,0,0,0,0,0,0,0,0,0,0,0,0,0,0,0,0,0,0,0,0,0,0,0,0,0,0,0,0,0,0,0,0,0,0,0,0,0,0,0,0,0,0,0,0,0,0,0,0,0,0,0,0,0,0,0,0,0,0,0,0,0,0,0,0,0,0,0,0,0,0,0,0,0,0,0,0,0,0,0,0,0,0,0,0,0,0,0,0,0,0,0,0,0,0,0,0,0,0,0,0,0,0,0,0,0,0,0,0,0,0,0,0,0,0,0,0,0,0,0,0,0,0,0,0,0,0,0,0,0,0,0,0,0,0,0,0,0,0,0,0,0,0,0,0,0,0,0,0,0,0,0,0,0,0,0,0,0,0,0,0,0,0,0,0,0,0,0,0,0,0,0,0,0,0,0,0,0,0,0,0,0,0,0,0,0,0,0,0,0,0,0,0,0,0,0,0,0,0,0,0,0,0,0,0,0,0,0,0,0,0,0,0,0,0,0,0,0,0,0,0,0,0,0,0,0,0,0,0,0,0,0,0,0,0,0,0,0,0,0,0,0,0,0,0,0,0,0,0,0,0,0,0,0,0,0,0,0,0,0,0,0,0,0,0,0,0,0,0,0,0,0,0,0,0,0,0,0,0,0,0,0,0,0,0,0,0,0,0,0,0,0,0,0,0,0,0,0,0,0,0],"trees":[{"base_weights":[3.2826E-1,5.126653E1,-4.269018E1,5.8406126E-1,2.1834098E-1,-5.788583E-1,-1.0357933E-1],"categories":[],"categories_nodes":[],"categories_segments":[],"categories_sizes":[],"default_left":[0,0,0,0,0,0,0],"id":0,"left_children":[1,3,5,-1,-1,-1,-1],"loss_changes":[4.024224E7,4.570798E6,9.135308E6,0E0,0E0,0E0,0E0],"parents":[2147483647,0,0,1,1,2,2],"right_children":[2,4,6,-1,-1,-1,-1],"split_conditions":[9.5E1,4.8E1,1.0932285E1,5.8406126E-1,2.1834098E-1,-5.788583E-1,-1.0357933E-1],"split_indices":[0,0,13,0,0,0,0],"split_type":[0,0,0,0,0,0,0],"sum_hessian":[1.8364E4,8.408E3,9.956E3,4.223E3,4.185E3,4.843E3,5.113E3],"tree_param":{"num_deleted":"0","num_feature":"21","num_nodes":"7","size_leaf_vector":"1"}},{"base_weights":[-1.1318739E-1,5.1641792E1,-4.149834E1,5.8517516E-1,2.2515984E-1,-5.7504874E-1,-9.8715186E-2],"categories":[],"categories_nodes":[],"categories_segments":[],"categories_sizes":[],"default_left":[0,0,0,0,0,0,0],"id":1,"left_children":[1,3,5,-1,-1,-1,-1],"loss_changes":[3.9514996E7,4.318182E6,9.432902E6,0E0,0E0,0E0,0E0],"parents":[2147483647,0,0,1,1,2,2],"right_children":[2,4,6,-1,-1,-1,-1],"split_conditions":[9.3E1,4.7E1,1.0932285E1,5.8517516E-1,2.2515984E-1,-5.7504874E-1,-9.8715186E-2],"split_indices":[0,0,13,0,0,0,0],"split_type":[0,0,0,0,0,0,0],"sum_hessian":[1.8448E4,8.197E3,1.0251E4,4.094E3,4.103E3,4.879E3,5.372E3],"tree_param":{"num_deleted":"0","num_feature":"21","num_nodes":"7","size_leaf_vector":"1"}},{"base_weights":[1.0609636E-1,3.154904E1,-5.9488018E1,3.8641095E-1,7.2581194E-2,-6.4975476E-1,-2.582871E-1],"categories":[],"categories_nodes":[],"categories_segments":[],"categories_sizes":[],"default_left":[0,0,0,0,0,0,0],"id":2,"left_children":[1,3,5,-1,-1,-1,-1],"loss_changes":[3.447945E7,4.759407E6,3.941972E6,0E0,0E0,0E0,0E0],"parents":[2147483647,0,0,1,1,2,2],"right_children":[2,4,6,-1,-1,-1,-1],"split_conditions":[1.409361E3,1.404321E3,1.0903793E1,3.8641095E-1,7.2581194E-2,-6.4975476E-1,-2.582871E-1],"split_indices":[15,15,13,0,0,0,0],"split_type":[0,0,0,0,0,0,0],"sum_hessian":[1.84E4,1.2045E4,6.355E3,6.71E3,5.335E3,3.38E3,2.975E3],"tree_param":{"num_deleted":"0","num_feature":"21","num_nodes":"7","size_leaf_vector":"1"}},{"base_weights":[2.3375006E-1,5.097727E1,-4.0871956E1,5.7782936E-1,2.2255017E-1,-5.808828E-1,-1.1081616E-1],"categories":[],"categories_nodes":[],"categories_segments":[],"categories_sizes":[],"default_left":[0,0,0,0,0,0,0],"id":3,"left_children":[1,3,5,-1,-1,-1,-1],"loss_changes":[3.8424816E7,4.229408E6,9.034948E6,0E0,0E0,0E0,0E0],"parents":[2147483647,0,0,1,1,2,2],"right_children":[2,4,6,-1,-1,-1,-1],"split_conditions":[9.3E1,4.7E1,1.0926043E1,5.7782936E-1,2.2255017E-1,-5.808828E-1,-1.1081616E-1],"split_indices":[0,0,13,0,0,0,0],"split_type":[0,0,0,0,0,0,0],"sum_hessian":[1.8421E4,8.244E3,1.0177E4,4.112E3,4.132E3,4.54E3,5.637E3],"tree_param":{"num_deleted":"0","num_feature":"21","num_nodes":"7","size_leaf_vector":"1"}},{"base_weights":[1.4151286E-1,4.765255E1,-4.3052277E1,5.456735E-1,1.6990289E-1,-1.0150935E-1,-5.5154103E-1],"categories":[],"categories_nodes":[],"categories_segments":[],"categories_sizes":[],"default_left":[0,0,0,0,0,0,0],"id":4,"left_children":[1,3,5,-1,-1,-1,-1],"loss_changes":[3.7683544E7,4.982656E6,7.898988E6,0E0,0E0,0E0,0E0],"parents":[2147483647,0,0,1,1,2,2],"right_children":[2,4,6,-1,-1,-1,-1],"split_conditions":[9.9E1,5.4E1,4.765E1,5.456735E-1,1.6990289E-1,-1.0150935E-1,-5.5154103E-1],"split_indices":[0,0,7,0,0,0,0],"split_type":[0,0,0,0,0,0,0],"sum_hessian":[1.8362E4,8.744E3,9.618E3,4.742E3,4.002E3,4.572E3,5.046E3],"tree_param":{"num_deleted":"0","num_feature":"21","num_nodes":"7","size_leaf_vector":"1"}},{"base_weights":[-1.0452929E-2,4.9818314E1,-4.06767E1,5.77834E-1,2.2311224E-1,-5.8550715E-1,-1.2724765E-1],"categories":[],"categories_nodes":[],"categories_segments":[],"categories_sizes":[],"default_left":[0,0,0,0,0,0,0],"id":5,"left_children":[1,3,5,-1,-1,-1,-1],"loss_changes":[3.736522E7,4.224742E6,8.436358E6,0E0,0E0,0E0,0E0],"parents":[2147483647,0,0,1,1,2,2],"right_children":[2,4,6,-1,-1,-1,-1],"split_conditions":[9.4E1,4.5E1,3.0967221E0,5.77834E-1,2.2311224E-1,-5.8550715E-1,-1.2724765E-1],"split_indices":[0,0,18,0,0,0,0],"split_type":[0,0,0,0,0,0,0],"sum_hessian":[1.8439E4,8.286E3,1.0153E4,3.914E3,4.372E3,4.248E3,5.905E3],"tree_param":{"num_deleted":"0","num_feature":"21","num_nodes":"7","size_leaf_vector":"1"}},{"base_weights":[8.89946E-2,4.9137833E1,-4.0658863E1,5.5532295E-1,2.0416875E-1,-5.7150227E-1,-1.1174344E-1],"categories":[],"categories_nodes":[],"categories_segments":[],"categories_sizes":[],"default_left":[0,0,0,0,0,0,0],"id":6,"left_children":[1,3,5,-1,-1,-1,-1],"loss_changes":[3.666831E7,4.168204E6,8.526042E6,0E0,0E0,0E0,0E0],"parents":[2147483647,0,0,1,1,2,2],"right_children":[2,4,6,-1,-1,-1,-1],"split_conditions":[9.4E1,4.9E1,1.0926043E1,5.5532295E-1,2.0416875E-1,-5.7150227E-1,-1.1174344E-1],"split_indices":[0,0,13,0,0,0,0],"split_type":[0,0,0,0,0,0,0],"sum_hessian":[1.8346E4,8.325E3,1.0021E4,4.295E3,4.03E3,4.514E3,5.507E3],"tree_param":{"num_deleted":"0","num_feature":"21","num_nodes":"7","size_leaf_vector":"1"}},{"base_weights":[-4.7002316E-2,3.0714996E1,-5.753926E1,3.7654838E-1,6.861128E-2,-6.2758917E-1,-2.5307468E-1],"categories":[],"categories_nodes":[],"categories_segments":[],"categories_sizes":[],"default_left":[0,0,0,0,0,0,0],"id":7,"left_children":[1,3,5,-1,-1,-1,-1],"loss_changes":[3.2571312E7,4.559114E6,3.64676E6,0E0,0E0,0E0,0E0],"parents":[2147483647,0,0,1,1,2,2],"right_children":[2,4,6,-1,-1,-1,-1],"split_conditions":[1.409361E3,1.404321E3,1.0903793E1,3.7654838E-1,6.861128E-2,-6.2758917E-1,-2.5307468E-1],"split_indices":[15,15,13,0,0,0,0],"split_type":[0,0,0,0,0,0,0],"sum_hessian":[1.8416E4,1.1997E4,6.419E3,6.711E3,5.286E3,3.396E3,3.023E3],"tree_param":{"num_deleted":"0","num_feature":"21","num_nodes":"7","size_leaf_vector":"1"}},{"base_weights":[1.6722915E-1,4.6811836E1,-4.1450523E1,5.3670824E-1,1.7321089E-1,-5.6611985E-1,-1.213798E-1],"categories":[],"categories_nodes":[],"categories_segments":[],"categories_sizes":[],"default_left":[0,0,0,0,0,0,0],"id":8,"left_children":[1,3,5,-1,-1,-1,-1],"loss_changes":[3.5823084E7,4.652168E6,7.785438E6,0E0,0E0,0E0,0E0],"parents":[2147483647,0,0,1,1,2,2],"right_children":[2,4,6,-1,-1,-1,-1],"split_conditions":[9.8E1,5.3E1,1.0925158E1,5.3670824E-1,1.7321089E-1,-5.6611985E-1,-1.213798E-1],"split_indices":[0,0,13,0,0,0,0],"split_type":[0,0,0,0,0,0,0],"sum_hessian":[1.8453E4,8.701E3,9.752E3,4.641E3,4.06E3,4.466E3,5.286E3],"tree_param":{"num_deleted":"0","num_feature":"21","num_nodes":"7","size_leaf_vector":"1"}},{"base_weights":[-3.14942E-2,4.8204338E1,-4.0131336E1,5.439876E-1,1.9055378E-1,-5.59538E-1,-1.111356E-1],"categories":[],"categories_nodes":[],"categories_segments":[],"categories_sizes":[],"default_left":[0,0,0,0,0,0,0],"id":9,"left_children":[1,3,5,-1,-1,-1,-1],"loss_changes":[3.5533464E7,4.218282E6,8.129208E6,0E0,0E0,0E0,0E0],"parents":[2147483647,0,0,1,1,2,2],"right_children":[2,4,6,-1,-1,-1,-1],"split_conditions":[9.5E1,5.1E1,1.0926043E1,5.439876E-1,1.9055378E-1,-5.59538E-1,-1.111356E-1],"split_indices":[0,0,13,0,0,0,0],"split_type":[0,0,0,0,0,0,0],"sum_hessian":[1.837E4,8.339E3,1.0031E4,4.423E3,3.916E3,4.554E3,5.477E3],"tree_param":{"num_deleted":"0","num_feature":"21","num_nodes":"7","size_leaf_vector":"1"}},{"base_weights":[-6.3106366E-2,4.872024E1,-3.8448956E1,5.572975E-1,2.184099E-1,-5.151366E-1,-6.774191E-2],"categories":[],"categories_nodes":[],"categories_segments":[],"categories_sizes":[],"default_left":[0,0,0,0,0,0,0],"id":10,"left_children":[1,3,5,-1,-1,-1,-1],"loss_changes":[3.431836E7,3.762526E6,8.327998E6,0E0,0E0,0E0,0E0],"parents":[2147483647,0,0,1,1,2,2],"right_children":[2,4,6,-1,-1,-1,-1],"split_conditions":[9.2E1,4.5E1,1.0941214E1,5.572975E-1,2.184099E-1,-5.151366E-1,-6.774191E-2],"split_indices":[0,0,13,0,0,0,0],"split_type":[0,0,0,0,0,0,0],"sum_hessian":[1.8326E4,8.07E3,1.0256E4,3.897E3,4.173E3,5.359E3,4.897E3],"tree_param":{"num_deleted":"0","num_feature":"21","num_nodes":"7","size_leaf_vector":"1"}},{"base_weights":[-2.974112E-1,4.748231E1,-3.8669777E1,5.459751E-1,2.070978E-1,-5.43687E-1,-1.051388E-1],"categories":[],"categories_nodes":[],"categories_segments":[],"categories_sizes":[],"default_left":[0,0,0,0,0,0,0],"id":11,"left_children":[1,3,5,-1,-1,-1,-1],"loss_changes":[3.366468E7,3.814834E6,7.8869E6,0E0,0E0,0E0,0E0],"parents":[2147483647,0,0,1,1,2,2],"right_children":[2,4,6,-1,-1,-1,-1],"split_conditions":[9.3E1,4.6E1,3.1000197E0,5.459751E-1,2.070978E-1,-5.43687E-1,-1.051388E-1],"split_indices":[0,0,18,0,0,0,0],"split_type":[0,0,0,0,0,0,0],"sum_hessian":[1.8361E4,8.178E3,1.0183E4,3.988E3,4.19E3,4.6E3,5.583E3],"tree_param":{"num_deleted":"0","num_feature":"21","num_nodes":"7","size_leaf_vector":"1"}},{"base_weights":[-1.9488958E-1,4.819568E1,-3.774981E1,5.5575484E-1,2.2963347E-1,-5.457485E-1,-1.0079437E-1],"categories":[],"categories_nodes":[],"categories_segments":[],"categories_sizes":[],"default_left":[0,0,0,0,0,0,0],"id":12,"left_children":[1,3,5,-1,-1,-1,-1],"loss_changes":[3.3426904E7,3.445732E6,8.209682E6,0E0,0E0,0E0,0E0],"parents":[2147483647,0,0,1,1,2,2],"right_children":[2,4,6,-1,-1,-1,-1],"split_conditions":[9.1E1,4.2E1,1.0925158E1,5.5575484E-1,2.2963347E-1,-5.457485E-1,-1.0079437E-1],"split_indices":[0,0,13,0,0,0,0],"split_type":[0,0,0,0,0,0,0],"sum_hessian":[1.8393E4,8.037E3,1.0356E4,3.655E3,4.382E3,4.544E3,5.812E3],"tree_param":{"num_deleted":"0","num_feature":"21","num_nodes":"7","size_leaf_vector":"1"}},{"base_weights":[1.5120828E-2,4.2886356E1,-4.2034786E1,5.1993835E-1,1.5929411E-1,-5.340509E-1,-1.1246814E-1],"categories":[],"categories_nodes":[],"categories_segments":[],"categories_sizes":[],"default_left":[0,0,0,0,0,0,0],"id":13,"left_children":[1,3,5,-1,-1,-1,-1],"loss_changes":[3.3178692E7,4.816255E6,6.706311E6,0E0,0E0,0E0,0E0],"parents":[2147483647,0,0,1,1,2,2],"right_children":[2,4,6,-1,-1,-1,-1],"split_conditions":[1.03E2,5.1E1,1.0933306E1,5.1993835E-1,1.5929411E-1,-5.340509E-1,-1.1246814E-1],"split_indices":[0,0,13,0,0,0,0],"split_type":[0,0,0,0,0,0,0],"sum_hessian":[1.8404E4,9.113E3,9.291E3,4.473E3,4.64E3,4.786E3,4.505E3],"tree_param":{"num_deleted":"0","num_feature":"21","num_nodes":"7","size_leaf_vector":"1"}},{"base_weights":[-1.9482464E-1,4.528117E1,-3.8910435E1,5.256589E-1,1.8022634E-1,-5.411278E-1,-1.11474276E-1],"categories":[],"categories_nodes":[],"categories_segments":[],"categories_sizes":[],"default_left":[0,0,0,0,0,0,0],"id":14,"left_children":[1,3,5,-1,-1,-1,-1],"loss_changes":[3.2319332E7,4.093304E6,7.368044E6,0E0,0E0,0E0,0E0],"parents":[2147483647,0,0,1,1,2,2],"right_children":[2,4,6,-1,-1,-1,-1],"split_conditions":[9.6E1,4.9E1,1.0925158E1,5.256589E-1,1.8022634E-1,-5.411278E-1,-1.11474276E-1],"split_indices":[0,0,13,0,0,0,0],"split_type":[0,0,0,0,0,0,0],"sum_hessian":[1.8356E4,8.441E3,9.915E3,4.273E3,4.168E3,4.469E3,5.446E3],"tree_param":{"num_deleted":"0","num_feature":"21","num_nodes":"7","size_leaf_vector":"1"}},{"base_weights":[1.692551E-1,4.51097E1,-3.8439583E1,5.1956505E-1,1.8357997E-1,-5.201377E-1,-9.4865724E-2],"categories":[],"categories_nodes":[],"categories_segments":[],"categories_sizes":[],"default_left":[0,0,0,0,0,0,0],"id":15,"left_children":[1,3,5,-1,-1,-1,-1],"loss_changes":[3.1916574E7,3.899452E6,7.267961E6,0E0,0E0,0E0,0E0],"parents":[2147483647,0,0,1,1,2,2],"right_children":[2,4,6,-1,-1,-1,-1],"split_conditions":[9.6E1,4.9E1,1.0932285E1,5.1956505E-1,1.8357997E-1,-5.201377E-1,-9.4865724E-2],"split_indices":[0,0,13,0,0,0,0],"split_type":[0,0,0,0,0,0,0],"sum_hessian":[1.8394E4,8.5E3,9.894E3,4.305E3,4.195E3,4.806E3,5.088E3],"tree_param":{"num_deleted":"0","num_feature":"21","num_nodes":"7","size_leaf_vector":"1"}},{"base_weights":[-1.3361898E-1,4.2332916E1,-4.0665623E1,4.9515426E-1,1.4222406E-1,-5.23939E-1,-1.0850596E-1],"categories":[],"categories_nodes":[],"categories_segments":[],"categories_sizes":[],"default_left":[0,0,0,0,0,0,0],"id":16,"left_children":[1,3,5,-1,-1,-1,-1],"loss_changes":[3.1606828E7,4.514309E6,6.589939E6,0E0,0E0,0E0,0E0],"parents":[2147483647,0,0,1,1,2,2],"right_children":[2,4,6,-1,-1,-1,-1],"split_conditions":[1.02E2,5.5E1,1.0932285E1,4.9515426E-1,1.4222406E-1,-5.23939E-1,-1.0850596E-1],"split_indices":[0,0,13,0,0,0,0],"split_type":[0,0,0,0,0,0,0],"sum_hessian":[1.8362E4,8.967E3,9.395E3,4.821E3,4.146E3,4.758E3,4.637E3],"tree_param":{"num_deleted":"0","num_feature":"21","num_nodes":"7","size_leaf_vector":"1"}},{"base_weights":[-1.4518872E-2,4.479136E1,-3.8082134E1,5.241377E-1,1.9459704E-1,-5.219745E-1,-1.0655918E-1],"categories":[],"categories_nodes":[],"categories_segments":[],"categories_sizes":[],"default_left":[0,0,0,0,0,0,0],"id":17,"left_children":[1,3,5,-1,-1,-1,-1],"loss_changes":[3.127771E7,3.708892E6,6.91524E6,0E0,0E0,0E0,0E0],"parents":[2147483647,0,0,1,1,2,2],"right_children":[2,4,6,-1,-1,-1,-1],"split_conditions":[9.6E1,4.6E1,3.1000197E0,5.241377E-1,1.9459704E-1,-5.219745E-1,-1.0655918E-1],"split_indices":[0,0,18,0,0,0,0],"split_type":[0,0,0,0,0,0,0],"sum_hessian":[1.8337E4,8.423E3,9.914E3,4.004E3,4.419E3,4.584E3,5.33E3],"tree_param":{"num_deleted":"0","num_feature":"21","num_nodes":"7","size_leaf_vector":"1"}},{"base_weights":[-7.543357E-2,4.7164665E1,-3.5183037E1,5.9025407E-1,2.5593245E-1,-4.6576294E-1,-3.7653398E-2],"categories":[],"categories_nodes":[],"categories_segments":[],"categories_sizes":[],"default_left":[0,0,0,0,0,0,0],"id":18,"left_children":[1,3,5,-1,-1,-1,-1],"loss_changes":[3.0562056E7,3.206896E6,7.775093E6,0E0,0E0,0E0,0E0],"parents":[2147483647,0,0,1,1,2,2],"right_children":[2,4,6,-1,-1,-1,-1],"split_conditions":[8.9E1,8.4002554E-2,1.0949591E1,5.9025407E-1,2.5593245E-1,-4.6576294E-1,-3.7653398E-2],"split_indices":[0,19,13,0,0,0,0],"split_type":[0,0,0,0,0,0,0],"sum_hessian":[1.8427E4,7.856E3,1.0571E4,2.677E3,5.179E3,5.883E3,4.688E3],"tree_param":{"num_deleted":"0","num_feature":"21","num_nodes":"7","size_leaf_vector":"1"}},{"base_weights":[1.1442078E-1,4.846366E1,-3.3891308E1,5.428789E-1,2.4315205E-1,-5.1279503E-1,-8.138576E-2],"categories":[],"categories_nodes":[],"categories_segments":[],"categories_sizes":[],"default_left":[0,0,0,0,0,0,0],"id":19,"left_children":[1,3,5,-1,-1,-1,-1],"loss_changes":[3.0227188E7,2.75079E6,7.993488E6,0E0,0E0,0E0,0E0],"parents":[2147483647,0,0,1,1,2,2],"right_children":[2,4,6,-1,-1,-1,-1],"split_conditions":[8.6E1,4E1,1.0926043E1,5.428789E-1,2.4315205E-1,-5.1279503E-1,-8.138576E-2],"split_indices":[0,0,13,0,0,0,0],"split_type":[0,0,0,0,0,0,0],"sum_hessian":[1.8384E4,7.591E3,1.0793E4,3.467E3,4.124E3,4.613E3,6.18E3],"tree_param":{"num_deleted":"0","num_feature":"21","num_nodes":"7","size_leaf_vector":"1"}},{"base_weights":[-1.3509743E-1,2.8090458E1,-5.2756023E1,3.4655854E-1,6.093954E-2,-5.957119E-1,-2.6419026E-1],"categories":[],"categories_nodes":[],"categories_segments":[],"categories_sizes":[],"default_left":[0,0,0,0,0,0,0],"id":20,"left_children":[1,3,5,-1,-1,-1,-1],"loss_changes":[2.7253952E7,3.907329E6,2.833856E6,0E0,0E0,0E0,0E0],"parents":[2147483647,0,0,1,1,2,2],"right_children":[2,4,6,-1,-1,-1,-1],"split_conditions":[1.409361E3,1.404321E3,3.084399E0,3.4655854E-1,6.093954E-2,-5.957119E-1,-2.6419026E-1],"split_indices":[15,15,18,0,0,0,0],"split_type":[0,0,0,0,0,0,0],"sum_hessian":[1.8349E4,1.1943E4,6.406E3,6.663E3,5.28E3,2.889E3,3.517E3],"tree_param":{"num_deleted":"0","num_feature":"21","num_nodes":"7","size_leaf_vector":"1"}},{"base_weights":[1.7487162E-1,4.5655083E1,-3.515442E1,5.8295405E-1,2.4275057E-1,-4.9395114E-1,-8.1339814E-2],"categories":[],"categories_nodes":[],"categories_segments":[],"categories_sizes":[],"default_left":[0,0,0,0,0,0,0],"id":21,"left_children":[1,3,5,-1,-1,-1,-1],"loss_changes":[2.9483962E7,3.381595E6,7.122889E6,0E0,0E0,0E0,0E0],"parents":[2147483647,0,0,1,1,2,2],"right_children":[2,4,6,-1,-1,-1,-1],"split_conditions":[9.1E1,8.4002554E-2,1.0932285E1,5.8295405E-1,2.4275057E-1,-4.9395114E-1,-8.1339814E-2],"split_indices":[0,19,13,0,0,0,0],"split_type":[0,0,0,0,0,0,0],"sum_hessian":[1.8349E4,8.022E3,1.0327E4,2.718E3,5.304E3,4.864E3,5.463E3],"tree_param":{"num_deleted":"0","num_feature":"21","num_nodes":"7","size_leaf_vector":"1"}},{"base_weights":[-2.0788756E-1,4.3027527E1,-3.6270737E1,5.5834955E-1,2.2347902E-1,-4.5820367E-1,-5.0806616E-2],"categories":[],"categories_nodes":[],"categories_segments":[],"categories_sizes":[],"default_left":[0,0,0,0,0,0,0],"id":22,"left_children":[1,3,5,-1,-1,-1,-1],"loss_changes":[2.8649654E7,3.41982E6,6.613012E6,0E0,0E0,0E0,0E0],"parents":[2147483647,0,0,1,1,2,2],"right_children":[2,4,6,-1,-1,-1,-1],"split_conditions":[9.5E1,8.4002554E-2,1.0949591E1,5.5834955E-1,2.2347902E-1,-4.5820367E-1,-5.0806616E-2],"split_indices":[0,19,13,0,0,0,0],"split_type":[0,0,0,0,0,0,0],"sum_hessian":[1.8374E4,8.356E3,1.0018E4,2.843E3,5.513E3,5.745E3,4.273E3],"tree_param":{"num_deleted":"0","num_feature":"21","num_nodes":"7","size_leaf_vector":"1"}},{"base_weights":[1.4044501E-1,2.7821007E1,-5.0970787E1,3.41421E-1,6.070204E-2,-5.775797E-1,-2.3428039E-1],"categories":[],"categories_nodes":[],"categories_segments":[],"categories_sizes":[],"default_left":[0,0,0,0,0,0,0],"id":23,"left_children":[1,3,5,-1,-1,-1,-1],"loss_changes":[2.5976454E7,3.758435E6,3.085419E6,0E0,0E0,0E0,0E0],"parents":[2147483647,0,0,1,1,2,2],"right_children":[2,4,6,-1,-1,-1,-1],"split_conditions":[1.409262E3,1.404321E3,1.0897324E1,3.41421E-1,6.070204E-2,-5.775797E-1,-2.3428039E-1],"split_indices":[15,15,13,0,0,0,0],"split_type":[0,0,0,0,0,0,0],"sum_hessian":[1.836E4,1.191E4,6.45E3,6.681E3,5.229E3,3.108E3,3.342E3],"tree_param":{"num_deleted":"0","num_feature":"21","num_nodes":"7","size_leaf_vector":"1"}},{"base_weights":[-1.6240109E-2,4.146223E1,-3.695444E1,4.6962458E-1,1.3424964E-1,-5.2583134E-1,-1.2423893E-1],"categories":[],"categories_nodes":[],"categories_segments":[],"categories_sizes":[],"default_left":[0,0,0,0,0,0,0],"id":24,"left_children":[1,3,5,-1,-1,-1,-1],"loss_changes":[2.8155644E7,3.881581E6,6.176012E6,0E0,0E0,0E0,0E0],"parents":[2147483647,0,0,1,1,2,2],"right_children":[2,4,6,-1,-1,-1,-1],"split_conditions":[9.8E1,5.6E1,1.0915968E1,4.6962458E-1,1.3424964E-1,-5.2583134E-1,-1.2423893E-1],"split_indices":[0,0,13,0,0,0,0],"split_type":[0,0,0,0,0,0,0],"sum_hessian":[1.8376E4,8.656E3,9.72E3,4.927E3,3.729E3,4.007E3,5.713E3],"tree_param":{"num_deleted":"0","num_feature":"21","num_nodes":"7","size_leaf_vector":"1"}},{"base_weights":[2.2208898E-1,4.556453E1,-3.351588E1,5.1478845E-1,2.1301183E-1,-5.076499E-1,-9.8473206E-2],"categories":[],"categories_nodes":[],"categories_segments":[],"categories_sizes":[],"default_left":[0,0,0,0,0,0,0],"id":25,"left_children":[1,3,5,-1,-1,-1,-1],"loss_changes":[2.8084404E7,2.893385E6,6.886879E6,0E0,0E0,0E0,0E0],"parents":[2147483647,0,0,1,1,2,2],"right_children":[2,4,6,-1,-1,-1,-1],"split_conditions":[8.9E1,4.3E1,3.0967221E0,5.1478845E-1,2.1301183E-1,-5.076499E-1,-9.8473206E-2],"split_indices":[0,0,18,0,0,0,0],"split_type":[0,0,0,0,0,0,0],"sum_hessian":[1.8358E4,7.832E3,1.0526E4,3.745E3,4.087E3,4.228E3,6.298E3],"tree_param":{"num_deleted":"0","num_feature":"21","num_nodes":"7","size_leaf_vector":"1"}},{"base_weights":[3.886309E-2,4.3095104E1,-3.452459E1,5.6191236E-1,2.235616E-1,-4.9548885E-1,-9.62466E-2],"categories":[],"categories_nodes":[],"categories_segments":[],"categories_sizes":[],"default_left":[0,0,0,0,0,0,0],"id":26,"left_children":[1,3,5,-1,-1,-1,-1],"loss_changes":[2.7365522E7,3.410401E6,6.504279E6,0E0,0E0,0E0,0E0],"parents":[2147483647,0,0,1,1,2,2],"right_children":[2,4,6,-1,-1,-1,-1],"split_conditions":[9.3E1,8.4002554E-2,1.0924011E1,5.6191236E-1,2.235616E-1,-4.9548885E-1,-9.62466E-2],"split_indices":[0,19,13,0,0,0,0],"split_type":[0,0,0,0,0,0,0],"sum_hessian":[1.8388E4,8.188E3,1.02E4,2.768E3,5.42E3,4.458E3,5.742E3],"tree_param":{"num_deleted":"0","num_feature":"21","num_nodes":"7","size_leaf_vector":"1"}},{"base_weights":[8.306724E-2,3.9548534E1,-3.715085E1,5.050742E-1,1.6975129E-1,-1.1938999E-1,-5.053364E-1],"categories":[],"categories_nodes":[],"categories_segments":[],"categories_sizes":[],"default_left":[0,0,0,0,0,0,0],"id":27,"left_children":[1,3,5,-1,-1,-1,-1],"loss_changes":[2.7071272E7,3.979197E6,5.671318E6,0E0,0E0,0E0,0E0],"parents":[2147483647,0,0,1,1,2,2],"right_children":[2,4,6,-1,-1,-1,-1],"split_conditions":[1.01E2,4.3E1,1.41455E3,5.050742E-1,1.6975129E-1,-1.1938999E-1,-5.053364E-1],"split_indices":[0,0,5,0,0,0,0],"split_type":[0,0,0,0,0,0,0],"sum_hessian":[1.8422E4,8.943E3,9.479E3,3.744E3,5.199E3,5.256E3,4.223E3],"tree_param":{"num_deleted":"0","num_feature":"21","num_nodes":"7","size_leaf_vector":"1"}},{"base_weights":[4.4416297E-2,4.5480816E1,-3.1767385E1,5.7731277E-1,2.4258909E-1,-8.565116E-2,-4.9122643E-1],"categories":[],"categories_nodes":[],"categories_segments":[],"categories_sizes":[],"default_left":[0,0,0,0,0,0,0],"id":28,"left_children":[1,3,5,-1,-1,-1,-1],"loss_changes":[2.646217E7,3.084948E6,6.9295E6,0E0,0E0,0E0,0E0],"parents":[2147483647,0,0,1,1,2,2],"right_children":[2,4,6,-1,-1,-1,-1],"split_conditions":[8.6E1,8.4002554E-2,1.41455E3,5.7731277E-1,2.4258909E-1,-8.565116E-2,-4.9122643E-1],"split_indices":[0,19,5,0,0,0,0],"split_type":[0,0,0,0,0,0,0],"sum_hessian":[1.8307E4,7.539E3,1.0768E4,2.569E3,4.97E3,6.428E3,4.34E3],"tree_param":{"num_deleted":"0","num_feature":"21","num_nodes":"7","size_leaf_vector":"1"}},{"base_weights":[7.729318E-3,4.3578953E1,-3.293243E1,4.9642137E-1,2.0220436E-1,-9.587774E-2,-4.90827E-1],"categories":[],"categories_nodes":[],"categories_segments":[],"categories_sizes":[],"default_left":[0,0,0,0,0,0,0],"id":29,"left_children":[1,3,5,-1,-1,-1,-1],"loss_changes":[2.6360648E7,2.774537E6,6.422387E6,0E0,0E0,0E0,0E0],"parents":[2147483647,0,0,1,1,2,2],"right_children":[2,4,6,-1,-1,-1,-1],"split_conditions":[9E1,4.3E1,1.41455E3,4.9642137E-1,2.0220436E-1,-9.587774E-2,-4.90827E-1],"split_indices":[0,0,5,0,0,0,0],"split_type":[0,0,0,0,0,0,0],"sum_hessian":[1.8366E4,7.907E3,1.0459E4,3.75E3,4.157E3,6.159E3,4.3E3],"tree_param":{"num_deleted":"0","num_feature":"21","num_nodes":"7","size_leaf_vector":"1"}},{"base_weights":[-1.3741087E-2,3.8051296E1,-3.733607E1,4.614327E-1,1.291855E-1,-4.4451705E-1,-6.2895656E-2],"categories":[],"categories_nodes":[],"categories_segments":[],"categories_sizes":[],"default_left":[0,0,0,0,0,0,0],"id":30,"left_children":[1,3,5,-1,-1,-1,-1],"loss_changes":[2.6100196E7,4.079577E6,5.260988E6,0E0,0E0,0E0,0E0],"parents":[2147483647,0,0,1,1,2,2],"right_children":[2,4,6,-1,-1,-1,-1],"split_conditions":[1.03E2,5.3E1,1.0949591E1,4.614327E-1,1.291855E-1,-4.4451705E-1,-6.2895656E-2],"split_indices":[0,0,13,0,0,0,0],"split_type":[0,0,0,0,0,0,0],"sum_hessian":[1.8371E4,9.095E3,9.276E3,4.632E3,4.463E3,5.588E3,3.688E3],"tree_param":{"num_deleted":"0","num_feature":"21","num_nodes":"7","size_leaf_vector":"1"}},{"base_weights":[-3.163096E-2,4.226468E1,-3.280762E1,4.968081E-1,1.9900829E-1,-4.9818313E-1,-1.0161361E-1],"categories":[],"categories_nodes":[],"categories_segments":[],"categories_sizes":[],"default_left":[0,0,0,0,0,0,0],"id":31,"left_children":[1,3,5,-1,-1,-1,-1],"loss_changes":[2.5514466E7,2.860819E6,6.322577E6,0E0,0E0,0E0,0E0],"parents":[2147483647,0,0,1,1,2,2],"right_children":[2,4,6,-1,-1,-1,-1],"split_conditions":[9.1E1,4.1E1,1.0915968E1,4.968081E-1,1.9900829E-1,-4.9818313E-1,-1.0161361E-1],"split_indices":[0,0,13,0,0,0,0],"split_type":[0,0,0,0,0,0,0],"sum_hessian":[1.8404E4,8.035E3,1.0369E4,3.573E3,4.462E3,4.07E3,6.299E3],"tree_param":{"num_deleted":"0","num_feature":"21","num_nodes":"7","size_leaf_vector":"1"}},{"base_weights":[2.6457408E-1,3.7549038E1,-3.625432E1,4.6030164E-1,1.349657E-1,-4.6447098E-1,-9.276972E-2],"categories":[],"categories_nodes":[],"categories_segments":[],"categories_sizes":[],"default_left":[0,0,0,0,0,0,0],"id":32,"left_children":[1,3,5,-1,-1,-1,-1],"loss_changes":[2.4939754E7,3.897708E6,5.191811E6,0E0,0E0,0E0,0E0],"parents":[2147483647,0,0,1,1,2,2],"right_children":[2,4,6,-1,-1,-1,-1],"split_conditions":[1.03E2,5.1E1,1.0933306E1,4.6030164E-1,1.349657E-1,-4.6447098E-1,-9.276972E-2],"split_indices":[0,0,13,0,0,0,0],"split_type":[0,0,0,0,0,0,0],"sum_hessian":[1.8316E4,9.063E3,9.253E3,4.443E3,4.62E3,4.768E3,4.485E3],"tree_param":{"num_deleted":"0","num_feature":"21","num_nodes":"7","size_leaf_vector":"1"}},{"base_weights":[-9.896338E-2,2.5745846E1,-4.7624866E1,3.7572464E-1,1.00664675E-1,-5.5886227E-1,-2.3140799E-1],"categories":[],"categories_nodes":[],"categories_segments":[],"categories_sizes":[],"default_left":[0,0,0,0,0,0,0],"id":33,"left_children":[1,3,5,-1,-1,-1,-1],"loss_changes":[2.2603972E7,3.4106245E6,2.77536E6,0E0,0E0,0E0,0E0],"parents":[2147483647,0,0,1,1,2,2],"right_children":[2,4,6,-1,-1,-1,-1],"split_conditions":[1.409262E3,8.353392E-2,1.0888099E1,3.7572464E-1,1.00664675E-1,-5.5886227E-1,-2.3140799E-1],"split_indices":[15,19,13,0,0,0,0],"split_type":[0,0,0,0,0,0,0],"sum_hessian":[1.8402E4,1.192E4,6.482E3,4.387E3,7.533E3,2.812E3,3.67E3],"tree_param":{"num_deleted":"0","num_feature":"21","num_nodes":"7","size_leaf_vector":"1"}},{"base_weights":[3.648899E-2,3.608563E1,-3.6690983E1,4.3797696E-1,1.1013962E-1,-1.2204334E-1,-4.829179E-1],"categories":[],"categories_nodes":[],"categories_segments":[],"categories_sizes":[],"default_left":[0,0,0,0,0,0,0],"id":34,"left_children":[1,3,5,-1,-1,-1,-1],"loss_changes":[2.4289564E7,4.032637E6,4.778273E6,0E0,0E0,0E0,0E0],"parents":[2147483647,0,0,1,1,2,2],"right_children":[2,4,6,-1,-1,-1,-1],"split_conditions":[1.05E2,5.6E1,1.41455E3,4.3797696E-1,1.1013962E-1,-1.2204334E-1,-4.829179E-1],"split_indices":[0,0,5,0,0,0,0],"split_type":[0,0,0,0,0,0,0],"sum_hessian":[1.8345E4,9.258E3,9.087E3,4.881E3,4.377E3,4.915E3,4.172E3],"tree_param":{"num_deleted":"0","num_feature":"21","num_nodes":"7","size_leaf_vector":"1"}},{"base_weights":[1.0408938E-1,4.395453E1,-3.021168E1,5.629897E-1,2.3150846E-1,-4.1170534E-1,-2.7664127E-2],"categories":[],"categories_nodes":[],"categories_segments":[],"categories_sizes":[],"default_left":[0,0,0,0,0,0,0],"id":35,"left_children":[1,3,5,-1,-1,-1,-1],"loss_changes":[2.454886E7,3.031918E6,6.493109E6,0E0,0E0,0E0,0E0],"parents":[2147483647,0,0,1,1,2,2],"right_children":[2,4,6,-1,-1,-1,-1],"split_conditions":[8.5E1,8.4002554E-2,1.0949591E1,5.629897E-1,2.3150846E-1,-4.1170534E-1,-2.7664127E-2],"split_indices":[0,19,13,0,0,0,0],"split_type":[0,0,0,0,0,0,0],"sum_hessian":[1.8466E4,7.548E3,1.0918E4,2.577E3,4.971E3,5.949E3,4.969E3],"tree_param":{"num_deleted":"0","num_feature":"21","num_nodes":"7","size_leaf_vector":"1"}},{"base_weights":[1.7965885E-1,3.802483E1,-3.414542E1,4.8159307E-1,1.65977E-1,-1.0017083E-1,-4.636001E-1],"categories":[],"categories_nodes":[],"categories_segments":[],"categories_sizes":[],"default_left":[0,0,0,0,0,0,0],"id":36,"left_children":[1,3,5,-1,-1,-1,-1],"loss_changes":[2.3943458E7,3.455984E6,5.157857E6,0E0,0E0,0E0,0E0],"parents":[2147483647,0,0,1,1,2,2],"right_children":[2,4,6,-1,-1,-1,-1],"split_conditions":[9.9E1,4.2E1,1.41406E3,4.8159307E-1,1.65977E-1,-1.0017083E-1,-4.636001E-1],"split_indices":[0,0,5,0,0,0,0],"split_type":[0,0,0,0,0,0,0],"sum_hessian":[1.8431E4,8.766E3,9.665E3,3.672E3,5.094E3,5.208E3,4.457E3],"tree_param":{"num_deleted":"0","num_feature":"21","num_nodes":"7","size_leaf_vector":"1"}},{"base_weights":[1.7911813E-1,4.386827E1,-2.8891975E1,5.05677E-1,2.2996618E-1,-3.895433E-1,-5.7400763E-3],"categories":[],"categories_nodes":[],"categories_segments":[],"categories_sizes":[],"default_left":[0,0,0,0,0,0,0],"id":37,"left_children":[1,3,5,-1,-1,-1,-1],"loss_changes":[2.3333712E7,2.199974E6,6.455309E6,0E0,0E0,0E0,0E0],"parents":[2147483647,0,0,1,1,2,2],"right_children":[2,4,6,-1,-1,-1,-1],"split_conditions":[8.3E1,3.5E1,1.0956458E1,5.05677E-1,2.2996618E-1,-3.895433E-1,-5.7400763E-3],"split_indices":[0,0,13,0,0,0,0],"split_type":[0,0,0,0,0,0,0],"sum_hessian":[1.8371E4,7.34E3,1.1031E4,3.036E3,4.304E3,6.347E3,4.684E3],"tree_param":{"num_deleted":"0","num_feature":"21","num_nodes":"7","size_leaf_vector":"1"}},{"base_weights":[-2.532947E-2,4.1724422E1,-2.9893179E1,5.431159E-1,2.1646143E-1,-4.8074925E-1,-9.46E-2],"categories":[],"categories_nodes":[],"categories_segments":[],"categories_sizes":[],"default_left":[0,0,0,0,0,0,0],"id":38,"left_children":[1,3,5,-1,-1,-1,-1],"loss_changes":[2.2916508E7,2.979248E6,5.999631E6,0E0,0E0,0E0,0E0],"parents":[2147483647,0,0,1,1,2,2],"right_children":[2,4,6,-1,-1,-1,-1],"split_conditions":[8.7E1,8.4002554E-2,1.0912061E1,5.431159E-1,2.1646143E-1,-4.8074925E-1,-9.46E-2],"split_indices":[0,19,13,0,0,0,0],"split_type":[0,0,0,0,0,0,0],"sum_hessian":[1.8377E4,7.664E3,1.0713E4,2.598E3,5.066E3,3.879E3,6.834E3],"tree_param":{"num_deleted":"0","num_feature":"21","num_nodes":"7","size_leaf_vector":"1"}},{"base_weights":[-2.176953E-2,4.236431E1,-2.900846E1,5.4886395E-1,2.225918E-1,-3.850639E-1,-6.8095466E-4],"categories":[],"categories_nodes":[],"categories_segments":[],"categories_sizes":[],"default_left":[0,0,0,0,0,0,0],"id":39,"left_children":[1,3,5,-1,-1,-1,-1],"loss_changes":[2.253886E7,2.87662E6,6.330894E6,0E0,0E0,0E0,0E0],"parents":[2147483647,0,0,1,1,2,2],"right_children":[2,4,6,-1,-1,-1,-1],"split_conditions":[8.5E1,8.4002554E-2,1.0957773E1,5.4886395E-1,2.225918E-1,-3.850639E-1,-6.8095466E-4],"split_indices":[0,19,13,0,0,0,0],"split_type":[0,0,0,0,0,0,0],"sum_hessian":[1.8344E4,7.45E3,1.0894E4,2.503E3,4.947E3,6.428E3,4.466E3],"tree_param":{"num_deleted":"0","num_feature":"21","num_nodes":"7","size_leaf_vector":"1"}},{"base_weights":[-1.0346191E-1,4.253155E1,-2.8235106E1,5.425643E-1,2.2662607E-1,-4.4486666E-1,-6.5053985E-2],"categories":[],"categories_nodes":[],"categories_segments":[],"categories_sizes":[],"default_left":[0,0,0,0,0,0,0],"id":40,"left_children":[1,3,5,-1,-1,-1,-1],"loss_changes":[2.2080434E7,2.658618E6,6.301073E6,0E0,0E0,0E0,0E0],"parents":[2147483647,0,0,1,1,2,2],"right_children":[2,4,6,-1,-1,-1,-1],"split_conditions":[8.3E1,8.4002554E-2,1.0925158E1,5.425643E-1,2.2662607E-1,-4.4486666E-1,-6.5053985E-2],"split_indices":[0,19,13,0,0,0,0],"split_type":[0,0,0,0,0,0,0],"sum_hessian":[1.8409E4,7.318E3,1.1091E4,2.476E3,4.842E3,4.566E3,6.525E3],"tree_param":{"num_deleted":"0","num_feature":"21","num_nodes":"7","size_leaf_vector":"1"}},{"base_weights":[1.3467827E-1,3.4503677E1,-3.512707E1,4.2140463E-1,1.0050314E-1,-1.2305497E-1,-4.6740314E-1],"categories":[],"categories_nodes":[],"categories_segments":[],"categories_sizes":[],"default_left":[0,0,0,0,0,0,0],"id":41,"left_children":[1,3,5,-1,-1,-1,-1],"loss_changes":[2.2307254E7,3.887655E6,4.321251E6,0E0,0E0,0E0,0E0],"parents":[2147483647,0,0,1,1,2,2],"right_children":[2,4,6,-1,-1,-1,-1],"split_conditions":[1.05E2,5.6E1,7.7205E2,4.2140463E-1,1.0050314E-1,-1.2305497E-1,-4.6740314E-1],"split_indices":[0,0,11,0,0,0,0],"split_type":[0,0,0,0,0,0,0],"sum_hessian":[1.8406E4,9.321E3,9.085E3,4.94E3,4.381E3,5.064E3,4.021E3],"tree_param":{"num_deleted":"0","num_feature":"21","num_nodes":"7","size_leaf_vector":"1"}},{"base_weights":[9.0316184E-2,2.4262697E1,-4.5146618E1,3.6379167E-1,8.9241825E-2,-5.254869E-1,-2.2014205E-1],"categories":[],"categories_nodes":[],"categories_segments":[],"categories_sizes":[],"default_left":[0,0,0,0,0,0,0],"id":42,"left_children":[1,3,5,-1,-1,-1,-1],"loss_changes":[2.0058522E7,3.407703E6,2.383972E6,0E0,0E0,0E0,0E0],"parents":[2147483647,0,0,1,1,2,2],"right_children":[2,4,6,-1,-1,-1,-1],"split_conditions":[1.409361E3,8.353392E-2,1.0888099E1,3.6379167E-1,8.9241825E-2,-5.254869E-1,-2.2014205E-1],"split_indices":[15,19,13,0,0,0,0],"split_type":[0,0,0,0,0,0,0],"sum_hessian":[1.8343E4,1.1955E4,6.388E3,4.399E3,7.556E3,2.801E3,3.587E3],"tree_param":{"num_deleted":"0","num_feature":"21","num_nodes":"7","size_leaf_vector":"1"}},{"base_weights":[-6.993662E-2,4.171656E1,-2.8126802E1,4.9930695E-1,2.2419277E-1,-3.6508316E-1,4.146991E-3],"categories":[],"categories_nodes":[],"categories_segments":[],"categories_sizes":[],"default_left":[0,0,0,0,0,0,0],"id":43,"left_children":[1,3,5,-1,-1,-1,-1],"loss_changes":[2.1560022E7,2.128449E6,5.809558E6,0E0,0E0,0E0,0E0],"parents":[2147483647,0,0,1,1,2,2],"right_children":[2,4,6,-1,-1,-1,-1],"split_conditions":[8.4E1,3.2E1,1.0962193E1,4.9930695E-1,2.2419277E-1,-3.6508316E-1,4.146991E-3],"split_indices":[0,0,13,0,0,0,0],"split_type":[0,0,0,0,0,0,0],"sum_hessian":[1.8389E4,7.387E3,1.1002E4,2.764E3,4.623E3,6.696E3,4.306E3],"tree_param":{"num_deleted":"0","num_feature":"21","num_nodes":"7","size_leaf_vector":"1"}},{"base_weights":[4.0738266E-2,2.5571001E1,-4.185022E1,2.995812E-1,6.0940716E-2,-5.211112E-1,-2.0113616E-1],"categories":[],"categories_nodes":[],"categories_segments":[],"categories_sizes":[],"default_left":[0,0,0,0,0,0,0],"id":44,"left_children":[1,3,5,-1,-1,-1,-1],"loss_changes":[1.9669662E7,2.568946E6,2.775151E6,0E0,0E0,0E0,0E0],"parents":[2147483647,0,0,1,1,2,2],"right_children":[2,4,6,-1,-1,-1,-1],"split_conditions":[1.408636E3,1.404321E3,1.0886406E1,2.995812E-1,6.0940716E-2,-5.211112E-1,-2.0113616E-1],"split_indices":[15,15,13,0,0,0,0],"split_type":[0,0,0,0,0,0,0],"sum_hessian":[1.8391E4,1.1427E4,6.964E3,6.684E3,4.743E3,2.765E3,4.199E3],"tree_param":{"num_deleted":"0","num_feature":"21","num_nodes":"7","size_leaf_vector":"1"}},{"base_weights":[9.625792E-3,3.56521E1,-3.1481552E1,4.4900212E-1,1.5014267E-1,-4.4562498E-1,-9.787496E-2],"categories":[],"categories_nodes":[],"categories_segments":[],"categories_sizes":[],"default_left":[0,0,0,0,0,0,0],"id":45,"left_children":[1,3,5,-1,-1,-1,-1],"loss_changes":[2.067468E7,3.080611E6,4.708781E6,0E0,0E0,0E0,0E0],"parents":[2147483647,0,0,1,1,2,2],"right_children":[2,4,6,-1,-1,-1,-1],"split_conditions":[9.8E1,4.3E1,3.0967221E0,4.4900212E-1,1.5014267E-1,-4.4562498E-1,-9.787496E-2],"split_indices":[0,0,18,0,0,0,0],"split_type":[0,0,0,0,0,0,0],"sum_hessian":[1.8419E4,8.64E3,9.779E3,3.742E3,4.898E3,4.19E3,5.589E3],"tree_param":{"num_deleted":"0","num_feature":"21","num_nodes":"7","size_leaf_vector":"1"}},{"base_weights":[1.1998595E-2,2.5287502E1,-4.1201828E1,3.778258E-1,9.465242E-2,-1.9295165E-1,-4.9478018E-1],"categories":[],"categories_nodes":[],"categories_segments":[],"categories_sizes":[],"default_left":[0,0,0,0,0,0,0],"id":46,"left_children":[1,3,5,-1,-1,-1,-1],"loss_changes":[1.9155488E7,3.4485855E6,2.539203E6,0E0,0E0,0E0,0E0],"parents":[2147483647,0,0,1,1,2,2],"right_children":[2,4,6,-1,-1,-1,-1],"split_conditions":[1.408636E3,8.353392E-2,4.781E1,3.778258E-1,9.465242E-2,-1.9295165E-1,-4.9478018E-1],"split_indices":[15,19,7,0,0,0,0],"split_type":[0,0,0,0,0,0,0],"sum_hessian":[1.8388E4,1.1398E4,6.99E3,4.172E3,7.226E3,3.976E3,3.014E3],"tree_param":{"num_deleted":"0","num_feature":"21","num_nodes":"7","size_leaf_vector":"1"}},{"base_weights":[-1.6066648E-1,-3.984225E1,2.5552988E1,-5.103074E-1,-1.8817428E-1,1.03048906E-1,3.3911097E-1],"categories":[],"categories_nodes":[],"categories_segments":[],"categories_sizes":[],"default_left":[0,0,0,0,0,0,0],"id":47,"left_children":[1,3,5,-1,-1,-1,-1],"loss_changes":[1.8817124E7,2.898672E6,2.456802E6,0E0,0E0,0E0,0E0],"parents":[2147483647,0,0,1,1,2,2],"right_children":[2,4,6,-1,-1,-1,-1],"split_conditions":[3.1134276E0,1.0886406E1,1.1022602E1,-5.103074E-1,-1.8817428E-1,1.03048906E-1,3.3911097E-1],"split_indices":[18,13,13,0,0,0,0],"split_type":[0,0,0,0,0,0,0],"sum_hessian":[1.8441E4,7.251E3,1.119E4,2.797E3,4.454E3,6.576E3,4.614E3],"tree_param":{"num_deleted":"0","num_feature":"21","num_nodes":"7","size_leaf_vector":"1"}},{"base_weights":[-1.6030753E-1,3.8470398E1,-2.8710745E1,5.110427E-1,1.9375749E-1,-8.0746435E-2,-4.3152353E-1],"categories":[],"categories_nodes":[],"categories_segments":[],"categories_sizes":[],"default_left":[0,0,0,0,0,0,0],"id":48,"left_children":[1,3,5,-1,-1,-1,-1],"loss_changes":[2.0236084E7,2.864314E6,5.112199E6,0E0,0E0,0E0,0E0],"parents":[2147483647,0,0,1,1,2,2],"right_children":[2,4,6,-1,-1,-1,-1],"split_conditions":[8.9E1,8.4002554E-2,1.41455E3,5.110427E-1,1.9375749E-1,-8.0746435E-2,-4.3152353E-1],"split_indices":[0,19,5,0,0,0,0],"split_type":[0,0,0,0,0,0,0],"sum_hessian":[1.8347E4,7.797E3,1.055E4,2.652E3,5.145E3,6.207E3,4.343E3],"tree_param":{"num_deleted":"0","num_feature":"21","num_nodes":"7","size_leaf_vector":"1"}},{"base_weights":[-2.1849796E-1,2.3069939E1,-4.2729736E1,3.501623E-1,8.188018E-2,-5.046146E-1,-2.106911E-1],"categories":[],"categories_nodes":[],"categories_segments":[],"categories_sizes":[],"default_left":[0,0,0,0,0,0,0],"id":49,"left_children":[1,3,5,-1,-1,-1,-1],"loss_changes":[1.8191302E7,3.2353155E6,2.229441E6,0E0,0E0,0E0,0E0],"parents":[2147483647,0,0,1,1,2,2],"right_children":[2,4,6,-1,-1,-1,-1],"split_conditions":[1.409262E3,8.353392E-2,1.0886406E1,3.501623E-1,8.188018E-2,-5.046146E-1,-2.106911E-1],"split_indices":[15,19,13,0,0,0,0],"split_type":[0,0,0,0,0,0,0],"sum_hessian":[1.8374E4,1.1871E4,6.503E3,4.382E3,7.489E3,2.752E3,3.751E3],"tree_param":{"num_deleted":"0","num_feature":"21","num_nodes":"7","size_leaf_vector":"1"}},{"base_weights":[-9.450819E-2,4.10965E1,-2.6557291E1,5.25045E-1,2.1580623E-1,-4.1184413E-1,-6.077797E-2],"categories":[],"categories_nodes":[],"categories_segments":[],"categories_sizes":[],"default_left":[0,0,0,0,0,0,0],"id":50,"left_children":[1,3,5,-1,-1,-1,-1],"loss_changes":[2.0043094E7,2.524253E6,5.46558E6,0E0,0E0,0E0,0E0],"parents":[2147483647,0,0,1,1,2,2],"right_children":[2,4,6,-1,-1,-1,-1],"split_conditions":[8.2E1,8.4002554E-2,3.1000197E0,5.25045E-1,2.1580623E-1,-4.1184413E-1,-6.077797E-2],"split_indices":[0,19,18,0,0,0,0],"split_type":[0,0,0,0,0,0,0],"sum_hessian":[1.8387E4,7.192E3,1.1195E4,2.476E3,4.716E3,4.703E3,6.492E3],"tree_param":{"num_deleted":"0","num_feature":"21","num_nodes":"7","size_leaf_vector":"1"}},{"base_weights":[-6.331669E-2,4.223971E1,-2.529974E1,5.3855324E-1,2.2627173E-1,-3.4303102E-1,1.2836793E-2],"categories":[],"categories_nodes":[],"categories_segments":[],"categories_sizes":[],"default_left":[0,0,0,0,0,0,0],"id":51,"left_children":[1,3,5,-1,-1,-1,-1],"loss_changes":[1.956941E7,2.423032E6,5.703493E6,0E0,0E0,0E0,0E0],"parents":[2147483647,0,0,1,1,2,2],"right_children":[2,4,6,-1,-1,-1,-1],"split_conditions":[7.8E1,8.4002554E-2,1.0962193E1,5.3855324E-1,2.2627173E-1,-3.4303102E-1,1.2836793E-2],"split_indices":[0,19,13,0,0,0,0],"split_type":[0,0,0,0,0,0,0],"sum_hessian":[1.833E4,6.849E3,1.1481E4,2.302E3,4.547E3,6.815E3,4.666E3],"tree_param":{"num_deleted":"0","num_feature":"21","num_nodes":"7","size_leaf_vector":"1"}},{"base_weights":[8.922341E-2,4.040172E1,-2.605945E1,5.2139676E-1,2.1163338E-1,-3.429182E-1,6.6745286E-3],"categories":[],"categories_nodes":[],"categories_segments":[],"categories_sizes":[],"default_left":[0,0,0,0,0,0,0],"id":52,"left_children":[1,3,5,-1,-1,-1,-1],"loss_changes":[1.947344E7,2.542764E6,5.3275655E6,0E0,0E0,0E0,0E0],"parents":[2147483647,0,0,1,1,2,2],"right_children":[2,4,6,-1,-1,-1,-1],"split_conditions":[8.2E1,8.4002554E-2,1.0962193E1,5.2139676E-1,2.1163338E-1,-3.429182E-1,6.6745286E-3],"split_indices":[0,19,13,0,0,0,0],"split_type":[0,0,0,0,0,0,0],"sum_hessian":[1.8473E4,7.268E3,1.1205E4,2.468E3,4.8E3,6.764E3,4.441E3],"tree_param":{"num_deleted":"0","num_feature":"21","num_nodes":"7","size_leaf_vector":"1"}},{"base_weights":[-9.096979E-2,2.2531002E1,-4.169627E1,3.420896E-1,8.00213E-2,-4.8756245E-1,-2.0159863E-1],"categories":[],"categories_nodes":[],"categories_segments":[],"categories_sizes":[],"default_left":[0,0,0,0,0,0,0],"id":53,"left_children":[1,3,5,-1,-1,-1,-1],"loss_changes":[1.7316724E7,3.098424E6,2.121024E6,0E0,0E0,0E0,0E0],"parents":[2147483647,0,0,1,1,2,2],"right_children":[2,4,6,-1,-1,-1,-1],"split_conditions":[1.409262E3,8.353392E-2,1.0888099E1,3.420896E-1,8.00213E-2,-4.8756245E-1,-2.0159863E-1],"split_indices":[15,19,13,0,0,0,0],"split_type":[0,0,0,0,0,0,0],"sum_hessian":[1.8398E4,1.1918E4,6.48E3,4.396E3,7.522E3,2.841E3,3.639E3],"tree_param":{"num_deleted":"0","num_feature":"21","num_nodes":"7","size_leaf_vector":"1"}},{"base_weights":[8.655685E-2,3.997939E1,-2.5919397E1,5.118329E-1,2.1096945E-1,-7.300345E-2,-4.1554955E-1],"categories":[],"categories_nodes":[],"categories_segments":[],"categories_sizes":[],"default_left":[0,0,0,0,0,0,0],"id":54,"left_children":[1,3,5,-1,-1,-1,-1],"loss_changes":[1.9091882E7,2.400998E6,5.0088685E6,0E0,0E0,0E0,0E0],"parents":[2147483647,0,0,1,1,2,2],"right_children":[2,4,6,-1,-1,-1,-1],"split_conditions":[8.2E1,8.4002554E-2,1.41483E3,5.118329E-1,2.1096945E-1,-7.300345E-2,-4.1554955E-1],"split_indices":[0,19,5,0,0,0,0],"split_type":[0,0,0,0,0,0,0],"sum_hessian":[1.8402E4,7.262E3,1.114E4,2.475E3,4.787E3,6.904E3,4.236E3],"tree_param":{"num_deleted":"0","num_feature":"21","num_nodes":"7","size_leaf_vector":"1"}},{"base_weights":[2.9830658E-3,3.9824352E1,-2.4928965E1,5.088697E-1,2.1120568E-1,-5.942346E-2,-4.0407377E-1],"categories":[],"categories_nodes":[],"categories_segments":[],"categories_sizes":[],"default_left":[0,0,0,0,0,0,0],"id":55,"left_children":[1,3,5,-1,-1,-1,-1],"loss_changes":[1.82468E7,2.286032E6,5.2157765E6,0E0,0E0,0E0,0E0],"parents":[2147483647,0,0,1,1,2,2],"right_children":[2,4,6,-1,-1,-1,-1],"split_conditions":[8E1,8.4002554E-2,1.412119E3,5.088697E-1,2.1120568E-1,-5.942346E-2,-4.0407377E-1],"split_indices":[0,19,15,0,0,0,0],"split_type":[0,0,0,0,0,0,0],"sum_hessian":[1.8378E4,7.076E3,1.1302E4,2.403E3,4.673E3,6.84E3,4.462E3],"tree_param":{"num_deleted":"0","num_feature":"21","num_nodes":"7","size_leaf_vector":"1"}},{"base_weights":[-1.880822E-1,2.190011E1,-4.092901E1,3.39447E-1,7.586737E-2,-4.8164755E-1,-2.0197396E-1],"categories":[],"categories_nodes":[],"categories_segments":[],"categories_sizes":[],"default_left":[0,0,0,0,0,0,0],"id":56,"left_children":[1,3,5,-1,-1,-1,-1],"loss_changes":[1.6528954E7,3.1137295E6,2.007002E6,0E0,0E0,0E0,0E0],"parents":[2147483647,0,0,1,1,2,2],"right_children":[2,4,6,-1,-1,-1,-1],"split_conditions":[1.409262E3,8.353392E-2,1.0886406E1,3.39447E-1,7.586737E-2,-4.8164755E-1,-2.0197396E-1],"split_indices":[15,19,13,0,0,0,0],"split_type":[0,0,0,0,0,0,0],"sum_hessian":[1.8367E4,1.191E4,6.457E3,4.332E3,7.578E3,2.747E3,3.71E3],"tree_param":{"num_deleted":"0","num_feature":"21","num_nodes":"7","size_leaf_vector":"1"}},{"base_weights":[4.1577686E-2,4.0156784E1,-2.4535728E1,5.305864E-1,2.263197E-1,-4.1286078E-1,-6.690491E-2],"categories":[],"categories_nodes":[],"categories_segments":[],"categories_sizes":[],"default_left":[0,0,0,0,0,0,0],"id":57,"left_children":[1,3,5,-1,-1,-1,-1],"loss_changes":[1.8115046E7,2.168083E6,5.1255255E6,0E0,0E0,0E0,0E0],"parents":[2147483647,0,0,1,1,2,2],"right_children":[2,4,6,-1,-1,-1,-1],"split_conditions":[7.9E1,8.1009865E-2,3.0955694E0,5.305864E-1,2.263197E-1,-4.1286078E-1,-6.690491E-2],"split_indices":[0,19,18,0,0,0,0],"split_type":[0,0,0,0,0,0,0],"sum_hessian":[1.8373E4,6.98E3,1.1393E4,2.032E3,4.948E3,4.133E3,7.26E3],"tree_param":{"num_deleted":"0","num_feature":"21","num_nodes":"7","size_leaf_vector":"1"}},{"base_weights":[2.373411E-1,3.1418457E1,-3.084545E1,3.9546043E-1,9.9241026E-2,-3.908025E-1,-8.665766E-2],"categories":[],"categories_nodes":[],"categories_segments":[],"categories_sizes":[],"default_left":[0,0,0,0,0,0,0],"id":58,"left_children":[1,3,5,-1,-1,-1,-1],"loss_changes":[1.7799942E7,3.269868E6,3.456775E6,0E0,0E0,0E0,0E0],"parents":[2147483647,0,0,1,1,2,2],"right_children":[2,4,6,-1,-1,-1,-1],"split_conditions":[1.04E2,5.2E1,5.5296E2,3.9546043E-1,9.9241026E-2,-3.908025E-1,-8.665766E-2],"split_indices":[0,0,6,0,0,0,0],"split_type":[0,0,0,0,0,0,0],"sum_hessian":[1.8365E4,9.168E3,9.197E3,4.554E3,4.614E3,4.694E3,4.503E3],"tree_param":{"num_deleted":"0","num_feature":"21","num_nodes":"7","size_leaf_vector":"1"}},{"base_weights":[6.512011E-2,4.011658E1,-2.3819052E1,5.339232E-1,2.253378E-1,-3.1992272E-1,2.1001345E-2],"categories":[],"categories_nodes":[],"categories_segments":[],"categories_sizes":[],"default_left":[0,0,0,0,0,0,0],"id":59,"left_children":[1,3,5,-1,-1,-1,-1],"loss_changes":[1.7621148E7,2.189885E6,5.1905405E6,0E0,0E0,0E0,0E0],"parents":[2147483647,0,0,1,1,2,2],"right_children":[2,4,6,-1,-1,-1,-1],"split_conditions":[7.8E1,8.1009865E-2,1.0966126E1,5.339232E-1,2.253378E-1,-3.1992272E-1,2.1001345E-2],"split_indices":[0,19,13,0,0,0,0],"split_type":[0,0,0,0,0,0,0],"sum_hessian":[1.842E4,6.881E3,1.1539E4,1.99E3,4.891E3,7.033E3,4.506E3],"tree_param":{"num_deleted":"0","num_feature":"21","num_nodes":"7","size_leaf_vector":"1"}},{"base_weights":[6.851088E-2,3.0889898E1,-3.0716124E1,3.7707525E-1,8.194368E-2,-1.0244792E-1,-4.0745875E-1],"categories":[],"categories_nodes":[],"categories_segments":[],"categories_sizes":[],"default_left":[0,0,0,0,0,0,0],"id":60,"left_children":[1,3,5,-1,-1,-1,-1],"loss_changes":[1.7501722E7,3.239117E6,3.459969E6,0E0,0E0,0E0,0E0],"parents":[2147483647,0,0,1,1,2,2],"right_children":[2,4,6,-1,-1,-1,-1],"split_conditions":[1.04E2,5.7E1,1.41455E3,3.7707525E-1,8.194368E-2,-1.0244792E-1,-4.0745875E-1],"split_indices":[0,0,5,0,0,0,0],"split_type":[0,0,0,0,0,0,0],"sum_hessian":[1.8445E4,9.217E3,9.228E3,5.006E3,4.211E3,5.04E3,4.188E3],"tree_param":{"num_deleted":"0","num_feature":"21","num_nodes":"7","size_leaf_vector":"1"}},{"base_weights":[-5.9354897E-3,3.754279E1,-2.4708916E1,4.8475635E-1,1.958539E-1,-3.2127598E-1,1.1315591E-2],"categories":[],"categories_nodes":[],"categories_segments":[],"categories_sizes":[],"default_left":[0,0,0,0,0,0,0],"id":61,"left_children":[1,3,5,-1,-1,-1,-1],"loss_changes":[1.7036294E7,2.222758E6,4.710423E6,0E0,0E0,0E0,0E0],"parents":[2147483647,0,0,1,1,2,2],"right_children":[2,4,6,-1,-1,-1,-1],"split_conditions":[8.3E1,8.4002554E-2,1.0964458E1,4.8475635E-1,1.958539E-1,-3.2127598E-1,1.1315591E-2],"split_indices":[0,19,13,0,0,0,0],"split_type":[0,0,0,0,0,0,0],"sum_hessian":[1.8366E4,7.288E3,1.1078E4,2.486E3,4.802E3,6.831E3,4.247E3],"tree_param":{"num_deleted":"0","num_feature":"21","num_nodes":"7","size_leaf_vector":"1"}},{"base_weights":[3.0189505E-2,2.2850676E1,-3.659444E1,2.7208412E-1,4.5153353E-2,-1.6778043E-1,-4.4555238E-1],"categories":[],"categories_nodes":[],"categories_segments":[],"categories_sizes":[],"default_left":[0,0,0,0,0,0,0],"id":62,"left_children":[1,3,5,-1,-1,-1,-1],"loss_changes":[1.5364925E7,2.2929455E6,2.168609E6,0E0,0E0,0E0,0E0],"parents":[2147483647,0,0,1,1,2,2],"right_children":[2,4,6,-1,-1,-1,-1],"split_conditions":[1.408562E3,1.404321E3,4.781E1,2.7208412E-1,4.5153353E-2,-1.6778043E-1,-4.4555238E-1],"split_indices":[15,15,7,0,0,0,0],"split_type":[0,0,0,0,0,0,0],"sum_hessian":[1.8383E4,1.1326E4,7.057E3,6.69E3,4.636E3,4.029E3,3.028E3],"tree_param":{"num_deleted":"0","num_feature":"21","num_nodes":"7","size_leaf_vector":"1"}},{"base_weights":[1.3608241E-1,2.9037495E1,-3.0986654E1,3.8899535E-1,9.104635E-2,-9.853155E-2,-3.9046988E-1],"categories":[],"categories_nodes":[],"categories_segments":[],"categories_sizes":[],"default_left":[0,0,0,0,0,0,0],"id":63,"left_children":[1,3,5,-1,-1,-1,-1],"loss_changes":[1.6479285E7,3.4043975E6,3.055628E6,0E0,0E0,0E0,0E0],"parents":[2147483647,0,0,1,1,2,2],"right_children":[2,4,6,-1,-1,-1,-1],"split_conditions":[1.08E2,5E1,1.41393E3,3.8899535E-1,9.104635E-2,-9.853155E-2,-3.9046988E-1],"split_indices":[0,0,5,0,0,0,0],"split_type":[0,0,0,0,0,0,0],"sum_hessian":[1.832E4,9.499E3,8.821E3,4.357E3,5.142E3,4.456E3,4.365E3],"tree_param":{"num_deleted":"0","num_feature":"21","num_nodes":"7","size_leaf_vector":"1"}},{"base_weights":[1.7142303E-1,3.0081137E1,-2.9715557E1,4.1917795E-1,1.2395114E-1,-4.368438E-1,-1.2617445E-1],"categories":[],"categories_nodes":[],"categories_segments":[],"categories_sizes":[],"default_left":[0,0,0,0,0,0,0],"id":64,"left_children":[1,3,5,-1,-1,-1,-1],"loss_changes":[1.6467341E7,3.0714815E6,3.262767E6,0E0,0E0,0E0,0E0],"parents":[2147483647,0,0,1,1,2,2],"right_children":[2,4,6,-1,-1,-1,-1],"split_conditions":[1.04E2,4E1,1.0897324E1,4.1917795E-1,1.2395114E-1,-4.368438E-1,-1.2617445E-1],"split_indices":[0,0,13,0,0,0,0],"split_type":[0,0,0,0,0,0,0],"sum_hessian":[1.8421E4,9.207E3,9.214E3,3.491E3,5.716E3,3.169E3,6.045E3],"tree_param":{"num_deleted":"0","num_feature":"21","num_nodes":"7","size_leaf_vector":"1"}},{"base_weights":[-1.3828179E-1,3.966683E1,-2.2356697E1,5.0222254E-1,2.1168734E-1,-3.105404E-1,1.3215096E-2],"categories":[],"categories_nodes":[],"categories_segments":[],"categories_sizes":[],"default_left":[0,0,0,0,0,0,0],"id":65,"left_children":[1,3,5,-1,-1,-1,-1],"loss_changes":[1.6300208E7,2.038896E6,4.9031575E6,0E0,0E0,0E0,0E0],"parents":[2147483647,0,0,1,1,2,2],"right_children":[2,4,6,-1,-1,-1,-1],"split_conditions":[7.5E1,8.4002554E-2,1.0962193E1,5.0222254E-1,2.1168734E-1,-3.105404E-1,1.3215096E-2],"split_indices":[0,19,13,0,0,0,0],"split_type":[0,0,0,0,0,0,0],"sum_hessian":[1.843E4,6.602E3,1.1828E4,2.258E3,4.344E3,6.888E3,4.94E3],"tree_param":{"num_deleted":"0","num_feature":"21","num_nodes":"7","size_leaf_vector":"1"}},{"base_weights":[-1.2079908E-1,2.9398672E1,-2.9605053E1,4.2961878E-1,1.3185593E-1,-4.2157835E-1,-1.22163646E-1],"categories":[],"categories_nodes":[],"categories_segments":[],"categories_sizes":[],"default_left":[0,0,0,0,0,0,0],"id":66,"left_children":[1,3,5,-1,-1,-1,-1],"loss_changes":[1.6035224E7,2.940741E6,3.122496E6,0E0,0E0,0E0,0E0],"parents":[2147483647,0,0,1,1,2,2],"right_children":[2,4,6,-1,-1,-1,-1],"split_conditions":[1.04E2,8.353392E-2,1.0902281E1,4.2961878E-1,1.3185593E-1,-4.2157835E-1,-1.22163646E-1],"split_indices":[0,19,13,0,0,0,0],"split_type":[0,0,0,0,0,0,0],"sum_hessian":[1.8423E4,9.206E3,9.217E3,3.051E3,6.155E3,3.386E3,5.831E3],"tree_param":{"num_deleted":"0","num_feature":"21","num_nodes":"7","size_leaf_vector":"1"}},{"base_weights":[1.0966682E-1,3.9246906E1,-2.1875563E1,4.993399E-1,2.0914032E-1,-3.1316254E-1,6.302421E-3],"categories":[],"categories_nodes":[],"categories_segments":[],"categories_sizes":[],"default_left":[0,0,0,0,0,0,0],"id":67,"left_children":[1,3,5,-1,-1,-1,-1],"loss_changes":[1.5803447E7,2.029173E6,4.81617E6,0E0,0E0,0E0,0E0],"parents":[2147483647,0,0,1,1,2,2],"right_children":[2,4,6,-1,-1,-1,-1],"split_conditions":[7.5E1,8.4002554E-2,1.09569235E1,4.993399E-1,2.0914032E-1,-3.1316254E-1,6.302421E-3],"split_indices":[0,19,13,0,0,0,0],"split_type":[0,0,0,0,0,0,0],"sum_hessian":[1.8366E4,6.606E3,1.176E4,2.245E3,4.361E3,6.547E3,5.213E3],"tree_param":{"num_deleted":"0","num_feature":"21","num_nodes":"7","size_leaf_vector":"1"}},{"base_weights":[-3.9455748E-1,-3.4757324E1,2.1795866E1,-4.443277E-1,-1.65126E-1,3.3526486E-1,7.660979E-2],"categories":[],"categories_nodes":[],"categories_segments":[],"categories_sizes":[],"default_left":[0,0,0,0,0,0,0],"id":68,"left_children":[1,3,5,-1,-1,-1,-1],"loss_changes":[1.4025627E7,2.165312E6,2.81662E6,0E0,0E0,0E0,0E0],"parents":[2147483647,0,0,1,1,2,2],"right_children":[2,4,6,-1,-1,-1,-1],"split_conditions":[3.1134276E0,1.0886406E1,8.353392E-2,-4.443277E-1,-1.65126E-1,3.3526486E-1,7.660979E-2],"split_indices":[18,13,19,0,0,0,0],"split_type":[0,0,0,0,0,0,0],"sum_hessian":[1.8393E4,7.217E3,1.1176E4,2.777E3,4.44E3,4.075E3,7.101E3],"tree_param":{"num_deleted":"0","num_feature":"21","num_nodes":"7","size_leaf_vector":"1"}},{"base_weights":[-1.5935184E-1,3.7681297E1,-2.2284817E1,4.8198614E-1,1.9998264E-1,-5.3601943E-2,-3.711828E-1],"categories":[],"categories_nodes":[],"categories_segments":[],"categories_sizes":[],"default_left":[0,0,0,0,0,0,0],"id":69,"left_children":[1,3,5,-1,-1,-1,-1],"loss_changes":[1.5338003E7,1.957244E6,4.4732985E6,0E0,0E0,0E0,0E0],"parents":[2147483647,0,0,1,1,2,2],"right_children":[2,4,6,-1,-1,-1,-1],"split_conditions":[7.7E1,8.4002554E-2,1.41455E3,4.8198614E-1,1.9998264E-1,-5.3601943E-2,-3.711828E-1],"split_indices":[0,19,5,0,0,0,0],"split_type":[0,0,0,0,0,0,0],"sum_hessian":[1.8319E4,6.759E3,1.156E4,2.289E3,4.47E3,7.15E3,4.41E3],"tree_param":{"num_deleted":"0","num_feature":"21","num_nodes":"7","size_leaf_vector":"1"}},{"base_weights":[6.773793E-3,3.8357E1,-2.196161E1,4.8691118E-1,2.0421156E-1,-3.0095538E-1,1.0711262E-2],"categories":[],"categories_nodes":[],"categories_segments":[],"categories_sizes":[],"default_left":[0,0,0,0,0,0,0],"id":70,"left_children":[1,3,5,-1,-1,-1,-1],"loss_changes":[1.5467051E7,1.953852E6,4.4695005E6,0E0,0E0,0E0,0E0],"parents":[2147483647,0,0,1,1,2,2],"right_children":[2,4,6,-1,-1,-1,-1],"split_conditions":[7.6E1,8.4002554E-2,1.0962193E1,4.8691118E-1,2.0421156E-1,-3.0095538E-1,1.0711262E-2],"split_indices":[0,19,13,0,0,0,0],"split_type":[0,0,0,0,0,0,0],"sum_hessian":[1.8358E4,6.686E3,1.1672E4,2.284E3,4.402E3,6.851E3,4.821E3],"tree_param":{"num_deleted":"0","num_feature":"21","num_nodes":"7","size_leaf_vector":"1"}},{"base_weights":[2.5028116E-1,-3.3753418E1,2.1867104E1,-4.3578038E-1,-1.5695749E-1,3.696831E-1,1.121966E-1],"categories":[],"categories_nodes":[],"categories_segments":[],"categories_sizes":[],"default_left":[0,0,0,0,0,0,0],"id":71,"left_children":[1,3,5,-1,-1,-1,-1],"loss_changes":[1.3515896E7,2.1414905E6,2.147679E6,0E0,0E0,0E0,0E0],"parents":[2147483647,0,0,1,1,2,2],"right_children":[2,4,6,-1,-1,-1,-1],"split_conditions":[3.1134276E0,1.0886406E1,1.400968E3,-4.3578038E-1,-1.5695749E-1,3.696831E-1,1.121966E-1],"split_indices":[18,13,15,0,0,0,0],"split_type":[0,0,0,0,0,0,0],"sum_hessian":[1.8387E4,7.146E3,1.1241E4,2.761E3,4.385E3,2.588E3,8.653E3],"tree_param":{"num_deleted":"0","num_feature":"21","num_nodes":"7","size_leaf_vector":"1"}},{"base_weights":[9.20717E-2,2.754757E1,-2.9551043E1,4.047077E-1,1.0746317E-1,-4.149642E-1,-1.3021213E-1],"categories":[],"categories_nodes":[],"categories_segments":[],"categories_sizes":[],"default_left":[0,0,0,0,0,0,0],"id":72,"left_children":[1,3,5,-1,-1,-1,-1],"loss_changes":[1.4912211E7,3.1681025E6,2.664668E6,0E0,0E0,0E0,0E0],"parents":[2147483647,0,0,1,1,2,2],"right_children":[2,4,6,-1,-1,-1,-1],"split_conditions":[1.08E2,4E1,1.0897324E1,4.047077E-1,1.0746317E-1,-4.149642E-1,-1.3021213E-1],"split_indices":[0,0,13,0,0,0,0],"split_type":[0,0,0,0,0,0,0],"sum_hessian":[1.8322E4,9.512E3,8.81E3,3.474E3,6.038E3,3.141E3,5.669E3],"tree_param":{"num_deleted":"0","num_feature":"21","num_nodes":"7","size_leaf_vector":"1"}},{"base_weights":[-8.157516E-2,2.2193079E1,-3.248063E1,3.4219396E-1,7.943862E-2,-4.1228452E-1,-1.3893566E-1],"categories":[],"categories_nodes":[],"categories_segments":[],"categories_sizes":[],"default_left":[0,0,0,0,0,0,0],"id":73,"left_children":[1,3,5,-1,-1,-1,-1],"loss_changes":[1.3250494E7,2.814168E6,2.2186415E6,0E0,0E0,0E0,0E0],"parents":[2147483647,0,0,1,1,2,2],"right_children":[2,4,6,-1,-1,-1,-1],"split_conditions":[1.408085E3,8.353392E-2,1.0897324E1,3.4219396E-1,7.943862E-2,-4.1228452E-1,-1.3893566E-1],"split_indices":[15,19,13,0,0,0,0],"split_type":[0,0,0,0,0,0,0],"sum_hessian":[1.836E4,1.088E4,7.48E3,3.917E3,6.963E3,3.168E3,4.312E3],"tree_param":{"num_deleted":"0","num_feature":"21","num_nodes":"7","size_leaf_vector":"1"}},{"base_weights":[-1.5564248E-2,2.107477E1,-3.4028065E1,3.3241668E-1,6.9955714E-2,-4.2656353E-1,-1.6265331E-1],"categories":[],"categories_nodes":[],"categories_segments":[],"categories_sizes":[],"default_left":[0,0,0,0,0,0,0],"id":74,"left_children":[1,3,5,-1,-1,-1,-1],"loss_changes":[1.3217386E7,2.946123E6,1.9079575E6,0E0,0E0,0E0,0E0],"parents":[2147483647,0,0,1,1,2,2],"right_children":[2,4,6,-1,-1,-1,-1],"split_conditions":[1.408562E3,8.353392E-2,1.0886406E1,3.3241668E-1,6.9955714E-2,-4.2656353E-1,-1.6265331E-1],"split_indices":[15,19,13,0,0,0,0],"split_type":[0,0,0,0,0,0,0],"sum_hessian":[1.8425E4,1.1373E4,7.052E3,4.13E3,7.243E3,2.784E3,4.268E3],"tree_param":{"num_deleted":"0","num_feature":"21","num_nodes":"7","size_leaf_vector":"1"}},{"base_weights":[1.9487107E-1,3.5476307E1,-2.1805777E1,4.552614E-1,1.866572E-1,-3.3062306E-1,-3.2248985E-2],"categories":[],"categories_nodes":[],"categories_segments":[],"categories_sizes":[],"default_left":[0,0,0,0,0,0,0],"id":75,"left_children":[1,3,5,-1,-1,-1,-1],"loss_changes":[1.42689E7,1.860429E6,4.0774095E6,0E0,0E0,0E0,0E0],"parents":[2147483647,0,0,1,1,2,2],"right_children":[2,4,6,-1,-1,-1,-1],"split_conditions":[8E1,8.4002554E-2,5.5302E2,4.552614E-1,1.866572E-1,-3.3062306E-1,-3.2248985E-2],"split_indices":[0,19,6,0,0,0,0],"split_type":[0,0,0,0,0,0,0],"sum_hessian":[1.8382E4,7.06E3,1.1322E4,2.406E3,4.654E3,5.265E3,6.057E3],"tree_param":{"num_deleted":"0","num_feature":"21","num_nodes":"7","size_leaf_vector":"1"}},{"base_weights":[6.890961E-2,2.7005953E1,-2.8483978E1,3.7841702E-1,9.312356E-2,-8.97529E-2,-3.5815713E-1],"categories":[],"categories_nodes":[],"categories_segments":[],"categories_sizes":[],"default_left":[0,0,0,0,0,0,0],"id":76,"left_children":[1,3,5,-1,-1,-1,-1],"loss_changes":[1.4157135E7,3.044903E6,2.616446E6,0E0,0E0,0E0,0E0],"parents":[2147483647,0,0,1,1,2,2],"right_children":[2,4,6,-1,-1,-1,-1],"split_conditions":[1.07E2,4.5E1,1.4138E3,3.7841702E-1,9.312356E-2,-8.97529E-2,-3.5815713E-1],"split_indices":[0,0,5,0,0,0,0],"split_type":[0,0,0,0,0,0,0],"sum_hessian":[1.8406E4,9.471E3,8.935E3,3.939E3,5.532E3,4.487E3,4.448E3],"tree_param":{"num_deleted":"0","num_feature":"21","num_nodes":"7","size_leaf_vector":"1"}},{"base_weights":[8.467399E-2,2.1138357E1,-3.258709E1,3.2843596E-1,7.219139E-2,-4.1853678E-1,-1.5263999E-1],"categories":[],"categories_nodes":[],"categories_segments":[],"categories_sizes":[],"default_left":[0,0,0,0,0,0,0],"id":77,"left_children":[1,3,5,-1,-1,-1,-1],"loss_changes":[1.2659858E7,2.77011E6,1.9666875E6,0E0,0E0,0E0,0E0],"parents":[2147483647,0,0,1,1,2,2],"right_children":[2,4,6,-1,-1,-1,-1],"split_conditions":[1.408414E3,8.353392E-2,1.0886406E1,3.2843596E-1,7.219139E-2,-4.1853678E-1,-1.5263999E-1],"split_indices":[15,19,13,0,0,0,0],"split_type":[0,0,0,0,0,0,0],"sum_hessian":[1.8404E4,1.1192E4,7.212E3,4.087E3,7.105E3,2.791E3,4.421E3],"tree_param":{"num_deleted":"0","num_feature":"21","num_nodes":"7","size_leaf_vector":"1"}},{"base_weights":[4.53293E-2,3.6839413E1,-2.0116232E1,4.8231652E-1,2.0909649E-1,-2.6743627E-1,3.798542E-2],"categories":[],"categories_nodes":[],"categories_segments":[],"categories_sizes":[],"default_left":[0,0,0,0,0,0,0],"id":78,"left_children":[1,3,5,-1,-1,-1,-1],"loss_changes":[1.3628593E7,1.631666E6,4.143128E6,0E0,0E0,0E0,0E0],"parents":[2147483647,0,0,1,1,2,2],"right_children":[2,4,6,-1,-1,-1,-1],"split_conditions":[7.4E1,8.1009865E-2,1.0974316E1,4.8231652E-1,2.0909649E-1,-2.6743627E-1,3.798542E-2],"split_indices":[0,19,13,0,0,0,0],"split_type":[0,0,0,0,0,0,0],"sum_hessian":[1.8371E4,6.503E3,1.1868E4,1.899E3,4.604E3,7.606E3,4.262E3],"tree_param":{"num_deleted":"0","num_feature":"21","num_nodes":"7","size_leaf_vector":"1"}},{"base_weights":[4.0442243E-2,3.6734577E1,-2.0233463E1,4.662456E-1,1.9655915E-1,-2.769971E-1,1.9954205E-2],"categories":[],"categories_nodes":[],"categories_segments":[],"categories_sizes":[],"default_left":[0,0,0,0,0,0,0],"id":79,"left_children":[1,3,5,-1,-1,-1,-1],"loss_changes":[1.3684417E7,1.735146E6,4.071927E6,0E0,0E0,0E0,0E0],"parents":[2147483647,0,0,1,1,2,2],"right_children":[2,4,6,-1,-1,-1,-1],"split_conditions":[7.4E1,8.4002554E-2,1.0966126E1,4.662456E-1,1.9655915E-1,-2.769971E-1,1.9954205E-2],"split_indices":[0,19,13,0,0,0,0],"split_type":[0,0,0,0,0,0,0],"sum_hessian":[1.8394E4,6.546E3,1.1848E4,2.221E3,4.325E3,7.127E3,4.721E3],"tree_param":{"num_deleted":"0","num_feature":"21","num_nodes":"7","size_leaf_vector":"1"}},{"base_weights":[1.1761916E-2,3.5300804E1,-2.1026987E1,4.7653407E-1,1.9364327E-1,-3.194603E-1,-3.4440964E-2],"categories":[],"categories_nodes":[],"categories_segments":[],"categories_sizes":[],"default_left":[0,0,0,0,0,0,0],"id":80,"left_children":[1,3,5,-1,-1,-1,-1],"loss_changes":[1.3684365E7,1.85919E6,3.785877E6,0E0,0E0,0E0,0E0],"parents":[2147483647,0,0,1,1,2,2],"right_children":[2,4,6,-1,-1,-1,-1],"split_conditions":[7.8E1,8.1009865E-2,5.5302E2,4.7653407E-1,1.9364327E-1,-3.194603E-1,-3.4440964E-2],"split_indices":[0,19,6,0,0,0,0],"split_type":[0,0,0,0,0,0,0],"sum_hessian":[1.8431E4,6.884E3,1.1547E4,2.024E3,4.86E3,5.285E3,6.262E3],"tree_param":{"num_deleted":"0","num_feature":"21","num_nodes":"7","size_leaf_vector":"1"}},{"base_weights":[2.3805837E-1,-3.1628178E1,2.0510235E1,-4.0842894E-1,-1.4782919E-1,3.6286768E-1,1.0623478E-1],"categories":[],"categories_nodes":[],"categories_segments":[],"categories_sizes":[],"default_left":[0,0,0,0,0,0,0],"id":81,"left_children":[1,3,5,-1,-1,-1,-1],"loss_changes":[1.1893259E7,1.870402E6,2.018346E6,0E0,0E0,0E0,0E0],"parents":[2147483647,0,0,1,1,2,2],"right_children":[2,4,6,-1,-1,-1,-1],"split_conditions":[3.1134276E0,1.0886406E1,1.40075E3,-4.0842894E-1,-1.4782919E-1,3.6286768E-1,1.0623478E-1],"split_indices":[18,13,15,0,0,0,0],"split_type":[0,0,0,0,0,0,0],"sum_hessian":[1.841E4,7.158E3,1.1252E4,2.752E3,4.406E3,2.394E3,8.858E3],"tree_param":{"num_deleted":"0","num_feature":"21","num_nodes":"7","size_leaf_vector":"1"}},{"base_weights":[8.784453E-2,2.6219799E1,-2.7143888E1,3.9737558E-1,1.09313786E-1,-3.596627E-1,-9.767991E-2],"categories":[],"categories_nodes":[],"categories_segments":[],"categories_sizes":[],"default_left":[0,0,0,0,0,0,0],"id":82,"left_children":[1,3,5,-1,-1,-1,-1],"loss_changes":[1.3086432E7,2.817684E6,2.4757345E6,0E0,0E0,0E0,0E0],"parents":[2147483647,0,0,1,1,2,2],"right_children":[2,4,6,-1,-1,-1,-1],"split_conditions":[1.06E2,3.6E1,5.5279E2,3.9737558E-1,1.09313786E-1,-3.596627E-1,-9.767991E-2],"split_indices":[0,0,6,0,0,0,0],"split_type":[0,0,0,0,0,0,0],"sum_hessian":[1.8389E4,9.384E3,9.005E3,3.137E3,6.247E3,3.959E3,5.046E3],"tree_param":{"num_deleted":"0","num_feature":"21","num_nodes":"7","size_leaf_vector":"1"}},{"base_weights":[-1.00711964E-1,2.1158398E1,-2.9814606E1,3.246208E-1,7.402105E-2,-3.898798E-1,-1.3463297E-1],"categories":[],"categories_nodes":[],"categories_segments":[],"categories_sizes":[],"default_left":[0,0,0,0,0,0,0],"id":83,"left_children":[1,3,5,-1,-1,-1,-1],"loss_changes":[1.1684183E7,2.5569235E6,1.941277E6,0E0,0E0,0E0,0E0],"parents":[2147483647,0,0,1,1,2,2],"right_children":[2,4,6,-1,-1,-1,-1],"split_conditions":[1.4078615E3,8.353392E-2,3.085823E0,3.246208E-1,7.402105E-2,-3.898798E-1,-1.3463297E-1],"split_indices":[15,19,18,0,0,0,0],"split_type":[0,0,0,0,0,0,0],"sum_hessian":[1.8496E4,1.0782E4,7.714E3,3.954E3,6.828E3,2.997E3,4.717E3],"tree_param":{"num_deleted":"0","num_feature":"21","num_nodes":"7","size_leaf_vector":"1"}},{"base_weights":[-1.5467934E-1,1.9488052E1,-3.1639208E1,3.099046E-1,6.427354E-2,-4.0109655E-1,-1.4893366E-1],"categories":[],"categories_nodes":[],"categories_segments":[],"categories_sizes":[],"default_left":[0,0,0,0,0,0,0],"id":84,"left_children":[1,3,5,-1,-1,-1,-1],"loss_changes":[1.1374808E7,2.5616295E6,1.743052E6,0E0,0E0,0E0,0E0],"parents":[2147483647,0,0,1,1,2,2],"right_children":[2,4,6,-1,-1,-1,-1],"split_conditions":[1.408562E3,8.353392E-2,1.0886406E1,3.099046E-1,6.427354E-2,-4.0109655E-1,-1.4893366E-1],"split_indices":[15,19,13,0,0,0,0],"split_type":[0,0,0,0,0,0,0],"sum_hessian":[1.8392E4,1.1326E4,7.066E3,4.083E3,7.243E3,2.779E3,4.287E3],"tree_param":{"num_deleted":"0","num_feature":"21","num_nodes":"7","size_leaf_vector":"1"}},{"base_weights":[1.2000336E-1,3.6373447E1,-1.8846115E1,4.6062332E-1,1.9514105E-1,-2.5440866E-1,3.9249454E-2],"categories":[],"categories_nodes":[],"categories_segments":[],"categories_sizes":[],"default_left":[0,0,0,0,0,0,0],"id":85,"left_children":[1,3,5,-1,-1,-1,-1],"loss_changes":[1.2672699E7,1.626078E6,3.9235725E6,0E0,0E0,0E0,0E0],"parents":[2147483647,0,0,1,1,2,2],"right_children":[2,4,6,-1,-1,-1,-1],"split_conditions":[7.2E1,8.4002554E-2,1.0974316E1,4.6062332E-1,1.9514105E-1,-2.5440866E-1,3.9249454E-2],"split_indices":[0,19,13,0,0,0,0],"split_type":[0,0,0,0,0,0,0],"sum_hessian":[1.843E4,6.33E3,1.21E4,2.148E3,4.182E3,7.707E3,4.393E3],"tree_param":{"num_deleted":"0","num_feature":"21","num_nodes":"7","size_leaf_vector":"1"}},{"base_weights":[5.200777E-2,3.5605473E1,-1.935179E1,4.1540617E-1,1.8832998E-1,-2.6902005E-1,1.1567309E-2],"categories":[],"categories_nodes":[],"categories_segments":[],"categories_sizes":[],"default_left":[0,0,0,0,0,0,0],"id":86,"left_children":[1,3,5,-1,-1,-1,-1],"loss_changes":[1.2738271E7,1.3117085E6,3.719887E6,0E0,0E0,0E0,0E0],"parents":[2147483647,0,0,1,1,2,2],"right_children":[2,4,6,-1,-1,-1,-1],"split_conditions":[7.4E1,3E1,1.0962193E1,4.1540617E-1,1.8832998E-1,-2.6902005E-1,1.1567309E-2],"split_indices":[0,0,13,0,0,0,0],"split_type":[0,0,0,0,0,0,0],"sum_hessian":[1.8464E4,6.519E3,1.1945E4,2.609E3,3.91E3,6.953E3,4.992E3],"tree_param":{"num_deleted":"0","num_feature":"21","num_nodes":"7","size_leaf_vector":"1"}},{"base_weights":[-1.970769E-1,-2.7114763E1,2.1811699E1,-3.736499E-1,-1.1134714E-1,3.3107722E-1,7.943042E-2],"categories":[],"categories_nodes":[],"categories_segments":[],"categories_sizes":[],"default_left":[0,0,0,0,0,0,0],"id":87,"left_children":[1,3,5,-1,-1,-1,-1],"loss_changes":[1.0935389E7,2.201701E6,2.420889E6,0E0,0E0,0E0,0E0],"parents":[2147483647,0,0,1,1,2,2],"right_children":[2,4,6,-1,-1,-1,-1],"split_conditions":[3.1179757E0,1.0897324E1,8.353392E-2,-3.736499E-1,-1.1134714E-1,3.3107722E-1,7.943042E-2],"split_indices":[18,13,19,0,0,0,0],"split_type":[0,0,0,0,0,0,0],"sum_hessian":[1.8458E4,8.303E3,1.0155E4,3.206E3,5.097E3,3.697E3,6.458E3],"tree_param":{"num_deleted":"0","num_feature":"21","num_nodes":"7","size_leaf_vector":"1"}},{"base_weights":[1.9267606E-2,2.617739E1,-2.5170364E1,3.7985602E-1,1.047447E-1,-8.252957E-2,-3.3718103E-1],"categories":[],"categories_nodes":[],"categories_segments":[],"categories_sizes":[],"default_left":[0,0,0,0,0,0,0],"id":88,"left_children":[1,3,5,-1,-1,-1,-1],"loss_changes":[1.2122477E7,2.5755245E6,2.4467595E6,0E0,0E0,0E0,0E0],"parents":[2147483647,0,0,1,1,2,2],"right_children":[2,4,6,-1,-1,-1,-1],"split_conditions":[1.02E2,3.8E1,1.41455E3,3.7985602E-1,1.047447E-1,-8.252957E-2,-3.3718103E-1],"split_indices":[0,0,5,0,0,0,0],"split_type":[0,0,0,0,0,0,0],"sum_hessian":[1.8397E4,9.025E3,9.372E3,3.298E3,5.727E3,5.145E3,4.227E3],"tree_param":{"num_deleted":"0","num_feature":"21","num_nodes":"7","size_leaf_vector":"1"}},{"base_weights":[2.7162736E-2,3.4691166E1,-1.8922771E1,4.4301927E-1,1.8417776E-1,-5.496834E-2,-3.4134766E-1],"categories":[],"categories_nodes":[],"categories_segments":[],"categories_sizes":[],"default_left":[0,0,0,0,0,0,0],"id":89,"left_children":[1,3,5,-1,-1,-1,-1],"loss_changes":[1.2084422E7,1.5879935E6,3.4863675E6,0E0,0E0,0E0,0E0],"parents":[2147483647,0,0,1,1,2,2],"right_children":[2,4,6,-1,-1,-1,-1],"split_conditions":[7.4E1,8.4002554E-2,1.413342E3,4.4301927E-1,1.8417776E-1,-5.496834E-2,-3.4134766E-1],"split_indices":[0,19,15,0,0,0,0],"split_type":[0,0,0,0,0,0,0],"sum_hessian":[1.8396E4,6.502E3,1.1894E4,2.207E3,4.295E3,8.014E3,3.88E3],"tree_param":{"num_deleted":"0","num_feature":"21","num_nodes":"7","size_leaf_vector":"1"}},{"base_weights":[-5.3551424E-2,3.523105E1,-1.8147446E1,4.4537783E-1,1.8992014E-1,-2.4665143E-1,3.6956802E-2],"categories":[],"categories_nodes":[],"categories_segments":[],"categories_sizes":[],"default_left":[0,0,0,0,0,0,0],"id":90,"left_children":[1,3,5,-1,-1,-1,-1],"loss_changes":[1.1785316E7,1.4854065E6,3.7112135E6,0E0,0E0,0E0,0E0],"parents":[2147483647,0,0,1,1,2,2],"right_children":[2,4,6,-1,-1,-1,-1],"split_conditions":[7.1E1,8.4002554E-2,1.0974316E1,4.4537783E-1,1.8992014E-1,-2.4665143E-1,3.6956802E-2],"split_indices":[0,19,13,0,0,0,0],"split_type":[0,0,0,0,0,0,0],"sum_hessian":[1.8459E4,6.257E3,1.2202E4,2.115E3,4.142E3,7.713E3,4.489E3],"tree_param":{"num_deleted":"0","num_feature":"21","num_nodes":"7","size_leaf_vector":"1"}},{"base_weights":[8.460425E-2,3.3882133E1,-1.8886131E1,4.3381986E-1,1.7880884E-1,-3.0213338E-1,-3.269636E-2],"categories":[],"categories_nodes":[],"categories_segments":[],"categories_sizes":[],"default_left":[0,0,0,0,0,0,0],"id":91,"left_children":[1,3,5,-1,-1,-1,-1],"loss_changes":[1.176772E7,1.5669535E6,3.3977508E6,0E0,0E0,0E0,0E0],"parents":[2147483647,0,0,1,1,2,2],"right_children":[2,4,6,-1,-1,-1,-1],"split_conditions":[7.5E1,8.4002554E-2,5.5296E2,4.3381986E-1,1.7880884E-1,-3.0213338E-1,-3.269636E-2],"split_indices":[0,19,6,0,0,0,0],"split_type":[0,0,0,0,0,0,0],"sum_hessian":[1.8353E4,6.598E3,1.1755E4,2.248E3,4.35E3,5.035E3,6.72E3],"tree_param":{"num_deleted":"0","num_feature":"21","num_nodes":"7","size_leaf_vector":"1"}},{"base_weights":[-7.0106536E-2,3.023287E1,-2.0922695E1,4.2746335E-1,1.5869546E-1,-3.046705E-1,-4.6966672E-2],"categories":[],"categories_nodes":[],"categories_segments":[],"categories_sizes":[],"default_left":[0,0,0,0,0,0,0],"id":92,"left_children":[1,3,5,-1,-1,-1,-1],"loss_changes":[1.1598869E7,1.815383E6,2.910943E6,0E0,0E0,0E0,0E0],"parents":[2147483647,0,0,1,1,2,2],"right_children":[2,4,6,-1,-1,-1,-1],"split_conditions":[8.5E1,8.1009865E-2,5.5296E2,4.2746335E-1,1.5869546E-1,-3.046705E-1,-4.6966672E-2],"split_indices":[0,19,6,0,0,0,0],"split_type":[0,0,0,0,0,0,0],"sum_hessian":[1.8355E4,7.482E3,1.0873E4,2.182E3,5.3E3,4.941E3,5.932E3],"tree_param":{"num_deleted":"0","num_feature":"21","num_nodes":"7","size_leaf_vector":"1"}},{"base_weights":[-1.665459E-1,2.4330534E1,-2.5090832E1,3.7854394E-1,1.04225986E-1,-8.535528E-2,-3.288007E-1],"categories":[],"categories_nodes":[],"categories_segments":[],"categories_sizes":[],"default_left":[0,0,0,0,0,0,0],"id":93,"left_children":[1,3,5,-1,-1,-1,-1],"loss_changes":[1.1160453E7,2.436138E6,2.1669515E6,0E0,0E0,0E0,0E0],"parents":[2147483647,0,0,1,1,2,2],"right_children":[2,4,6,-1,-1,-1,-1],"split_conditions":[1.05E2,3.4E1,1.41455E3,3.7854394E-1,1.04225986E-1,-8.535528E-2,-3.288007E-1],"split_indices":[0,0,5,0,0,0,0],"split_type":[0,0,0,0,0,0,0],"sum_hessian":[1.8278E4,9.218E3,9.06E3,2.909E3,6.309E3,4.914E3,4.146E3],"tree_param":{"num_deleted":"0","num_feature":"21","num_nodes":"7","size_leaf_vector":"1"}},{"base_weights":[-1.3779724E-1,3.3887333E1,-1.802889E1,4.3687183E-1,1.8226656E-1,-2.075347E-2,-2.8654504E-1],"categories":[],"categories_nodes":[],"categories_segments":[],"categories_sizes":[],"default_left":[0,0,0,0,0,0,0],"id":94,"left_children":[1,3,5,-1,-1,-1,-1],"loss_changes":[1.1229963E7,1.476303E6,3.4424158E6,0E0,0E0,0E0,0E0],"parents":[2147483647,0,0,1,1,2,2],"right_children":[2,4,6,-1,-1,-1,-1],"split_conditions":[7.2E1,8.353392E-2,1.41241E3,4.3687183E-1,1.8226656E-1,-2.075347E-2,-2.8654504E-1],"split_indices":[0,19,5,0,0,0,0],"split_type":[0,0,0,0,0,0,0],"sum_hessian":[1.8447E4,6.357E3,1.209E4,2.084E3,4.273E3,6.603E3,5.487E3],"tree_param":{"num_deleted":"0","num_feature":"21","num_nodes":"7","size_leaf_vector":"1"}},{"base_weights":[1.0888979E-1,3.469687E1,-1.7386723E1,4.3637165E-1,1.8637343E-1,-2.3648103E-1,3.7111554E-2],"categories":[],"categories_nodes":[],"categories_segments":[],"categories_sizes":[],"default_left":[0,0,0,0,0,0,0],"id":95,"left_children":[1,3,5,-1,-1,-1,-1],"loss_changes":[1.1124661E7,1.41358E6,3.4479002E6,0E0,0E0,0E0,0E0],"parents":[2147483647,0,0,1,1,2,2],"right_children":[2,4,6,-1,-1,-1,-1],"split_conditions":[7E1,8.4002554E-2,1.0974316E1,4.3637165E-1,1.8637343E-1,-2.3648103E-1,3.7111554E-2],"split_indices":[0,19,13,0,0,0,0],"split_type":[0,0,0,0,0,0,0],"sum_hessian":[1.8383E4,6.175E3,1.2208E4,2.117E3,4.058E3,7.74E3,4.468E3],"tree_param":{"num_deleted":"0","num_feature":"21","num_nodes":"7","size_leaf_vector":"1"}},{"base_weights":[2.4411245E-1,-2.8663523E1,1.8696554E1,-3.7110448E-1,-1.330579E-1,3.0201215E-1,5.5888228E-2],"categories":[],"categories_nodes":[],"categories_segments":[],"categories_sizes":[],"default_left":[0,0,0,0,0,0,0],"id":96,"left_children":[1,3,5,-1,-1,-1,-1],"loss_changes":[9.822158E6,1.565403E6,2.5765505E6,0E0,0E0,0E0,0E0],"parents":[2147483647,0,0,1,1,2,2],"right_children":[2,4,6,-1,-1,-1,-1],"split_conditions":[3.1134276E0,1.0886406E1,8.353392E-2,-3.7110448E-1,-1.330579E-1,3.0201215E-1,5.5888228E-2],"split_indices":[18,13,19,0,0,0,0],"split_type":[0,0,0,0,0,0,0],"sum_hessian":[1.8413E4,7.174E3,1.1239E4,2.764E3,4.41E3,4.143E3,7.096E3],"tree_param":{"num_deleted":"0","num_feature":"21","num_nodes":"7","size_leaf_vector":"1"}},{"base_weights":[-1.3950521E-2,1.934922E1,-2.712358E1,3.0056125E-1,6.667449E-2,-3.5320202E-1,-1.1337721E-1],"categories":[],"categories_nodes":[],"categories_segments":[],"categories_sizes":[],"default_left":[0,0,0,0,0,0,0],"id":97,"left_children":[1,3,5,-1,-1,-1,-1],"loss_changes":[9.677411E6,2.2136162E6,1.742786E6,0E0,0E0,0E0,0E0],"parents":[2147483647,0,0,1,1,2,2],"right_children":[2,4,6,-1,-1,-1,-1],"split_conditions":[1.4078615E3,8.353392E-2,1.0897324E1,3.0056125E-1,6.667449E-2,-3.5320202E-1,-1.1337721E-1],"split_indices":[15,19,13,0,0,0,0],"split_type":[0,0,0,0,0,0,0],"sum_hessian":[1.8435E4,1.0754E4,7.681E3,3.911E3,6.843E3,3.181E3,4.5E3],"tree_param":{"num_deleted":"0","num_feature":"21","num_nodes":"7","size_leaf_vector":"1"}},{"base_weights":[4.275489E-2,1.9341028E1,-2.7022678E1,3.0621448E-1,6.2408242E-2,-3.6518934E-1,-1.24187976E-1],"categories":[],"categories_nodes":[],"categories_segments":[],"categories_sizes":[],"default_left":[0,0,0,0,0,0,0],"id":98,"left_children":[1,3,5,-1,-1,-1,-1],"loss_changes":[9.543591E6,2.3924828E6,1.662575E6,0E0,0E0,0E0,0E0],"parents":[2147483647,0,0,1,1,2,2],"right_children":[2,4,6,-1,-1,-1,-1],"split_conditions":[1.4078615E3,8.353392E-2,1.0886406E1,3.0621448E-1,6.2408242E-2,-3.6518934E-1,-1.24187976E-1],"split_indices":[15,19,13,0,0,0,0],"split_type":[0,0,0,0,0,0,0],"sum_hessian":[1.8271E4,1.0666E4,7.605E3,3.905E3,6.761E3,2.768E3,4.837E3],"tree_param":{"num_deleted":"0","num_feature":"21","num_nodes":"7","size_leaf_vector":"1"}},{"base_weights":[9.8258294E-2,2.3533064E1,-2.4282204E1,3.6461005E-1,9.411829E-2,-8.688322E-2,-3.1775776E-1],"categories":[],"categories_nodes":[],"categories_segments":[],"categories_sizes":[],"default_left":[0,0,0,0,0,0,0],"id":99,"left_children":[1,3,5,-1,-1,-1,-1],"loss_changes":[1.0515536E7,2.4844605E6,1.9335925E6,0E0,0E0,0E0,0E0],"parents":[2147483647,0,0,1,1,2,2],"right_children":[2,4,6,-1,-1,-1,-1],"split_conditions":[1.06E2,3.6E1,1.41483E3,3.6461005E-1,9.411829E-2,-8.688322E-2,-3.1775776E-1],"split_indices":[0,0,5,0,0,0,0],"split_type":[0,0,0,0,0,0,0],"sum_hessian":[1.8404E4,9.384E3,9.02E3,3.137E3,6.247E3,4.975E3,4.045E3],"tree_param":{"num_deleted":"0","num_feature":"21","num_nodes":"7","size_leaf_vector":"1"}},{"base_weights":[9.097672E-2,3.0761938E1,-1.8681622E1,4.2511937E-1,1.6434352E-1,-2.601706E-1,-1.2345851E-2],"categories":[],"categories_nodes":[],"categories_segments":[],"categories_sizes":[],"default_left":[0,0,0,0,0,0,0],"id":100,"left_children":[1,3,5,-1,-1,-1,-1],"loss_changes":[1.0565838E7,1.6015005E6,2.8225138E6,0E0,0E0,0E0,0E0],"parents":[2147483647,0,0,1,1,2,2],"right_children":[2,4,6,-1,-1,-1,-1],"split_conditions":[7.9E1,8.1009865E-2,5.532E2,4.2511937E-1,1.6434352E-1,-2.601706E-1,-1.2345851E-2],"split_indices":[0,19,6,0,0,0,0],"split_type":[0,0,0,0,0,0,0],"sum_hessian":[1.835E4,6.967E3,1.1383E4,2.054E3,4.913E3,6.162E3,5.221E3],"tree_param":{"num_deleted":"0","num_feature":"21","num_nodes":"7","size_leaf_vector":"1"}},{"base_weights":[6.6229574E-2,3.3657726E1,-1.6909086E1,4.2024833E-1,1.831382E-1,-2.322851E-1,2.9538624E-2],"categories":[],"categories_nodes":[],"categories_segments":[],"categories_sizes":[],"default_left":[0,0,0,0,0,0,0],"id":101,"left_children":[1,3,5,-1,-1,-1,-1],"loss_changes":[1.046404E7,1.2647635E6,3.203693E6,0E0,0E0,0E0,0E0],"parents":[2147483647,0,0,1,1,2,2],"right_children":[2,4,6,-1,-1,-1,-1],"split_conditions":[7E1,8.4002554E-2,1.0972017E1,4.2024833E-1,1.831382E-1,-2.322851E-1,2.9538624E-2],"split_indices":[0,19,13,0,0,0,0],"split_type":[0,0,0,0,0,0,0],"sum_hessian":[1.835E4,6.16E3,1.219E4,2.099E3,4.061E3,7.549E3,4.641E3],"tree_param":{"num_deleted":"0","num_feature":"21","num_nodes":"7","size_leaf_vector":"1"}},{"base_weights":[-1.4576867E-1,3.3862003E1,-1.6714357E1,4.4422114E-1,1.9237155E-1,-2.851493E-1,-2.6255347E-2],"categories":[],"categories_nodes":[],"categories_segments":[],"categories_sizes":[],"default_left":[0,0,0,0,0,0,0],"id":102,"left_children":[1,3,5,-1,-1,-1,-1],"loss_changes":[1.033256E7,1.2766995E6,3.2379215E6,0E0,0E0,0E0,0E0],"parents":[2147483647,0,0,1,1,2,2],"right_children":[2,4,6,-1,-1,-1,-1],"split_conditions":[6.9E1,8.1009865E-2,5.2105E2,4.4422114E-1,1.9237155E-1,-2.851493E-1,-2.6255347E-2],"split_indices":[0,19,8,0,0,0,0],"split_type":[0,0,0,0,0,0,0],"sum_hessian":[1.8337E4,6.007E3,1.233E4,1.745E3,4.262E3,4.992E3,7.338E3],"tree_param":{"num_deleted":"0","num_feature":"21","num_nodes":"7","size_leaf_vector":"1"}},{"base_weights":[-7.297136E-2,3.2070564E1,-1.7298624E1,4.0925765E-1,1.6985868E-1,-2.1309772E-1,6.853606E-2],"categories":[],"categories_nodes":[],"categories_segments":[],"categories_sizes":[],"default_left":[0,0,0,0,0,0,0],"id":103,"left_children":[1,3,5,-1,-1,-1,-1],"loss_changes":[1.0178918E7,1.342944E6,3.0775395E6,0E0,0E0,0E0,0E0],"parents":[2147483647,0,0,1,1,2,2],"right_children":[2,4,6,-1,-1,-1,-1],"split_conditions":[7.3E1,8.4002554E-2,1.0992416E1,4.0925765E-1,1.6985868E-1,-2.1309772E-1,6.853606E-2],"split_indices":[0,19,13,0,0,0,0],"split_type":[0,0,0,0,0,0,0],"sum_hessian":[1.8383E4,6.414E3,1.1969E4,2.187E3,4.227E3,8.678E3,3.291E3],"tree_param":{"num_deleted":"0","num_feature":"21","num_nodes":"7","size_leaf_vector":"1"}},{"base_weights":[2.2646409E-2,2.4089178E1,-2.2505877E1,3.49604E-1,9.9114135E-2,-3.0943725E-1,-7.858776E-2],"categories":[],"categories_nodes":[],"categories_segments":[],"categories_sizes":[],"default_left":[0,0,0,0,0,0,0],"id":104,"left_children":[1,3,5,-1,-1,-1,-1],"loss_changes":[9.970579E6,2.085973E6,2.0100985E6,0E0,0E0,0E0,0E0],"parents":[2147483647,0,0,1,1,2,2],"right_children":[2,4,6,-1,-1,-1,-1],"split_conditions":[1.01E2,3.7E1,5.5278E2,3.49604E-1,9.9114135E-2,-3.0943725E-1,-7.858776E-2],"split_indices":[0,0,6,0,0,0,0],"split_type":[0,0,0,0,0,0,0],"sum_hessian":[1.8389E4,8.891E3,9.498E3,3.187E3,5.704E3,4.028E3,5.47E3],"tree_param":{"num_deleted":"0","num_feature":"21","num_nodes":"7","size_leaf_vector":"1"}},{"base_weights":[3.3035014E-2,2.1839766E1,-2.430855E1,3.4120283E-1,8.113582E-2,-9.173692E-2,-3.094948E-1],"categories":[],"categories_nodes":[],"categories_segments":[],"categories_sizes":[],"default_left":[0,0,0,0,0,0,0],"id":105,"left_children":[1,3,5,-1,-1,-1,-1],"loss_changes":[9.818228E6,2.429693E6,1.6704295E6,0E0,0E0,0E0,0E0],"parents":[2147483647,0,0,1,1,2,2],"right_children":[2,4,6,-1,-1,-1,-1],"split_conditions":[1.1E2,3.9E1,6.4299E2,3.4120283E-1,8.113582E-2,-9.173692E-2,-3.094948E-1],"split_indices":[0,0,4,0,0,0,0],"split_type":[0,0,0,0,0,0,0],"sum_hessian":[1.8496E4,9.756E3,8.74E3,3.381E3,6.375E3,4.771E3,3.969E3],"tree_param":{"num_deleted":"0","num_feature":"21","num_nodes":"7","size_leaf_vector":"1"}},{"base_weights":[-1.5461285E-1,3.278727E1,-1.6031204E1,4.1203985E-1,1.7772335E-1,-2.2179164E-1,3.4093942E-2],"categories":[],"categories_nodes":[],"categories_segments":[],"categories_sizes":[],"default_left":[0,0,0,0,0,0,0],"id":106,"left_children":[1,3,5,-1,-1,-1,-1],"loss_changes":[9.636716E6,1.1980925E6,3.1040185E6,0E0,0E0,0E0,0E0],"parents":[2147483647,0,0,1,1,2,2],"right_children":[2,4,6,-1,-1,-1,-1],"split_conditions":[6.8E1,8.4002554E-2,1.0974316E1,4.1203985E-1,1.7772335E-1,-2.2179164E-1,3.4093942E-2],"split_indices":[0,19,13,0,0,0,0],"split_type":[0,0,0,0,0,0,0],"sum_hessian":[1.8425E4,5.992E3,1.2433E4,2.03E3,3.962E3,7.765E3,4.668E3],"tree_param":{"num_deleted":"0","num_feature":"21","num_nodes":"7","size_leaf_vector":"1"}},{"base_weights":[-9.874098E-2,2.9206915E1,-1.7727901E1,4.033696E-1,1.5711439E-1,-4.565089E-2,-2.9530945E-1],"categories":[],"categories_nodes":[],"categories_segments":[],"categories_sizes":[],"default_left":[0,0,0,0,0,0,0],"id":107,"left_children":[1,3,5,-1,-1,-1,-1],"loss_changes":[9.504867E6,1.408607E6,2.7256628E6,0E0,0E0,0E0,0E0],"parents":[2147483647,0,0,1,1,2,2],"right_children":[2,4,6,-1,-1,-1,-1],"split_conditions":[7.9E1,8.1009865E-2,1.41483E3,4.033696E-1,1.5711439E-1,-4.565089E-2,-2.9530945E-1],"split_indices":[0,19,5,0,0,0,0],"split_type":[0,0,0,0,0,0,0],"sum_hessian":[1.8397E4,6.91E3,1.1487E4,2.018E3,4.892E3,7.191E3,4.296E3],"tree_param":{"num_deleted":"0","num_feature":"21","num_nodes":"7","size_leaf_vector":"1"}},{"base_weights":[6.74397E-2,2.2158958E1,-2.3227486E1,3.569837E-1,9.487875E-2,-3.441412E-1,-1.0764142E-1],"categories":[],"categories_nodes":[],"categories_segments":[],"categories_sizes":[],"default_left":[0,0,0,0,0,0,0],"id":108,"left_children":[1,3,5,-1,-1,-1,-1],"loss_changes":[9.471419E6,2.2199885E6,1.7579645E6,0E0,0E0,0E0,0E0],"parents":[2147483647,0,0,1,1,2,2],"right_children":[2,4,6,-1,-1,-1,-1],"split_conditions":[1.07E2,3.3E1,1.0888099E1,3.569837E-1,9.487875E-2,-3.441412E-1,-1.0764142E-1],"split_indices":[0,0,13,0,0,0,0],"split_type":[0,0,0,0,0,0,0],"sum_hessian":[1.8404E4,9.446E3,8.958E3,2.843E3,6.603E3,2.822E3,6.136E3],"tree_param":{"num_deleted":"0","num_feature":"21","num_nodes":"7","size_leaf_vector":"1"}},{"base_weights":[5.5089764E-2,2.1337395E1,-2.3775482E1,3.344635E-1,8.0962434E-2,-3.4283775E-1,-1.1310269E-1],"categories":[],"categories_nodes":[],"categories_segments":[],"categories_sizes":[],"default_left":[0,0,0,0,0,0,0],"id":109,"left_children":[1,3,5,-1,-1,-1,-1],"loss_changes":[9.328712E6,2.280418E6,1.618242E6,0E0,0E0,0E0,0E0],"parents":[2147483647,0,0,1,1,2,2],"right_children":[2,4,6,-1,-1,-1,-1],"split_conditions":[1.1E2,3.8E1,1.0886406E1,3.344635E-1,8.0962434E-2,-3.4283775E-1,-1.1310269E-1],"split_indices":[0,0,13,0,0,0,0],"split_type":[0,0,0,0,0,0,0],"sum_hessian":[1.8393E4,9.716E3,8.677E3,3.31E3,6.406E3,2.77E3,5.907E3],"tree_param":{"num_deleted":"0","num_feature":"21","num_nodes":"7","size_leaf_vector":"1"}},{"base_weights":[1.6217606E-1,3.1555544E1,-1.5610724E1,4.2165494E-1,1.753475E-1,-1.9836935E-1,7.281415E-2],"categories":[],"categories_nodes":[],"categories_segments":[],"categories_sizes":[],"default_left":[0,0,0,0,0,0,0],"id":110,"left_children":[1,3,5,-1,-1,-1,-1],"loss_changes":[9.090566E6,1.2536145E6,2.9461212E6,0E0,0E0,0E0,0E0],"parents":[2147483647,0,0,1,1,2,2],"right_children":[2,4,6,-1,-1,-1,-1],"split_conditions":[7E1,8.1009865E-2,1.0992416E1,4.2165494E-1,1.753475E-1,-1.9836935E-1,7.281415E-2],"split_indices":[0,19,13,0,0,0,0],"split_type":[0,0,0,0,0,0,0],"sum_hessian":[1.8358E4,6.139E3,1.2219E4,1.797E3,4.342E3,8.797E3,3.422E3],"tree_param":{"num_deleted":"0","num_feature":"21","num_nodes":"7","size_leaf_vector":"1"}},{"base_weights":[-6.282659E-2,3.1710615E1,-1.542627E1,4.015541E-1,1.703441E-1,-2.166952E-1,3.077452E-2],"categories":[],"categories_nodes":[],"categories_segments":[],"categories_sizes":[],"default_left":[0,0,0,0,0,0,0],"id":111,"left_children":[1,3,5,-1,-1,-1,-1],"loss_changes":[8.962752E6,1.16491E6,2.9231285E6,0E0,0E0,0E0,0E0],"parents":[2147483647,0,0,1,1,2,2],"right_children":[2,4,6,-1,-1,-1,-1],"split_conditions":[6.8E1,8.4002554E-2,1.0972017E1,4.015541E-1,1.703441E-1,-2.166952E-1,3.077452E-2],"split_indices":[0,19,13,0,0,0,0],"split_type":[0,0,0,0,0,0,0],"sum_hessian":[1.836E4,5.984E3,1.2376E4,2.027E3,3.957E3,7.589E3,4.787E3],"tree_param":{"num_deleted":"0","num_feature":"21","num_nodes":"7","size_leaf_vector":"1"}},{"base_weights":[-6.0762856E-2,-2.3075468E1,1.872498E1,-3.3347857E-1,-1.0106468E-1,2.9993874E-1,5.9751958E-2],"categories":[],"categories_nodes":[],"categories_segments":[],"categories_sizes":[],"default_left":[0,0,0,0,0,0,0],"id":112,"left_children":[1,3,5,-1,-1,-1,-1],"loss_changes":[7.957231E6,1.638693E6,2.196822E6,0E0,0E0,0E0,0E0],"parents":[2147483647,0,0,1,1,2,2],"right_children":[2,4,6,-1,-1,-1,-1],"split_conditions":[3.1179757E0,1.0888099E1,8.353392E-2,-3.3347857E-1,-1.0106468E-1,2.9993874E-1,5.9751958E-2],"split_indices":[18,13,19,0,0,0,0],"split_type":[0,0,0,0,0,0,0],"sum_hessian":[1.8404E4,8.271E3,1.0133E4,2.843E3,5.428E3,3.674E3,6.459E3],"tree_param":{"num_deleted":"0","num_feature":"21","num_nodes":"7","size_leaf_vector":"1"}},{"base_weights":[5.805996E-2,-2.2680672E1,1.899166E1,-3.3041725E-1,-9.894413E-2,3.352997E-1,9.982862E-2],"categories":[],"categories_nodes":[],"categories_segments":[],"categories_sizes":[],"default_left":[0,0,0,0,0,0,0],"id":113,"left_children":[1,3,5,-1,-1,-1,-1],"loss_changes":[7.916373E6,1.6353055E6,1.4928788E6,0E0,0E0,0E0,0E0],"parents":[2147483647,0,0,1,1,2,2],"right_children":[2,4,6,-1,-1,-1,-1],"split_conditions":[3.118238E0,3.084399E0,1.400458E3,-3.3041725E-1,-9.894413E-2,3.352997E-1,9.982862E-2],"split_indices":[18,18,15,0,0,0,0],"split_type":[0,0,0,0,0,0,0],"sum_hessian":[1.8387E4,8.354E3,1.0033E4,2.848E3,5.506E3,2.092E3,7.941E3],"tree_param":{"num_deleted":"0","num_feature":"21","num_nodes":"7","size_leaf_vector":"1"}},{"base_weights":[7.6686524E-2,2.063762E1,-2.2967144E1,3.2626152E-1,7.706469E-2,-2.9469556E-1,-8.5569516E-2],"categories":[],"categories_nodes":[],"categories_segments":[],"categories_sizes":[],"default_left":[0,0,0,0,0,0,0],"id":114,"left_children":[1,3,5,-1,-1,-1,-1],"loss_changes":[8.687018E6,2.195971E6,1.522691E6,0E0,0E0,0E0,0E0],"parents":[2147483647,0,0,1,1,2,2],"right_children":[2,4,6,-1,-1,-1,-1],"split_conditions":[1.1E2,8.4002554E-2,5.5278E2,3.2626152E-1,7.706469E-2,-2.9469556E-1,-8.5569516E-2],"split_indices":[0,19,6,0,0,0,0],"split_type":[0,0,0,0,0,0,0],"sum_hessian":[1.8334E4,9.689E3,8.645E3,3.296E3,6.393E3,3.908E3,4.737E3],"tree_param":{"num_deleted":"0","num_feature":"21","num_nodes":"7","size_leaf_vector":"1"}},{"base_weights":[1.05445966E-1,3.2299267E1,-1.4417629E1,4.225113E-1,1.8397486E-1,-2.5784564E-1,-1.579557E-2],"categories":[],"categories_nodes":[],"categories_segments":[],"categories_sizes":[],"default_left":[0,0,0,0,0,0,0],"id":115,"left_children":[1,3,5,-1,-1,-1,-1],"loss_changes":[8.609377E6,1.091403E6,2.9056588E6,0E0,0E0,0E0,0E0],"parents":[2147483647,0,0,1,1,2,2],"right_children":[2,4,6,-1,-1,-1,-1],"split_conditions":[6.5E1,8.1009865E-2,5.2107E2,4.225113E-1,1.8397486E-1,-2.5784564E-1,-1.579557E-2],"split_indices":[0,19,8,0,0,0,0],"split_type":[0,0,0,0,0,0,0],"sum_hessian":[1.8413E4,5.724E3,1.2689E4,1.663E3,4.061E3,5.099E3,7.59E3],"tree_param":{"num_deleted":"0","num_feature":"21","num_nodes":"7","size_leaf_vector":"1"}},{"base_weights":[3.4484174E-2,2.1048815E1,-2.1816828E1,3.2251E-1,7.973067E-2,-9.536882E-2,-3.130455E-1],"categories":[],"categories_nodes":[],"categories_segments":[],"categories_sizes":[],"default_left":[0,0,0,0,0,0,0],"id":116,"left_children":[1,3,5,-1,-1,-1,-1],"loss_changes":[8.442532E6,2.0473905E6,1.5752E6,0E0,0E0,0E0,0E0],"parents":[2147483647,0,0,1,1,2,2],"right_children":[2,4,6,-1,-1,-1,-1],"split_conditions":[1.06E2,3.8E1,1.4173E3,3.2251E-1,7.973067E-2,-9.536882E-2,-3.130455E-1],"split_indices":[0,0,5,0,0,0,0],"split_type":[0,0,0,0,0,0,0],"sum_hessian":[1.8385E4,9.372E3,9.013E3,3.294E3,6.078E3,5.878E3,3.135E3],"tree_param":{"num_deleted":"0","num_feature":"21","num_nodes":"7","size_leaf_vector":"1"}},{"base_weights":[-4.85791E-2,3.1809433E1,-1.4408946E1,3.993114E-1,1.7319274E-1,2.4457248E-2,-2.1237752E-1],"categories":[],"categories_nodes":[],"categories_segments":[],"categories_sizes":[],"default_left":[0,0,0,0,0,0,0],"id":117,"left_children":[1,3,5,-1,-1,-1,-1],"loss_changes":[8.402161E6,1.0600055E6,2.8118675E6,0E0,0E0,0E0,0E0],"parents":[2147483647,0,0,1,1,2,2],"right_children":[2,4,6,-1,-1,-1,-1],"split_conditions":[6.5E1,8.4002554E-2,1.40909E3,3.993114E-1,1.7319274E-1,2.4457248E-2,-2.1237752E-1],"split_indices":[0,19,5,0,0,0,0],"split_type":[0,0,0,0,0,0,0],"sum_hessian":[1.8365E4,5.706E3,1.2659E4,1.924E3,3.782E3,5.312E3,7.347E3],"tree_param":{"num_deleted":"0","num_feature":"21","num_nodes":"7","size_leaf_vector":"1"}},{"base_weights":[1.08474664E-1,2.0936104E1,-2.1495626E1,3.273007E-1,8.001699E-2,-5.4445244E-2,-2.6284012E-1],"categories":[],"categories_nodes":[],"categories_segments":[],"categories_sizes":[],"default_left":[0,0,0,0,0,0,0],"id":118,"left_children":[1,3,5,-1,-1,-1,-1],"loss_changes":[8.2863575E6,2.0929905E6,1.5811952E6,0E0,0E0,0E0,0E0],"parents":[2147483647,0,0,1,1,2,2],"right_children":[2,4,6,-1,-1,-1,-1],"split_conditions":[1.06E2,8.4002554E-2,6.4286E2,3.273007E-1,8.001699E-2,-5.4445244E-2,-2.6284012E-1],"split_indices":[0,19,4,0,0,0,0],"split_type":[0,0,0,0,0,0,0],"sum_hessian":[1.8415E4,9.376E3,9.039E3,3.191E3,6.185E3,4.089E3,4.95E3],"tree_param":{"num_deleted":"0","num_feature":"21","num_nodes":"7","size_leaf_vector":"1"}},{"base_weights":[2.1949169E-1,2.0148497E1,-2.175524E1,3.119748E-1,7.051377E-2,-7.376997E-2,-2.7745846E-1],"categories":[],"categories_nodes":[],"categories_segments":[],"categories_sizes":[],"default_left":[0,0,0,0,0,0,0],"id":119,"left_children":[1,3,5,-1,-1,-1,-1],"loss_changes":[8.0464675E6,2.1104278E6,1.4700678E6,0E0,0E0,0E0,0E0],"parents":[2147483647,0,0,1,1,2,2],"right_children":[2,4,6,-1,-1,-1,-1],"split_conditions":[1.09E2,4E1,1.41445E3,3.119748E-1,7.051377E-2,-7.376997E-2,-2.7745846E-1],"split_indices":[0,0,5,0,0,0,0],"split_type":[0,0,0,0,0,0,0],"sum_hessian":[1.8373E4,9.635E3,8.738E3,3.491E3,6.144E3,4.584E3,4.154E3],"tree_param":{"num_deleted":"0","num_feature":"21","num_nodes":"7","size_leaf_vector":"1"}},{"base_weights":[-3.2519866E-2,3.0863829E1,-1.4284351E1,4.0432426E-1,1.7555852E-1,2.0659572E-2,-2.1228082E-1],"categories":[],"categories_nodes":[],"categories_segments":[],"categories_sizes":[],"default_left":[0,0,0,0,0,0,0],"id":120,"left_children":[1,3,5,-1,-1,-1,-1],"loss_changes":[8.1146885E6,1.0201305E6,2.7278515E6,0E0,0E0,0E0,0E0],"parents":[2147483647,0,0,1,1,2,2],"right_children":[2,4,6,-1,-1,-1,-1],"split_conditions":[6.6E1,8.1009865E-2,1.40936E3,4.0432426E-1,1.7555852E-1,2.0659572E-2,-2.1228082E-1],"split_indices":[0,19,5,0,0,0,0],"split_type":[0,0,0,0,0,0,0],"sum_hessian":[1.8428E4,5.817E3,1.2611E4,1.69E3,4.127E3,5.428E3,7.183E3],"tree_param":{"num_deleted":"0","num_feature":"21","num_nodes":"7","size_leaf_vector":"1"}},{"base_weights":[-1.5866192E-2,2.9554205E1,-1.4576965E1,3.9848626E-1,1.6520452E-1,-1.818806E-1,8.2183376E-2],"categories":[],"categories_nodes":[],"categories_segments":[],"categories_sizes":[],"default_left":[0,0,0,0,0,0,0],"id":121,"left_children":[1,3,5,-1,-1,-1,-1],"loss_changes":[7.9189525E6,1.0946435E6,2.660382E6,0E0,0E0,0E0,0E0],"parents":[2147483647,0,0,1,1,2,2],"right_children":[2,4,6,-1,-1,-1,-1],"split_conditions":[6.9E1,8.1009865E-2,1.0998523E1,3.9848626E-1,1.6520452E-1,-1.818806E-1,8.2183376E-2],"split_indices":[0,19,13,0,0,0,0],"split_type":[0,0,0,0,0,0,0],"sum_hessian":[1.8391E4,6.068E3,1.2323E4,1.731E3,4.337E3,9.17E3,3.153E3],"tree_param":{"num_deleted":"0","num_feature":"21","num_nodes":"7","size_leaf_vector":"1"}},{"base_weights":[-6.081448E-2,3.134748E1,-1.3527201E1,3.6025062E-1,1.7237501E-1,-1.8047324E-1,7.353293E-2],"categories":[],"categories_nodes":[],"categories_segments":[],"categories_sizes":[],"default_left":[0,0,0,0,0,0,0],"id":122,"left_children":[1,3,5,-1,-1,-1,-1],"loss_changes":[7.8101705E6,7.56951E5,2.8080212E6,0E0,0E0,0E0,0E0],"parents":[2147483647,0,0,1,1,2,2],"right_children":[2,4,6,-1,-1,-1,-1],"split_conditions":[6.3E1,2.5E1,1.0992416E1,3.6025062E-1,1.7237501E-1,-1.8047324E-1,7.353293E-2],"split_indices":[0,0,13,0,0,0,0],"split_type":[0,0,0,0,0,0,0],"sum_hessian":[1.8465E4,5.541E3,1.2924E4,2.166E3,3.375E3,9.139E3,3.785E3],"tree_param":{"num_deleted":"0","num_feature":"21","num_nodes":"7","size_leaf_vector":"1"}},{"base_weights":[-1.933803E-2,1.8779953E1,-2.2123077E1,3.0797E-1,6.452877E-2,-6.0292426E-2,-2.602669E-1],"categories":[],"categories_nodes":[],"categories_segments":[],"categories_sizes":[],"default_left":[0,0,0,0,0,0,0],"id":123,"left_children":[1,3,5,-1,-1,-1,-1],"loss_changes":[7.638224E6,2.1475705E6,1.3492695E6,0E0,0E0,0E0,0E0],"parents":[2147483647,0,0,1,1,2,2],"right_children":[2,4,6,-1,-1,-1,-1],"split_conditions":[1.12E2,8.4002554E-2,6.4286E2,3.0797E-1,6.452877E-2,-6.0292426E-2,-2.602669E-1],"split_indices":[0,19,4,0,0,0,0],"split_type":[0,0,0,0,0,0,0],"sum_hessian":[1.8381E4,9.933E3,8.448E3,3.376E3,6.557E3,3.666E3,4.782E3],"tree_param":{"num_deleted":"0","num_feature":"21","num_nodes":"7","size_leaf_vector":"1"}},{"base_weights":[-8.2697764E-2,-2.1423756E1,1.7258215E1,-3.126383E-1,-9.305772E-2,2.832302E-1,5.2391604E-2],"categories":[],"categories_nodes":[],"categories_segments":[],"categories_sizes":[],"default_left":[0,0,0,0,0,0,0],"id":124,"left_children":[1,3,5,-1,-1,-1,-1],"loss_changes":[6.8066415E6,1.4531728E6,2.0239892E6,0E0,0E0,0E0,0E0],"parents":[2147483647,0,0,1,1,2,2],"right_children":[2,4,6,-1,-1,-1,-1],"split_conditions":[3.1179757E0,3.0837195E0,8.353392E-2,-3.126383E-1,-9.305772E-2,2.832302E-1,5.2391604E-2],"split_indices":[18,18,19,0,0,0,0],"split_type":[0,0,0,0,0,0,0],"sum_hessian":[1.8392E4,8.245E3,1.0147E4,2.814E3,5.431E3,3.646E3,6.501E3],"tree_param":{"num_deleted":"0","num_feature":"21","num_nodes":"7","size_leaf_vector":"1"}},{"base_weights":[-9.6669674E-2,2.8933064E1,-1.4015202E1,3.8357598E-1,1.6381745E-1,-1.7592014E-1,7.911753E-2],"categories":[],"categories_nodes":[],"categories_segments":[],"categories_sizes":[],"default_left":[0,0,0,0,0,0,0],"id":125,"left_children":[1,3,5,-1,-1,-1,-1],"loss_changes":[7.386329E6,9.51718E5,2.5070232E6,0E0,0E0,0E0,0E0],"parents":[2147483647,0,0,1,1,2,2],"right_children":[2,4,6,-1,-1,-1,-1],"split_conditions":[6.8E1,8.1009865E-2,1.0998523E1,3.8357598E-1,1.6381745E-1,-1.7592014E-1,7.911753E-2],"split_indices":[0,19,13,0,0,0,0],"split_type":[0,0,0,0,0,0,0],"sum_hessian":[1.828E4,5.924E3,1.2356E4,1.7E3,4.224E3,9.158E3,3.198E3],"tree_param":{"num_deleted":"0","num_feature":"21","num_nodes":"7","size_leaf_vector":"1"}},{"base_weights":[-2.575911E-2,1.659139E1,-2.1326345E1,2.7093974E-1,4.854082E-2,-1.0193693E-1,-3.254519E-1],"categories":[],"categories_nodes":[],"categories_segments":[],"categories_sizes":[],"default_left":[0,0,0,0,0,0,0],"id":126,"left_children":[1,3,5,-1,-1,-1,-1],"loss_changes":[6.516553E6,1.9317475E6,1.3553148E6,0E0,0E0,0E0,0E0],"parents":[2147483647,0,0,1,1,2,2],"right_children":[2,4,6,-1,-1,-1,-1],"split_conditions":[1.407414E3,8.353392E-2,1.417055E3,2.7093974E-1,4.854082E-2,-1.0193693E-1,-3.254519E-1],"split_indices":[15,19,15,0,0,0,0],"split_type":[0,0,0,0,0,0,0],"sum_hessian":[1.841E4,1.0342E4,8.068E3,3.793E3,6.549E3,5.711E3,2.357E3],"tree_param":{"num_deleted":"0","num_feature":"21","num_nodes":"7","size_leaf_vector":"1"}},{"base_weights":[-7.063584E-2,-2.0928179E1,1.7099245E1,-3.0704373E-1,-9.1485046E-2,2.810156E-1,5.0219614E-2],"categories":[],"categories_nodes":[],"categories_segments":[],"categories_sizes":[],"default_left":[0,0,0,0,0,0,0],"id":127,"left_children":[1,3,5,-1,-1,-1,-1],"loss_changes":[6.61045E6,1.4067032E6,2.0285675E6,0E0,0E0,0E0,0E0],"parents":[2147483647,0,0,1,1,2,2],"right_children":[2,4,6,-1,-1,-1,-1],"split_conditions":[3.1179757E0,1.0886406E1,8.353392E-2,-3.0704373E-1,-9.1485046E-2,2.810156E-1,5.0219614E-2],"split_indices":[18,13,19,0,0,0,0],"split_type":[0,0,0,0,0,0,0],"sum_hessian":[1.8458E4,8.334E3,1.0124E4,2.808E3,5.526E3,3.679E3,6.445E3],"tree_param":{"num_deleted":"0","num_feature":"21","num_nodes":"7","size_leaf_vector":"1"}},{"base_weights":[-3.1453647E-2,2.8771963E1,-1.3614875E1,3.6322147E-1,1.5528458E-1,-1.9135813E-1,3.4602463E-2],"categories":[],"categories_nodes":[],"categories_segments":[],"categories_sizes":[],"default_left":[0,0,0,0,0,0,0],"id":128,"left_children":[1,3,5,-1,-1,-1,-1],"loss_changes":[7.2011995E6,9.279975E5,2.4320095E6,0E0,0E0,0E0,0E0],"parents":[2147483647,0,0,1,1,2,2],"right_children":[2,4,6,-1,-1,-1,-1],"split_conditions":[6.7E1,8.4002554E-2,1.0974316E1,3.6322147E-1,1.5528458E-1,-1.9135813E-1,3.4602463E-2],"split_indices":[0,19,13,0,0,0,0],"split_type":[0,0,0,0,0,0,0],"sum_hessian":[1.8405E4,5.898E3,1.2507E4,1.995E3,3.903E3,7.825E3,4.682E3],"tree_param":{"num_deleted":"0","num_feature":"21","num_nodes":"7","size_leaf_vector":"1"}},{"base_weights":[1.6722216E-1,2.8950457E1,-1.3423535E1,3.6027873E-1,1.5721987E-1,-1.7421325E-1,6.517845E-2],"categories":[],"categories_nodes":[],"categories_segments":[],"categories_sizes":[],"default_left":[0,0,0,0,0,0,0],"id":129,"left_children":[1,3,5,-1,-1,-1,-1],"loss_changes":[7.189091E6,8.91248E5,2.38532E6,0E0,0E0,0E0,0E0],"parents":[2147483647,0,0,1,1,2,2],"right_children":[2,4,6,-1,-1,-1,-1],"split_conditions":[6.7E1,8.4002554E-2,1.0992416E1,3.6027873E-1,1.5721987E-1,-1.7421325E-1,6.517845E-2],"split_indices":[0,19,13,0,0,0,0],"split_type":[0,0,0,0,0,0,0],"sum_hessian":[1.8377E4,5.894E3,1.2483E4,2.026E3,3.868E3,8.888E3,3.595E3],"tree_param":{"num_deleted":"0","num_feature":"21","num_nodes":"7","size_leaf_vector":"1"}},{"base_weights":[5.324098E-2,1.9824831E1,-1.7442854E1,3.106439E-1,7.081707E-2,-2.8825825E-1,-6.2598065E-2],"categories":[],"categories_nodes":[],"categories_segments":[],"categories_sizes":[],"default_left":[0,0,0,0,0,0,0],"id":130,"left_children":[1,3,5,-1,-1,-1,-1],"loss_changes":[6.351083E6,1.8408878E6,1.7797132E6,0E0,0E0,0E0,0E0],"parents":[2147483647,0,0,1,1,2,2],"right_children":[2,4,6,-1,-1,-1,-1],"split_conditions":[1.40587E3,8.353392E-2,1.0897324E1,3.106439E-1,7.081707E-2,-2.8825825E-1,-6.2598065E-2],"split_indices":[15,19,13,0,0,0,0],"split_type":[0,0,0,0,0,0,0],"sum_hessian":[1.8359E4,8.619E3,9.74E3,3.042E3,5.577E3,3.202E3,6.538E3],"tree_param":{"num_deleted":"0","num_feature":"21","num_nodes":"7","size_leaf_vector":"1"}},{"base_weights":[-8.817162E-2,2.8096373E1,-1.3859171E1,3.7809166E-1,1.5641856E-1,-3.7852675E-2,-2.635473E-1],"categories":[],"categories_nodes":[],"categories_segments":[],"categories_sizes":[],"default_left":[0,0,0,0,0,0,0],"id":131,"left_children":[1,3,5,-1,-1,-1,-1],"loss_changes":[7.1379595E6,9.89373E5,2.203493E6,0E0,0E0,0E0,0E0],"parents":[2147483647,0,0,1,1,2,2],"right_children":[2,4,6,-1,-1,-1,-1],"split_conditions":[6.9E1,8.1009865E-2,1.413342E3,3.7809166E-1,1.5641856E-1,-3.7852675E-2,-2.635473E-1],"split_indices":[0,19,15,0,0,0,0],"split_type":[0,0,0,0,0,0,0],"sum_hessian":[1.839E4,6.036E3,1.2354E4,1.74E3,4.296E3,8.477E3,3.877E3],"tree_param":{"num_deleted":"0","num_feature":"21","num_nodes":"7","size_leaf_vector":"1"}},